<?xml version="1.0"?>
<opencv_storage>
<stage5>
  <maxWeakCount>11</maxWeakCount>
  <stageThreshold>-1.9863426685333252e+00</stageThreshold>
  <weakClassifiers>
    <_>
      <internalNodes>
        0 -1 100647 1.1660057120025158e-02</internalNodes>
      <leafValues>
        -8.2712578773498535e-01 -8.3210244774818420e-02</leafValues></_>
    <_>
      <internalNodes>
        0 -1 51544 -4.5906953513622284e-02</internalNodes>
      <leafValues>
        2.7446424961090088e-01 -5.9011501073837280e-01</leafValues></_>
    <_>
      <internalNodes>
        0 -1 144263 7.9651772975921631e-03</internalNodes>
      <leafValues>
        -5.6232619285583496e-01 3.4893795847892761e-01</leafValues></_>
    <_>
      <internalNodes>
        0 -1 116983 2.9766734689474106e-02</internalNodes>
      <leafValues>
        -8.4398853778839111e-01 2.0228584110736847e-01</leafValues></_>
    <_>
      <internalNodes>
        0 -1 13050 1.1934239417314529e-02</internalNodes>
      <leafValues>
        -3.5578307509422302e-01 4.7736653685569763e-01</leafValues></_>
    <_>
      <internalNodes>
        0 -1 71317 -1.4582467265427113e-02</internalNodes>
      <leafValues>
        2.0386140048503876e-01 -7.2512674331665039e-01</leafValues></_>
    <_>
      <internalNodes>
        0 -1 122010 -1.2262979522347450e-02</internalNodes>
      <leafValues>
        3.7026402354240417e-01 -4.2042154073715210e-01</leafValues></_>
    <_>
      <internalNodes>
        0 -1 34184 -1.4997282065451145e-02</internalNodes>
      <leafValues>
        2.3170369863510132e-01 -6.0437345504760742e-01</leafValues></_>
    <_>
      <internalNodes>
        0 -1 139235 -5.1994537934660912e-03</internalNodes>
      <leafValues>
        4.6639356017112732e-01 -3.3133825659751892e-01</leafValues></_>
    <_>
      <internalNodes>
        0 -1 112571 -2.8119273483753204e-03</internalNodes>
      <leafValues>
        4.6280428767204285e-01 -2.7009224891662598e-01</leafValues></_>
    <_>
      <internalNodes>
        0 -1 20208 4.6733058989048004e-03</internalNodes>
      <leafValues>
        -6.3294851779937744e-01 1.8811218440532684e-01</leafValues></_></weakClassifiers></stage5>
</opencv_storage>
