<?xml version="1.0"?>
<opencv_storage>
<stage1>
  <maxWeakCount>5</maxWeakCount>
  <stageThreshold>-1.7077609300613403e+00</stageThreshold>
  <weakClassifiers>
    <_>
      <internalNodes>
        0 -1 42946 7.3065727949142456e-02</internalNodes>
      <leafValues>
        -9.2048794031143188e-01 2.0021356642246246e-01</leafValues></_>
    <_>
      <internalNodes>
        0 -1 83034 1.2392958626151085e-02</internalNodes>
      <leafValues>
        -7.8369861841201782e-01 4.0172037482261658e-01</leafValues></_>
    <_>
      <internalNodes>
        0 -1 71448 -4.4764861464500427e-02</internalNodes>
      <leafValues>
        5.0790005922317505e-01 -7.4655783176422119e-01</leafValues></_>
    <_>
      <internalNodes>
        0 -1 152688 4.5618419535458088e-03</internalNodes>
      <leafValues>
        -7.8229641914367676e-01 4.0857619047164917e-01</leafValues></_>
    <_>
      <internalNodes>
        0 -1 7367 -2.5051499251276255e-03</internalNodes>
      <leafValues>
        3.3986085653305054e-01 -8.8202357292175293e-01</leafValues></_></weakClassifiers></stage1>
</opencv_storage>
