<?xml version="1.0"?>
<opencv_storage>
<stage5>
  <maxWeakCount>11</maxWeakCount>
  <stageThreshold>-2.1066806316375732e+00</stageThreshold>
  <weakClassifiers>
    <_>
      <internalNodes>
        0 -1 122506 -1.3768376782536507e-02</internalNodes>
      <leafValues>
        -1.3636364042758942e-01 -8.3678501844406128e-01</leafValues></_>
    <_>
      <internalNodes>
        0 -1 9560 4.4938158243894577e-02</internalNodes>
      <leafValues>
        -4.1992866992950439e-01 5.1377534866333008e-01</leafValues></_>
    <_>
      <internalNodes>
        0 -1 71386 -1.9236855208873749e-02</internalNodes>
      <leafValues>
        3.1993147730827332e-01 -5.7323926687240601e-01</leafValues></_>
    <_>
      <internalNodes>
        0 -1 116256 -1.5630707144737244e-02</internalNodes>
      <leafValues>
        2.7512377500534058e-01 -5.3769451379776001e-01</leafValues></_>
    <_>
      <internalNodes>
        0 -1 30166 4.3251365423202515e-02</internalNodes>
      <leafValues>
        -6.6700577735900879e-01 2.9441291093826294e-01</leafValues></_>
    <_>
      <internalNodes>
        0 -1 159080 -1.7583761364221573e-02</internalNodes>
      <leafValues>
        5.0777250528335571e-01 -3.4987863898277283e-01</leafValues></_>
    <_>
      <internalNodes>
        0 -1 111728 -1.3286363333463669e-02</internalNodes>
      <leafValues>
        3.3636227250099182e-01 -4.4866946339607239e-01</leafValues></_>
    <_>
      <internalNodes>
        0 -1 339 -1.1971755884587765e-02</internalNodes>
      <leafValues>
        2.7775141596794128e-01 -4.5317071676254272e-01</leafValues></_>
    <_>
      <internalNodes>
        0 -1 34892 -1.8944017589092255e-02</internalNodes>
      <leafValues>
        1.9788193702697754e-01 -6.4250820875167847e-01</leafValues></_>
    <_>
      <internalNodes>
        0 -1 57299 -3.3126785419881344e-03</internalNodes>
      <leafValues>
        2.8691324591636658e-01 -3.8061454892158508e-01</leafValues></_>
    <_>
      <internalNodes>
        0 -1 138964 -6.8316822871565819e-03</internalNodes>
      <leafValues>
        4.0425083041191101e-01 -2.7719721198081970e-01</leafValues></_></weakClassifiers></stage5>
</opencv_storage>
