<?xml version="1.0"?>
<opencv_storage>
<stage2>
  <maxWeakCount>7</maxWeakCount>
  <stageThreshold>-2.3168239593505859e+00</stageThreshold>
  <weakClassifiers>
    <_>
      <internalNodes>
        0 -1 100647 1.2055097147822380e-02</internalNodes>
      <leafValues>
        -8.3621782064437866e-01 1.6773366928100586e-01</leafValues></_>
    <_>
      <internalNodes>
        0 -1 42215 4.8431336879730225e-02</internalNodes>
      <leafValues>
        -8.6228561401367188e-01 2.9949653148651123e-01</leafValues></_>
    <_>
      <internalNodes>
        0 -1 62323 -2.3735007271170616e-02</internalNodes>
      <leafValues>
        3.8531455397605896e-01 -6.6185170412063599e-01</leafValues></_>
    <_>
      <internalNodes>
        0 -1 81390 -1.9777819514274597e-02</internalNodes>
      <leafValues>
        4.4572335481643677e-01 -6.1887812614440918e-01</leafValues></_>
    <_>
      <internalNodes>
        0 -1 152688 4.7901142388582230e-03</internalNodes>
      <leafValues>
        -7.4752229452133179e-01 3.3365738391876221e-01</leafValues></_>
    <_>
      <internalNodes>
        0 -1 240 3.2590185292065144e-03</internalNodes>
      <leafValues>
        -4.8810327053070068e-01 4.5023247599601746e-01</leafValues></_>
    <_>
      <internalNodes>
        0 -1 12661 2.0326707512140274e-02</internalNodes>
      <leafValues>
        -3.4492695331573486e-01 5.9712713956832886e-01</leafValues></_></weakClassifiers></stage2>
</opencv_storage>
