<?xml version="1.0"?>
<opencv_storage>
<stage5>
  <maxWeakCount>15</maxWeakCount>
  <stageThreshold>-2.2257645130157471e+00</stageThreshold>
  <weakClassifiers>
    <_>
      <internalNodes>
        0 -1 116187 -1.5575885772705078e-02</internalNodes>
      <leafValues>
        -1.3974896073341370e-01 -8.6086958646774292e-01</leafValues></_>
    <_>
      <internalNodes>
        0 -1 4236 1.9027259200811386e-02</internalNodes>
      <leafValues>
        -5.4332983493804932e-01 2.6021564006805420e-01</leafValues></_>
    <_>
      <internalNodes>
        0 -1 157680 -5.7694152928888798e-04</internalNodes>
      <leafValues>
        3.1441575288772583e-01 -4.5438936352729797e-01</leafValues></_>
    <_>
      <internalNodes>
        0 -1 64886 2.0509988069534302e-02</internalNodes>
      <leafValues>
        -6.9315111637115479e-01 2.1564300358295441e-01</leafValues></_>
    <_>
      <internalNodes>
        0 -1 62387 1.7624296247959137e-02</internalNodes>
      <leafValues>
        -5.4241544008255005e-01 3.0166935920715332e-01</leafValues></_>
    <_>
      <internalNodes>
        0 -1 13324 1.0344982147216797e-02</internalNodes>
      <leafValues>
        -3.1738343834877014e-01 4.5982933044433594e-01</leafValues></_>
    <_>
      <internalNodes>
        0 -1 81370 -2.0363744348287582e-02</internalNodes>
      <leafValues>
        3.4191620349884033e-01 -4.4847327470779419e-01</leafValues></_>
    <_>
      <internalNodes>
        0 -1 159080 -1.9658911973237991e-02</internalNodes>
      <leafValues>
        5.0528323650360107e-01 -2.4419392645359039e-01</leafValues></_>
    <_>
      <internalNodes>
        0 -1 92263 4.2251467704772949e-02</internalNodes>
      <leafValues>
        1.7018409073352814e-01 -7.3386043310165405e-01</leafValues></_>
    <_>
      <internalNodes>
        0 -1 76779 1.7247362993657589e-03</internalNodes>
      <leafValues>
        -6.2134522199630737e-01 1.7793650925159454e-01</leafValues></_>
    <_>
      <internalNodes>
        0 -1 126927 7.2973972419276834e-04</internalNodes>
      <leafValues>
        -2.9182803630828857e-01 3.7438222765922546e-01</leafValues></_>
    <_>
      <internalNodes>
        0 -1 10736 1.6072674188762903e-03</internalNodes>
      <leafValues>
        1.4416129887104034e-01 -7.7954638004302979e-01</leafValues></_>
    <_>
      <internalNodes>
        0 -1 80 6.5365782938897610e-04</internalNodes>
      <leafValues>
        -3.9286190271377563e-01 2.7390763163566589e-01</leafValues></_>
    <_>
      <internalNodes>
        0 -1 149229 1.3137931004166603e-02</internalNodes>
      <leafValues>
        -5.5940186977386475e-01 2.0316556096076965e-01</leafValues></_>
    <_>
      <internalNodes>
        0 -1 12673 -1.0256733745336533e-02</internalNodes>
      <leafValues>
        3.6672091484069824e-01 -3.0279782414436340e-01</leafValues></_></weakClassifiers></stage5>
</opencv_storage>
