<?xml version="1.0"?>
<opencv_storage>
<stage9>
  <maxWeakCount>24</maxWeakCount>
  <stageThreshold>-2.1705384254455566e+00</stageThreshold>
  <weakClassifiers>
    <_>
      <internalNodes>
        0 -1 100647 1.2101247906684875e-02</internalNodes>
      <leafValues>
        -7.9122948646545410e-01 -2.9384437203407288e-01</leafValues></_>
    <_>
      <internalNodes>
        0 -1 37268 1.4173289760947227e-02</internalNodes>
      <leafValues>
        -3.9435747265815735e-01 2.8008833527565002e-01</leafValues></_>
    <_>
      <internalNodes>
        0 -1 26692 -8.5358053445816040e-02</internalNodes>
      <leafValues>
        2.6786389946937561e-01 -3.8769403100013733e-01</leafValues></_>
    <_>
      <internalNodes>
        0 -1 161835 -4.2607204522937536e-04</internalNodes>
      <leafValues>
        2.7986204624176025e-01 -3.3390134572982788e-01</leafValues></_>
    <_>
      <internalNodes>
        0 -1 105554 2.4372353218495846e-03</internalNodes>
      <leafValues>
        -1.9778917729854584e-01 4.3458223342895508e-01</leafValues></_>
    <_>
      <internalNodes>
        0 -1 126059 -4.5939432457089424e-03</internalNodes>
      <leafValues>
        1.3795161247253418e-01 -7.2261637449264526e-01</leafValues></_>
    <_>
      <internalNodes>
        0 -1 108322 -2.5355180725455284e-02</internalNodes>
      <leafValues>
        1.9733539223670959e-01 -4.5682594180107117e-01</leafValues></_>
    <_>
      <internalNodes>
        0 -1 26800 -1.3194935396313667e-02</internalNodes>
      <leafValues>
        -7.7904343605041504e-01 9.4074472784996033e-02</leafValues></_>
    <_>
      <internalNodes>
        0 -1 240 2.8024369385093451e-03</internalNodes>
      <leafValues>
        -3.6530837416648865e-01 2.1975517272949219e-01</leafValues></_>
    <_>
      <internalNodes>
        0 -1 16468 1.4235449954867363e-02</internalNodes>
      <leafValues>
        -3.1202012300491333e-01 2.5158727169036865e-01</leafValues></_>
    <_>
      <internalNodes>
        0 -1 35442 -2.3542803246527910e-03</internalNodes>
      <leafValues>
        -7.8559142351150513e-01 7.7188685536384583e-02</leafValues></_>
    <_>
      <internalNodes>
        0 -1 84599 5.8924626559019089e-02</internalNodes>
      <leafValues>
        8.8981159031391144e-02 -7.4764567613601685e-01</leafValues></_>
    <_>
      <internalNodes>
        0 -1 111262 -1.5552875120192766e-03</internalNodes>
      <leafValues>
        -6.8363273143768311e-01 9.9254950881004333e-02</leafValues></_>
    <_>
      <internalNodes>
        0 -1 117756 1.4327568933367729e-03</internalNodes>
      <leafValues>
        -4.6174672245979309e-01 1.5005606412887573e-01</leafValues></_>
    <_>
      <internalNodes>
        0 -1 155206 2.3293169215321541e-03</internalNodes>
      <leafValues>
        1.0159131139516830e-01 -6.1463093757629395e-01</leafValues></_>
    <_>
      <internalNodes>
        0 -1 114003 5.3765783086419106e-03</internalNodes>
      <leafValues>
        -1.5049931406974792e-01 4.6783348917961121e-01</leafValues></_>
    <_>
      <internalNodes>
        0 -1 120919 -1.6024243086576462e-03</internalNodes>
      <leafValues>
        4.8209512233734131e-01 -1.6874019801616669e-01</leafValues></_>
    <_>
      <internalNodes>
        0 -1 162100 -8.8009535102173686e-04</internalNodes>
      <leafValues>
        -6.6108304262161255e-01 1.1883927136659622e-01</leafValues></_>
    <_>
      <internalNodes>
        0 -1 22671 3.3552414970472455e-04</internalNodes>
      <leafValues>
        9.1039828956127167e-02 -6.0457354784011841e-01</leafValues></_>
    <_>
      <internalNodes>
        0 -1 116616 -1.3177156448364258e-02</internalNodes>
      <leafValues>
        3.1604292988777161e-01 -2.1837125718593597e-01</leafValues></_>
    <_>
      <internalNodes>
        0 -1 152059 4.3144952505826950e-03</internalNodes>
      <leafValues>
        -3.3382740616798401e-01 2.1001416444778442e-01</leafValues></_>
    <_>
      <internalNodes>
        0 -1 16946 9.6628770232200623e-02</internalNodes>
      <leafValues>
        8.3365246653556824e-02 -7.8154587745666504e-01</leafValues></_>
    <_>
      <internalNodes>
        0 -1 90337 -1.2362103443592787e-03</internalNodes>
      <leafValues>
        2.0575819909572601e-01 -3.1353953480720520e-01</leafValues></_>
    <_>
      <internalNodes>
        0 -1 154728 -6.2471993267536163e-02</internalNodes>
      <leafValues>
        7.1904540061950684e-01 -1.0416664928197861e-01</leafValues></_></weakClassifiers></stage9>
</opencv_storage>
