<?xml version="1.0"?>
<opencv_storage>
<stage4>
  <maxWeakCount>13</maxWeakCount>
  <stageThreshold>-2.4839808940887451e+00</stageThreshold>
  <weakClassifiers>
    <_>
      <internalNodes>
        0 -1 122506 -1.3509087264537811e-02</internalNodes>
      <leafValues>
        -4.3176177889108658e-02 -8.4317386150360107e-01</leafValues></_>
    <_>
      <internalNodes>
        0 -1 9560 3.2724969089031219e-02</internalNodes>
      <leafValues>
        -4.8332905769348145e-01 4.2448586225509644e-01</leafValues></_>
    <_>
      <internalNodes>
        0 -1 31049 3.4282244741916656e-02</internalNodes>
      <leafValues>
        -5.8475422859191895e-01 3.3246576786041260e-01</leafValues></_>
    <_>
      <internalNodes>
        0 -1 116337 3.0711811035871506e-02</internalNodes>
      <leafValues>
        -4.7003325819969177e-01 4.0309914946556091e-01</leafValues></_>
    <_>
      <internalNodes>
        0 -1 71261 -1.2896646745502949e-02</internalNodes>
      <leafValues>
        2.9802045226097107e-01 -7.0597428083419800e-01</leafValues></_>
    <_>
      <internalNodes>
        0 -1 78184 -1.4951555058360100e-02</internalNodes>
      <leafValues>
        3.1099030375480652e-01 -4.9319830536842346e-01</leafValues></_>
    <_>
      <internalNodes>
        0 -1 80955 7.9122167080640793e-03</internalNodes>
      <leafValues>
        -5.9352684020996094e-01 2.7689385414123535e-01</leafValues></_>
    <_>
      <internalNodes>
        0 -1 143797 -1.2252145446836948e-02</internalNodes>
      <leafValues>
        5.2701139450073242e-01 -2.9731684923171997e-01</leafValues></_>
    <_>
      <internalNodes>
        0 -1 32464 6.3252961263060570e-03</internalNodes>
      <leafValues>
        -7.6048290729522705e-01 1.6599614918231964e-01</leafValues></_>
    <_>
      <internalNodes>
        0 -1 240 3.1595905311405659e-03</internalNodes>
      <leafValues>
        -4.0235075354576111e-01 3.1910184025764465e-01</leafValues></_>
    <_>
      <internalNodes>
        0 -1 7979 -2.5051411986351013e-01</internalNodes>
      <leafValues>
        6.7563807964324951e-01 -1.6693733632564545e-01</leafValues></_>
    <_>
      <internalNodes>
        0 -1 134063 1.3834537938237190e-02</internalNodes>
      <leafValues>
        -3.4031549096107483e-01 3.5478553175926208e-01</leafValues></_>
    <_>
      <internalNodes>
        0 -1 142605 -6.4604850485920906e-03</internalNodes>
      <leafValues>
        1.8319164216518402e-01 -6.6625970602035522e-01</leafValues></_></weakClassifiers></stage4>
</opencv_storage>
