<?xml version="1.0"?>
<opencv_storage>
<cascade>
  <stageType>BOOST</stageType>
  <featureType>HAAR</featureType>
  <height>24</height>
  <width>24</width>
  <stageParams>
    <boostType>GAB</boostType>
    <minHitRate>9.9500000476837158e-01</minHitRate>
    <maxFalseAlarm>3.0000001192092896e-01</maxFalseAlarm>
    <weightTrimRate>9.4999999999999996e-01</weightTrimRate>
    <maxDepth>1</maxDepth>
    <maxWeakCount>100</maxWeakCount></stageParams>
  <featureParams>
    <maxCatCount>0</maxCatCount>
    <featSize>1</featSize>
    <mode>BASIC</mode></featureParams>
  <stageNum>11</stageNum>
  <stages>
    <!-- stage 0 -->
    <_>
      <maxWeakCount>6</maxWeakCount>
      <stageThreshold>-2.0063178539276123e+00</stageThreshold>
      <weakClassifiers>
        <_>
          <internalNodes>
            0 -1 41 9.8638251423835754e-02</internalNodes>
          <leafValues>
            -9.4141894578933716e-01 3.7788289785385132e-01</leafValues></_>
        <_>
          <internalNodes>
            0 -1 169 -7.9595036804676056e-03</internalNodes>
          <leafValues>
            5.2068662643432617e-01 -8.2095456123352051e-01</leafValues></_>
        <_>
          <internalNodes>
            0 -1 84 -3.3385682851076126e-02</internalNodes>
          <leafValues>
            4.8782888054847717e-01 -7.6698285341262817e-01</leafValues></_>
        <_>
          <internalNodes>
            0 -1 78 -2.3754652589559555e-02</internalNodes>
          <leafValues>
            5.8249598741531372e-01 -5.7460963726043701e-01</leafValues></_>
        <_>
          <internalNodes>
            0 -1 189 9.2244613915681839e-03</internalNodes>
          <leafValues>
            -7.8067147731781006e-01 3.7193703651428223e-01</leafValues></_>
        <_>
          <internalNodes>
            0 -1 181 -5.9811333194375038e-03</internalNodes>
          <leafValues>
            6.4576750993728638e-01 -4.3139454722404480e-01</leafValues></_></weakClassifiers></_>
    <!-- stage 1 -->
    <_>
      <maxWeakCount>7</maxWeakCount>
      <stageThreshold>-1.6137343645095825e+00</stageThreshold>
      <weakClassifiers>
        <_>
          <internalNodes>
            0 -1 95 1.6223046928644180e-02</internalNodes>
          <leafValues>
            -8.7562298774719238e-01 2.0237389206886292e-01</leafValues></_>
        <_>
          <internalNodes>
            0 -1 77 -7.1807250380516052e-02</internalNodes>
          <leafValues>
            4.1785120964050293e-01 -7.2150832414627075e-01</leafValues></_>
        <_>
          <internalNodes>
            0 -1 31 -3.9363212883472443e-02</internalNodes>
          <leafValues>
            3.6081418395042419e-01 -8.5156565904617310e-01</leafValues></_>
        <_>
          <internalNodes>
            0 -1 206 4.7763474285602570e-03</internalNodes>
          <leafValues>
            -8.1655347347259521e-01 3.1352621316909790e-01</leafValues></_>
        <_>
          <internalNodes>
            0 -1 66 -3.9838910102844238e-02</internalNodes>
          <leafValues>
            4.8206549882888794e-01 -4.8243960738182068e-01</leafValues></_>
        <_>
          <internalNodes>
            0 -1 44 2.3688973858952522e-02</internalNodes>
          <leafValues>
            -6.3536131381988525e-01 3.4504887461662292e-01</leafValues></_>
        <_>
          <internalNodes>
            0 -1 148 -1.1255832388997078e-02</internalNodes>
          <leafValues>
            6.6545236110687256e-01 -3.2526567578315735e-01</leafValues></_></weakClassifiers></_>
    <!-- stage 2 -->
    <_>
      <maxWeakCount>10</maxWeakCount>
      <stageThreshold>-1.8324484825134277e+00</stageThreshold>
      <weakClassifiers>
        <_>
          <internalNodes>
            0 -1 152 -1.9964985549449921e-02</internalNodes>
          <leafValues>
            3.2608695328235626e-02 -8.8072967529296875e-01</leafValues></_>
        <_>
          <internalNodes>
            0 -1 64 -2.7798017486929893e-02</internalNodes>
          <leafValues>
            2.0419384539127350e-01 -7.9866319894790649e-01</leafValues></_>
        <_>
          <internalNodes>
            0 -1 51 1.4404349029064178e-02</internalNodes>
          <leafValues>
            -4.5774707198143005e-01 5.2335369586944580e-01</leafValues></_>
        <_>
          <internalNodes>
            0 -1 117 1.0320117697119713e-02</internalNodes>
          <leafValues>
            -4.3193629384040833e-01 4.9493366479873657e-01</leafValues></_>
        <_>
          <internalNodes>
            0 -1 42 4.4757474213838577e-02</internalNodes>
          <leafValues>
            -8.2486259937286377e-01 3.5791444778442383e-01</leafValues></_>
        <_>
          <internalNodes>
            0 -1 220 -1.6961175948381424e-02</internalNodes>
          <leafValues>
            5.3341150283813477e-01 -4.2992836236953735e-01</leafValues></_>
        <_>
          <internalNodes>
            0 -1 7 2.8855649288743734e-03</internalNodes>
          <leafValues>
            -4.4431090354919434e-01 4.2462372779846191e-01</leafValues></_>
        <_>
          <internalNodes>
            0 -1 30 -6.0574747622013092e-03</internalNodes>
          <leafValues>
            3.0525824427604675e-01 -6.4137196540832520e-01</leafValues></_>
        <_>
          <internalNodes>
            0 -1 195 1.0210148990154266e-02</internalNodes>
          <leafValues>
            -4.4873261451721191e-01 3.7707483768463135e-01</leafValues></_>
        <_>
          <internalNodes>
            0 -1 10 1.2699603103101254e-02</internalNodes>
          <leafValues>
            -3.9272040128707886e-01 4.7396290302276611e-01</leafValues></_></weakClassifiers></_>
    <!-- stage 3 -->
    <_>
      <maxWeakCount>14</maxWeakCount>
      <stageThreshold>-1.6473666429519653e+00</stageThreshold>
      <weakClassifiers>
        <_>
          <internalNodes>
            0 -1 150 -3.2206654548645020e-02</internalNodes>
          <leafValues>
            -1.0903691500425339e-01 -8.7319302558898926e-01</leafValues></_>
        <_>
          <internalNodes>
            0 -1 76 1.7959237098693848e-02</internalNodes>
          <leafValues>
            -7.4196934700012207e-01 1.2932436168193817e-01</leafValues></_>
        <_>
          <internalNodes>
            0 -1 102 -1.4219339936971664e-02</internalNodes>
          <leafValues>
            2.7484834194183350e-01 -6.0094559192657471e-01</leafValues></_>
        <_>
          <internalNodes>
            0 -1 186 -9.2424824833869934e-03</internalNodes>
          <leafValues>
            4.4425502419471741e-01 -3.8703238964080811e-01</leafValues></_>
        <_>
          <internalNodes>
            0 -1 80 5.8141648769378662e-02</internalNodes>
          <leafValues>
            -5.6404733657836914e-01 2.9456961154937744e-01</leafValues></_>
        <_>
          <internalNodes>
            0 -1 1 7.9128053039312363e-04</internalNodes>
          <leafValues>
            -4.3218544125556946e-01 3.9824733138084412e-01</leafValues></_>
        <_>
          <internalNodes>
            0 -1 197 -6.5699350088834763e-03</internalNodes>
          <leafValues>
            2.3511201143264771e-01 -6.4268350601196289e-01</leafValues></_>
        <_>
          <internalNodes>
            0 -1 57 -3.0074657406657934e-03</internalNodes>
          <leafValues>
            3.6259061098098755e-01 -3.9747381210327148e-01</leafValues></_>
        <_>
          <internalNodes>
            0 -1 81 7.9576289281249046e-03</internalNodes>
          <leafValues>
            -7.4652546644210815e-01 1.7083136737346649e-01</leafValues></_>
        <_>
          <internalNodes>
            0 -1 23 4.5559061691164970e-03</internalNodes>
          <leafValues>
            -3.8344171643257141e-01 3.2633411884307861e-01</leafValues></_>
        <_>
          <internalNodes>
            0 -1 172 -2.3411354050040245e-03</internalNodes>
          <leafValues>
            3.9077106118202209e-01 -3.6378803849220276e-01</leafValues></_>
        <_>
          <internalNodes>
            0 -1 8 -6.3488259911537170e-03</internalNodes>
          <leafValues>
            2.2037856280803680e-01 -5.0135987997055054e-01</leafValues></_>
        <_>
          <internalNodes>
            0 -1 53 8.6773484945297241e-03</internalNodes>
          <leafValues>
            -7.7677232027053833e-01 1.2539717555046082e-01</leafValues></_>
        <_>
          <internalNodes>
            0 -1 79 8.4839858114719391e-02</internalNodes>
          <leafValues>
            1.3078737258911133e-01 -7.5251120328903198e-01</leafValues></_></weakClassifiers></_>
    <!-- stage 4 -->
    <_>
      <maxWeakCount>21</maxWeakCount>
      <stageThreshold>-1.9737007617950439e+00</stageThreshold>
      <weakClassifiers>
        <_>
          <internalNodes>
            0 -1 87 1.7694246023893356e-02</internalNodes>
          <leafValues>
            -8.4351146221160889e-01 -2.3024316132068634e-01</leafValues></_>
        <_>
          <internalNodes>
            0 -1 205 -1.7127720639109612e-03</internalNodes>
          <leafValues>
            2.2543831169605255e-01 -5.5140513181686401e-01</leafValues></_>
        <_>
          <internalNodes>
            0 -1 207 -1.2631282210350037e-02</internalNodes>
          <leafValues>
            3.0083972215652466e-01 -4.5940232276916504e-01</leafValues></_>
        <_>
          <internalNodes>
            0 -1 139 -4.9452935345470905e-03</internalNodes>
          <leafValues>
            5.5125904083251953e-01 -2.5240534543991089e-01</leafValues></_>
        <_>
          <internalNodes>
            0 -1 149 -1.8727004528045654e-02</internalNodes>
          <leafValues>
            2.5756722688674927e-01 -5.3642672300338745e-01</leafValues></_>
        <_>
          <internalNodes>
            0 -1 52 -6.5624564886093140e-02</internalNodes>
          <leafValues>
            2.6936411857604980e-01 -4.6934390068054199e-01</leafValues></_>
        <_>
          <internalNodes>
            0 -1 14 5.7838484644889832e-02</internalNodes>
          <leafValues>
            -2.2035622596740723e-01 6.1289554834365845e-01</leafValues></_>
        <_>
          <internalNodes>
            0 -1 105 2.4246545508503914e-03</internalNodes>
          <leafValues>
            -5.7029813528060913e-01 2.2313073277473450e-01</leafValues></_>
        <_>
          <internalNodes>
            0 -1 146 -6.3563454896211624e-03</internalNodes>
          <leafValues>
            5.7012003660202026e-01 -1.8997298181056976e-01</leafValues></_>
        <_>
          <internalNodes>
            0 -1 210 1.8967143259942532e-03</internalNodes>
          <leafValues>
            1.1133367568254471e-01 -8.8549339771270752e-01</leafValues></_>
        <_>
          <internalNodes>
            0 -1 199 -1.9197352230548859e-02</internalNodes>
          <leafValues>
            4.8823845386505127e-01 -2.0498760044574738e-01</leafValues></_>
        <_>
          <internalNodes>
            0 -1 85 -7.1235612034797668e-02</internalNodes>
          <leafValues>
            -8.4573793411254883e-01 1.2450037151575089e-01</leafValues></_>
        <_>
          <internalNodes>
            0 -1 115 -4.7223555156961083e-04</internalNodes>
          <leafValues>
            -7.0059305429458618e-01 1.0243827104568481e-01</leafValues></_>
        <_>
          <internalNodes>
            0 -1 56 -1.2006094679236412e-02</internalNodes>
          <leafValues>
            1.3280762732028961e-01 -6.0406720638275146e-01</leafValues></_>
        <_>
          <internalNodes>
            0 -1 29 1.8131843209266663e-01</internalNodes>
          <leafValues>
            -1.7424617707729340e-01 5.5375874042510986e-01</leafValues></_>
        <_>
          <internalNodes>
            0 -1 168 -4.3504135683178902e-03</internalNodes>
          <leafValues>
            3.5490936040878296e-01 -2.3849292099475861e-01</leafValues></_>
        <_>
          <internalNodes>
            0 -1 32 4.9307364970445633e-03</internalNodes>
          <leafValues>
            1.1675947904586792e-01 -7.9305022954940796e-01</leafValues></_>
        <_>
          <internalNodes>
            0 -1 59 -2.8164461255073547e-03</internalNodes>
          <leafValues>
            -8.6391776800155640e-01 7.6986424624919891e-02</leafValues></_>
        <_>
          <internalNodes>
            0 -1 6 -8.1033688038587570e-03</internalNodes>
          <leafValues>
            2.3581413924694061e-01 -3.4126329421997070e-01</leafValues></_>
        <_>
          <internalNodes>
            0 -1 114 -5.7553511578589678e-04</internalNodes>
          <leafValues>
            -7.3438644409179688e-01 9.8219417035579681e-02</leafValues></_>
        <_>
          <internalNodes>
            0 -1 137 -1.9371397793292999e-03</internalNodes>
          <leafValues>
            -9.1533261537551880e-01 6.7751467227935791e-02</leafValues></_></weakClassifiers></_>
    <!-- stage 5 -->
    <_>
      <maxWeakCount>25</maxWeakCount>
      <stageThreshold>-1.9283430576324463e+00</stageThreshold>
      <weakClassifiers>
        <_>
          <internalNodes>
            0 -1 66 -7.0738382637500763e-02</internalNodes>
          <leafValues>
            -1.5884681046009064e-01 -7.5457954406738281e-01</leafValues></_>
        <_>
          <internalNodes>
            0 -1 107 2.3017846979200840e-03</internalNodes>
          <leafValues>
            -3.9463290572166443e-01 3.2379710674285889e-01</leafValues></_>
        <_>
          <internalNodes>
            0 -1 177 -2.7794241905212402e-02</internalNodes>
          <leafValues>
            2.2949330508708954e-01 -5.0839525461196899e-01</leafValues></_>
        <_>
          <internalNodes>
            0 -1 119 8.0514773726463318e-03</internalNodes>
          <leafValues>
            -3.7835532426834106e-01 2.9593515396118164e-01</leafValues></_>
        <_>
          <internalNodes>
            0 -1 61 1.4179140329360962e-02</internalNodes>
          <leafValues>
            -2.3678061366081238e-01 4.8706853389739990e-01</leafValues></_>
        <_>
          <internalNodes>
            0 -1 45 -9.9621206521987915e-02</internalNodes>
          <leafValues>
            2.2461242973804474e-01 -5.1056557893753052e-01</leafValues></_>
        <_>
          <internalNodes>
            0 -1 39 3.6004826426506042e-02</internalNodes>
          <leafValues>
            -7.6832705736160278e-01 1.3552814722061157e-01</leafValues></_>
        <_>
          <internalNodes>
            0 -1 190 2.5525880046188831e-03</internalNodes>
          <leafValues>
            -2.8352215886116028e-01 3.3832898736000061e-01</leafValues></_>
        <_>
          <internalNodes>
            0 -1 0 5.5037636775523424e-04</internalNodes>
          <leafValues>
            -2.8340286016464233e-01 2.9759380221366882e-01</leafValues></_>
        <_>
          <internalNodes>
            0 -1 167 -8.3448737859725952e-03</internalNodes>
          <leafValues>
            1.9435033202171326e-01 -4.0485548973083496e-01</leafValues></_>
        <_>
          <internalNodes>
            0 -1 138 -1.3842971529811621e-03</internalNodes>
          <leafValues>
            -6.9092780351638794e-01 1.1772377789020538e-01</leafValues></_>
        <_>
          <internalNodes>
            0 -1 111 6.6615655086934566e-03</internalNodes>
          <leafValues>
            -1.6098085045814514e-01 5.2798432111740112e-01</leafValues></_>
        <_>
          <internalNodes>
            0 -1 229 6.4941839082166553e-04</internalNodes>
          <leafValues>
            1.1652062833309174e-01 -7.3214715719223022e-01</leafValues></_>
        <_>
          <internalNodes>
            0 -1 178 -1.1024542152881622e-02</internalNodes>
          <leafValues>
            1.4352227747440338e-01 -5.2861636877059937e-01</leafValues></_>
        <_>
          <internalNodes>
            0 -1 162 -3.0588908120989799e-03</internalNodes>
          <leafValues>
            4.5374667644500732e-01 -1.8542160093784332e-01</leafValues></_>
        <_>
          <internalNodes>
            0 -1 188 -2.4681529030203819e-03</internalNodes>
          <leafValues>
            2.7375739812850952e-01 -3.0219447612762451e-01</leafValues></_>
        <_>
          <internalNodes>
            0 -1 223 -1.4445494161918759e-03</internalNodes>
          <leafValues>
            -8.1625878810882568e-01 9.4681710004806519e-02</leafValues></_>
        <_>
          <internalNodes>
            0 -1 92 -2.3194500803947449e-01</internalNodes>
          <leafValues>
            -9.7901177406311035e-01 5.1257655024528503e-02</leafValues></_>
        <_>
          <internalNodes>
            0 -1 140 1.5226632822304964e-03</internalNodes>
          <leafValues>
            -2.2680296003818512e-01 3.3797591924667358e-01</leafValues></_>
        <_>
          <internalNodes>
            0 -1 58 6.1005947645753622e-04</internalNodes>
          <leafValues>
            9.2442370951175690e-02 -8.3725732564926147e-01</leafValues></_>
        <_>
          <internalNodes>
            0 -1 100 -3.2204566523432732e-03</internalNodes>
          <leafValues>
            9.1155052185058594e-02 -6.2336552143096924e-01</leafValues></_>
        <_>
          <internalNodes>
            0 -1 67 1.4571410138159990e-03</internalNodes>
          <leafValues>
            -6.5901094675064087e-01 1.0076858103275299e-01</leafValues></_>
        <_>
          <internalNodes>
            0 -1 121 2.5194533169269562e-02</internalNodes>
          <leafValues>
            -3.1929808855056763e-01 2.0518742501735687e-01</leafValues></_>
        <_>
          <internalNodes>
            0 -1 213 8.1577729433774948e-03</internalNodes>
          <leafValues>
            9.9274054169654846e-02 -6.5804553031921387e-01</leafValues></_>
        <_>
          <internalNodes>
            0 -1 5 -1.0511351749300957e-02</internalNodes>
          <leafValues>
            -7.1486085653305054e-01 8.0675341188907623e-02</leafValues></_></weakClassifiers></_>
    <!-- stage 6 -->
    <_>
      <maxWeakCount>26</maxWeakCount>
      <stageThreshold>-1.7506811618804932e+00</stageThreshold>
      <weakClassifiers>
        <_>
          <internalNodes>
            0 -1 86 2.3457828909158707e-02</internalNodes>
          <leafValues>
            -8.6564761400222778e-01 -4.0587309002876282e-01</leafValues></_>
        <_>
          <internalNodes>
            0 -1 187 -4.5717936009168625e-03</internalNodes>
          <leafValues>
            2.2337612509727478e-01 -4.3460786342620850e-01</leafValues></_>
        <_>
          <internalNodes>
            0 -1 38 -8.5344314575195313e-02</internalNodes>
          <leafValues>
            2.7474001049995422e-01 -4.3615403771400452e-01</leafValues></_>
        <_>
          <internalNodes>
            0 -1 15 3.3980030566453934e-03</internalNodes>
          <leafValues>
            -3.2260179519653320e-01 2.9348248243331909e-01</leafValues></_>
        <_>
          <internalNodes>
            0 -1 132 -1.2603853829205036e-02</internalNodes>
          <leafValues>
            1.7746144533157349e-01 -5.8476042747497559e-01</leafValues></_>
        <_>
          <internalNodes>
            0 -1 88 1.8010277301073074e-02</internalNodes>
          <leafValues>
            -6.6177862882614136e-01 1.3894826173782349e-01</leafValues></_>
        <_>
          <internalNodes>
            0 -1 110 -6.7694708704948425e-03</internalNodes>
          <leafValues>
            4.7567743062973022e-01 -2.1265350282192230e-01</leafValues></_>
        <_>
          <internalNodes>
            0 -1 35 -4.2989129724446684e-05</internalNodes>
          <leafValues>
            1.9012705981731415e-01 -5.0495451688766479e-01</leafValues></_>
        <_>
          <internalNodes>
            0 -1 184 2.5583042297512293e-03</internalNodes>
          <leafValues>
            -3.6043158173561096e-01 2.4363818764686584e-01</leafValues></_>
        <_>
          <internalNodes>
            0 -1 34 -5.0638914108276367e-03</internalNodes>
          <leafValues>
            2.7996698021888733e-01 -2.8181636333465576e-01</leafValues></_>
        <_>
          <internalNodes>
            0 -1 218 -5.9330975636839867e-04</internalNodes>
          <leafValues>
            2.3848527669906616e-01 -3.3077543973922729e-01</leafValues></_>
        <_>
          <internalNodes>
            0 -1 28 1.0724909603595734e-02</internalNodes>
          <leafValues>
            -3.3885008096694946e-01 2.1695400774478912e-01</leafValues></_>
        <_>
          <internalNodes>
            0 -1 228 4.8305414384230971e-04</internalNodes>
          <leafValues>
            1.0504135489463806e-01 -6.7819106578826904e-01</leafValues></_>
        <_>
          <internalNodes>
            0 -1 129 8.5662852507084608e-04</internalNodes>
          <leafValues>
            8.4648147225379944e-02 -7.1531653404235840e-01</leafValues></_>
        <_>
          <internalNodes>
            0 -1 144 4.6628722921013832e-03</internalNodes>
          <leafValues>
            -1.3563357293605804e-01 5.9133166074752808e-01</leafValues></_>
        <_>
          <internalNodes>
            0 -1 147 4.8771966248750687e-03</internalNodes>
          <leafValues>
            -1.5482600033283234e-01 4.4651675224304199e-01</leafValues></_>
        <_>
          <internalNodes>
            0 -1 37 1.8612912390381098e-03</internalNodes>
          <leafValues>
            9.6523456275463104e-02 -7.2754472494125366e-01</leafValues></_>
        <_>
          <internalNodes>
            0 -1 171 -1.5088234795257449e-03</internalNodes>
          <leafValues>
            2.7840301394462585e-01 -2.4238289892673492e-01</leafValues></_>
        <_>
          <internalNodes>
            0 -1 134 1.9169241189956665e-02</internalNodes>
          <leafValues>
            -1.4607538282871246e-01 5.1949191093444824e-01</leafValues></_>
        <_>
          <internalNodes>
            0 -1 12 -3.2881587743759155e-01</internalNodes>
          <leafValues>
            6.4707261323928833e-01 -1.1423871666193008e-01</leafValues></_>
        <_>
          <internalNodes>
            0 -1 25 4.5581655576825142e-03</internalNodes>
          <leafValues>
            -2.6252111792564392e-01 3.3273649215698242e-01</leafValues></_>
        <_>
          <internalNodes>
            0 -1 48 1.3410681858658791e-02</internalNodes>
          <leafValues>
            -1.7199064791202545e-01 3.9043220877647400e-01</leafValues></_>
        <_>
          <internalNodes>
            0 -1 13 3.6437259986996651e-03</internalNodes>
          <leafValues>
            -5.7528764009475708e-01 1.2143923342227936e-01</leafValues></_>
        <_>
          <internalNodes>
            0 -1 192 -1.6907618846744299e-03</internalNodes>
          <leafValues>
            1.3653177022933960e-01 -4.4606351852416992e-01</leafValues></_>
        <_>
          <internalNodes>
            0 -1 156 9.8940711468458176e-03</internalNodes>
          <leafValues>
            7.4356347322463989e-02 -8.1993800401687622e-01</leafValues></_>
        <_>
          <internalNodes>
            0 -1 129 -8.5477024549618363e-04</internalNodes>
          <leafValues>
            -8.4290081262588501e-01 6.0990151017904282e-02</leafValues></_></weakClassifiers></_>
    <!-- stage 7 -->
    <_>
      <maxWeakCount>28</maxWeakCount>
      <stageThreshold>-1.6726690530776978e+00</stageThreshold>
      <weakClassifiers>
        <_>
          <internalNodes>
            0 -1 221 -3.9124563336372375e-02</internalNodes>
          <leafValues>
            3.8615178316831589e-02 -6.7201298475265503e-01</leafValues></_>
        <_>
          <internalNodes>
            0 -1 103 1.1164961382746696e-02</internalNodes>
          <leafValues>
            -5.3551864624023438e-01 1.2960667908191681e-01</leafValues></_>
        <_>
          <internalNodes>
            0 -1 130 -1.2108562514185905e-03</internalNodes>
          <leafValues>
            2.0106290280818939e-01 -4.9303075671195984e-01</leafValues></_>
        <_>
          <internalNodes>
            0 -1 54 4.4994257390499115e-02</internalNodes>
          <leafValues>
            -3.4948518872261047e-01 2.7657717466354370e-01</leafValues></_>
        <_>
          <internalNodes>
            0 -1 98 -9.5162987709045410e-03</internalNodes>
          <leafValues>
            5.4872632026672363e-01 -1.6275000572204590e-01</leafValues></_>
        <_>
          <internalNodes>
            0 -1 226 -3.0818374943919480e-04</internalNodes>
          <leafValues>
            2.4298547208309174e-01 -3.2824274897575378e-01</leafValues></_>
        <_>
          <internalNodes>
            0 -1 175 -7.4906079098582268e-03</internalNodes>
          <leafValues>
            3.7193661928176880e-01 -1.9075381755828857e-01</leafValues></_>
        <_>
          <internalNodes>
            0 -1 24 1.8822945654392242e-02</internalNodes>
          <leafValues>
            -1.6101390123367310e-01 4.3529057502746582e-01</leafValues></_>
        <_>
          <internalNodes>
            0 -1 131 -2.1447841078042984e-02</internalNodes>
          <leafValues>
            1.8478012084960938e-01 -3.9074289798736572e-01</leafValues></_>
        <_>
          <internalNodes>
            0 -1 40 1.0681841522455215e-01</internalNodes>
          <leafValues>
            9.6460074186325073e-02 -7.0728671550750732e-01</leafValues></_>
        <_>
          <internalNodes>
            0 -1 70 1.8466509878635406e-02</internalNodes>
          <leafValues>
            -4.6268495917320251e-01 1.3178765773773193e-01</leafValues></_>
        <_>
          <internalNodes>
            0 -1 2 -1.2540699681267142e-03</internalNodes>
          <leafValues>
            -5.6918919086456299e-01 1.0868655145168304e-01</leafValues></_>
        <_>
          <internalNodes>
            0 -1 193 3.2132528722286224e-03</internalNodes>
          <leafValues>
            -2.2900980710983276e-01 3.0548891425132751e-01</leafValues></_>
        <_>
          <internalNodes>
            0 -1 191 2.9569636099040508e-03</internalNodes>
          <leafValues>
            1.0667394846677780e-01 -6.9750612974166870e-01</leafValues></_>
        <_>
          <internalNodes>
            0 -1 194 7.0138741284608841e-03</internalNodes>
          <leafValues>
            -3.0329519510269165e-01 2.1910910308361053e-01</leafValues></_>
        <_>
          <internalNodes>
            0 -1 33 6.1504216864705086e-04</internalNodes>
          <leafValues>
            9.0210609138011932e-02 -7.0726090669631958e-01</leafValues></_>
        <_>
          <internalNodes>
            0 -1 43 -3.3971828222274780e-01</internalNodes>
          <leafValues>
            5.6860464811325073e-01 -1.2601038813591003e-01</leafValues></_>
        <_>
          <internalNodes>
            0 -1 106 8.1291451351717114e-04</internalNodes>
          <leafValues>
            -1.9841057062149048e-01 3.1641504168510437e-01</leafValues></_>
        <_>
          <internalNodes>
            0 -1 55 -3.0807566642761230e-01</internalNodes>
          <leafValues>
            9.2765092849731445e-02 -7.0658451318740845e-01</leafValues></_>
        <_>
          <internalNodes>
            0 -1 124 -2.7240142226219177e-02</internalNodes>
          <leafValues>
            -7.3548024892807007e-01 7.2045572102069855e-02</leafValues></_>
        <_>
          <internalNodes>
            0 -1 104 -5.0610187463462353e-03</internalNodes>
          <leafValues>
            1.3105088472366333e-01 -4.3689128756523132e-01</leafValues></_>
        <_>
          <internalNodes>
            0 -1 101 5.1449749618768692e-02</internalNodes>
          <leafValues>
            -2.8363052010536194e-01 2.3732511699199677e-01</leafValues></_>
        <_>
          <internalNodes>
            0 -1 47 -5.6252252310514450e-02</internalNodes>
          <leafValues>
            -7.0016556978225708e-01 8.3607099950313568e-02</leafValues></_>
        <_>
          <internalNodes>
            0 -1 125 8.7437056936323643e-04</internalNodes>
          <leafValues>
            -2.2832724452018738e-01 2.5950554013252258e-01</leafValues></_>
        <_>
          <internalNodes>
            0 -1 97 6.2100812792778015e-03</internalNodes>
          <leafValues>
            -1.6414275765419006e-01 3.5796988010406494e-01</leafValues></_>
        <_>
          <internalNodes>
            0 -1 180 -6.7974631674587727e-03</internalNodes>
          <leafValues>
            -7.7024465799331665e-01 7.8290872275829315e-02</leafValues></_>
        <_>
          <internalNodes>
            0 -1 46 4.5691436389461160e-04</internalNodes>
          <leafValues>
            7.1699269115924835e-02 -6.9685876369476318e-01</leafValues></_>
        <_>
          <internalNodes>
            0 -1 16 -2.0911418832838535e-03</internalNodes>
          <leafValues>
            -6.8229085206985474e-01 7.4054397642612457e-02</leafValues></_></weakClassifiers></_>
    <!-- stage 8 -->
    <_>
      <maxWeakCount>34</maxWeakCount>
      <stageThreshold>-1.6165602207183838e+00</stageThreshold>
      <weakClassifiers>
        <_>
          <internalNodes>
            0 -1 50 1.6175504773855209e-02</internalNodes>
          <leafValues>
            -7.2555279731750488e-01 -2.7025613188743591e-01</leafValues></_>
        <_>
          <internalNodes>
            0 -1 133 1.1356669710949063e-03</internalNodes>
          <leafValues>
            -4.8432931303977966e-01 1.3288176059722900e-01</leafValues></_>
        <_>
          <internalNodes>
            0 -1 83 -1.9971821457147598e-02</internalNodes>
          <leafValues>
            2.0964667201042175e-01 -4.0456354618072510e-01</leafValues></_>
        <_>
          <internalNodes>
            0 -1 185 -8.8895950466394424e-03</internalNodes>
          <leafValues>
            3.1503292918205261e-01 -2.6462715864181519e-01</leafValues></_>
        <_>
          <internalNodes>
            0 -1 4 4.4694598764181137e-02</internalNodes>
          <leafValues>
            -1.7900244891643524e-01 4.9244475364685059e-01</leafValues></_>
        <_>
          <internalNodes>
            0 -1 94 2.8452794067561626e-03</internalNodes>
          <leafValues>
            -3.8534712791442871e-01 1.9613933563232422e-01</leafValues></_>
        <_>
          <internalNodes>
            0 -1 183 1.9887477159500122e-02</internalNodes>
          <leafValues>
            -5.3238266706466675e-01 1.3912467658519745e-01</leafValues></_>
        <_>
          <internalNodes>
            0 -1 63 1.2817261740565300e-03</internalNodes>
          <leafValues>
            -2.7668601274490356e-01 2.5928235054016113e-01</leafValues></_>
        <_>
          <internalNodes>
            0 -1 89 4.8771783709526062e-02</internalNodes>
          <leafValues>
            1.0837618261575699e-01 -7.3946696519851685e-01</leafValues></_>
        <_>
          <internalNodes>
            0 -1 11 3.7355735898017883e-02</internalNodes>
          <leafValues>
            -5.4484695196151733e-01 1.1497747153043747e-01</leafValues></_>
        <_>
          <internalNodes>
            0 -1 216 2.8355789836496115e-03</internalNodes>
          <leafValues>
            6.9602593779563904e-02 -7.8496539592742920e-01</leafValues></_>
        <_>
          <internalNodes>
            0 -1 215 1.5347355511039495e-03</internalNodes>
          <leafValues>
            6.2826357781887054e-02 -7.7995914220809937e-01</leafValues></_>
        <_>
          <internalNodes>
            0 -1 173 1.3519141823053360e-02</internalNodes>
          <leafValues>
            -2.2197513282299042e-01 2.8902187943458557e-01</leafValues></_>
        <_>
          <internalNodes>
            0 -1 225 -1.1769580305553973e-04</internalNodes>
          <leafValues>
            2.0686993002891541e-01 -2.9078301787376404e-01</leafValues></_>
        <_>
          <internalNodes>
            0 -1 90 -1.8633343279361725e-03</internalNodes>
          <leafValues>
            2.2711631655693054e-01 -2.6589608192443848e-01</leafValues></_>
        <_>
          <internalNodes>
            0 -1 166 -1.1335050221532583e-03</internalNodes>
          <leafValues>
            -7.4102103710174561e-01 8.1664599478244781e-02</leafValues></_>
        <_>
          <internalNodes>
            0 -1 145 -8.6550060659646988e-03</internalNodes>
          <leafValues>
            5.4055309295654297e-01 -1.2348245829343796e-01</leafValues></_>
        <_>
          <internalNodes>
            0 -1 19 -3.3274730667471886e-03</internalNodes>
          <leafValues>
            -6.3018018007278442e-01 1.0414978861808777e-01</leafValues></_>
        <_>
          <internalNodes>
            0 -1 3 -2.8180596418678761e-03</internalNodes>
          <leafValues>
            2.0644347369670868e-01 -2.8945177793502808e-01</leafValues></_>
        <_>
          <internalNodes>
            0 -1 214 1.1894284980371594e-03</internalNodes>
          <leafValues>
            1.2338680028915405e-01 -4.4179946184158325e-01</leafValues></_>
        <_>
          <internalNodes>
            0 -1 49 7.1135873440653086e-04</internalNodes>
          <leafValues>
            8.2575678825378418e-02 -5.9471279382705688e-01</leafValues></_>
        <_>
          <internalNodes>
            0 -1 112 -1.0263772681355476e-02</internalNodes>
          <leafValues>
            5.1048314571380615e-01 -1.1246579885482788e-01</leafValues></_>
        <_>
          <internalNodes>
            0 -1 82 6.9745229557156563e-03</internalNodes>
          <leafValues>
            7.6082192361354828e-02 -7.8964990377426147e-01</leafValues></_>
        <_>
          <internalNodes>
            0 -1 91 -7.9141467809677124e-02</internalNodes>
          <leafValues>
            -5.9658294916152954e-01 7.8936174511909485e-02</leafValues></_>
        <_>
          <internalNodes>
            0 -1 136 6.2054055742919445e-03</internalNodes>
          <leafValues>
            5.7885318994522095e-02 -7.9952007532119751e-01</leafValues></_>
        <_>
          <internalNodes>
            0 -1 21 9.9858403205871582e-02</internalNodes>
          <leafValues>
            4.5824814587831497e-02 -8.3454626798629761e-01</leafValues></_>
        <_>
          <internalNodes>
            0 -1 123 -1.6254801303148270e-03</internalNodes>
          <leafValues>
            -7.7436274290084839e-01 5.0716206431388855e-02</leafValues></_>
        <_>
          <internalNodes>
            0 -1 135 -8.2014844520017505e-04</internalNodes>
          <leafValues>
            -6.7205548286437988e-01 6.2341075390577316e-02</leafValues></_>
        <_>
          <internalNodes>
            0 -1 163 -5.3965849801898003e-03</internalNodes>
          <leafValues>
            6.7479944229125977e-01 -8.4534034132957458e-02</leafValues></_>
        <_>
          <internalNodes>
            0 -1 128 -7.3636886663734913e-03</internalNodes>
          <leafValues>
            4.2712914943695068e-01 -1.2664707005023956e-01</leafValues></_>
        <_>
          <internalNodes>
            0 -1 204 -4.7546736896038055e-03</internalNodes>
          <leafValues>
            -6.9784235954284668e-01 8.9102923870086670e-02</leafValues></_>
        <_>
          <internalNodes>
            0 -1 161 -5.5675236508250237e-03</internalNodes>
          <leafValues>
            -8.8645792007446289e-01 4.4369857758283615e-02</leafValues></_>
        <_>
          <internalNodes>
            0 -1 154 -3.2006604596972466e-03</internalNodes>
          <leafValues>
            3.8797286152839661e-01 -1.4130778610706329e-01</leafValues></_>
        <_>
          <internalNodes>
            0 -1 151 3.9167106151580811e-03</internalNodes>
          <leafValues>
            -1.9970528781414032e-01 4.1179120540618896e-01</leafValues></_></weakClassifiers></_>
    <!-- stage 9 -->
    <_>
      <maxWeakCount>35</maxWeakCount>
      <stageThreshold>-1.7279223203659058e+00</stageThreshold>
      <weakClassifiers>
        <_>
          <internalNodes>
            0 -1 201 -4.5204982161521912e-03</internalNodes>
          <leafValues>
            -1.1783107370138168e-01 -6.7159706354141235e-01</leafValues></_>
        <_>
          <internalNodes>
            0 -1 170 -1.0020968504250050e-02</internalNodes>
          <leafValues>
            1.2936903536319733e-01 -4.4970703125000000e-01</leafValues></_>
        <_>
          <internalNodes>
            0 -1 7 9.8586571402847767e-04</internalNodes>
          <leafValues>
            -4.6303799748420715e-01 1.8057546019554138e-01</leafValues></_>
        <_>
          <internalNodes>
            0 -1 9 2.3276859894394875e-02</internalNodes>
          <leafValues>
            -2.7828893065452576e-01 3.2966259121894836e-01</leafValues></_>
        <_>
          <internalNodes>
            0 -1 198 -5.6703020818531513e-03</internalNodes>
          <leafValues>
            2.6061823964118958e-01 -3.3058512210845947e-01</leafValues></_>
        <_>
          <internalNodes>
            0 -1 158 -4.8800660297274590e-03</internalNodes>
          <leafValues>
            3.5964813828468323e-01 -1.9245566427707672e-01</leafValues></_>
        <_>
          <internalNodes>
            0 -1 211 3.1124933157116175e-03</internalNodes>
          <leafValues>
            1.0278791189193726e-01 -6.6945332288742065e-01</leafValues></_>
        <_>
          <internalNodes>
            0 -1 209 -1.1185405310243368e-03</internalNodes>
          <leafValues>
            1.0751783847808838e-01 -5.4710495471954346e-01</leafValues></_>
        <_>
          <internalNodes>
            0 -1 69 8.2656024023890495e-03</internalNodes>
          <leafValues>
            -2.3593224585056305e-01 2.5771659612655640e-01</leafValues></_>
        <_>
          <internalNodes>
            0 -1 212 -3.0705412849783897e-02</internalNodes>
          <leafValues>
            6.0199654102325439e-01 -9.7219526767730713e-02</leafValues></_>
        <_>
          <internalNodes>
            0 -1 157 3.0159768648445606e-03</internalNodes>
          <leafValues>
            -4.3372091650962830e-01 1.4533646404743195e-01</leafValues></_>
        <_>
          <internalNodes>
            0 -1 109 -3.8286477793008089e-03</internalNodes>
          <leafValues>
            3.6366564035415649e-01 -1.8242214620113373e-01</leafValues></_>
        <_>
          <internalNodes>
            0 -1 227 -2.2678354289382696e-03</internalNodes>
          <leafValues>
            -7.6171457767486572e-01 8.5350364446640015e-02</leafValues></_>
        <_>
          <internalNodes>
            0 -1 26 -3.2144054770469666e-02</internalNodes>
          <leafValues>
            1.0612548887729645e-01 -5.1257717609405518e-01</leafValues></_>
        <_>
          <internalNodes>
            0 -1 200 3.4147314727306366e-03</internalNodes>
          <leafValues>
            -1.3098186254501343e-01 5.3480434417724609e-01</leafValues></_>
        <_>
          <internalNodes>
            0 -1 230 -1.0502536315470934e-03</internalNodes>
          <leafValues>
            -7.3310250043869019e-01 9.6766799688339233e-02</leafValues></_>
        <_>
          <internalNodes>
            0 -1 36 8.4087590221315622e-04</internalNodes>
          <leafValues>
            8.1146739423274994e-02 -6.9446569681167603e-01</leafValues></_>
        <_>
          <internalNodes>
            0 -1 120 4.0238514542579651e-02</internalNodes>
          <leafValues>
            9.6012555062770844e-02 -6.0016483068466187e-01</leafValues></_>
        <_>
          <internalNodes>
            0 -1 93 4.7083282843232155e-03</internalNodes>
          <leafValues>
            -1.7500478029251099e-01 3.3693277835845947e-01</leafValues></_>
        <_>
          <internalNodes>
            0 -1 126 -3.3178403973579407e-03</internalNodes>
          <leafValues>
            4.3369764089584351e-01 -1.4861360192298889e-01</leafValues></_>
        <_>
          <internalNodes>
            0 -1 161 4.1837012395262718e-03</internalNodes>
          <leafValues>
            8.3049915730953217e-02 -7.6281785964965820e-01</leafValues></_>
        <_>
          <internalNodes>
            0 -1 18 2.0256582647562027e-03</internalNodes>
          <leafValues>
            5.7396434247493744e-02 -7.7816438674926758e-01</leafValues></_>
        <_>
          <internalNodes>
            0 -1 113 -4.6084132045507431e-03</internalNodes>
          <leafValues>
            1.9388103485107422e-01 -2.7744770050048828e-01</leafValues></_>
        <_>
          <internalNodes>
            0 -1 62 3.5247795283794403e-02</internalNodes>
          <leafValues>
            9.0427316725254059e-02 -6.6891604661941528e-01</leafValues></_>
        <_>
          <internalNodes>
            0 -1 116 -1.7908809240907431e-04</internalNodes>
          <leafValues>
            1.4073918759822845e-01 -3.9337405562400818e-01</leafValues></_>
        <_>
          <internalNodes>
            0 -1 155 -3.5088981967419386e-03</internalNodes>
          <leafValues>
            4.8022341728210449e-01 -1.2404230982065201e-01</leafValues></_>
        <_>
          <internalNodes>
            0 -1 179 5.0670229829847813e-03</internalNodes>
          <leafValues>
            6.9001562893390656e-02 -8.7856483459472656e-01</leafValues></_>
        <_>
          <internalNodes>
            0 -1 182 -3.0564784538000822e-04</internalNodes>
          <leafValues>
            1.5447410941123962e-01 -3.2410162687301636e-01</leafValues></_>
        <_>
          <internalNodes>
            0 -1 143 -4.3145469389855862e-03</internalNodes>
          <leafValues>
            3.9046564698219299e-01 -1.4093956351280212e-01</leafValues></_>
        <_>
          <internalNodes>
            0 -1 108 2.1690032444894314e-03</internalNodes>
          <leafValues>
            -2.2356833517551422e-01 2.8974324464797974e-01</leafValues></_>
        <_>
          <internalNodes>
            0 -1 136 -1.6781659796833992e-03</internalNodes>
          <leafValues>
            -7.8845202922821045e-01 7.3161795735359192e-02</leafValues></_>
        <_>
          <internalNodes>
            0 -1 217 -3.5185615997761488e-03</internalNodes>
          <leafValues>
            -6.5786546468734741e-01 7.5346022844314575e-02</leafValues></_>
        <_>
          <internalNodes>
            0 -1 174 -4.0036621503531933e-03</internalNodes>
          <leafValues>
            -6.6661357879638672e-01 7.1199342608451843e-02</leafValues></_>
        <_>
          <internalNodes>
            0 -1 174 4.9848221242427826e-03</internalNodes>
          <leafValues>
            6.8628244102001190e-02 -7.0678263902664185e-01</leafValues></_>
        <_>
          <internalNodes>
            0 -1 75 5.1610528316814452e-05</internalNodes>
          <leafValues>
            -2.9830479621887207e-01 1.8655179440975189e-01</leafValues></_></weakClassifiers></_>
    <!-- stage 10 -->
    <_>
      <maxWeakCount>32</maxWeakCount>
      <stageThreshold>-1.7096027135848999e+00</stageThreshold>
      <weakClassifiers>
        <_>
          <internalNodes>
            0 -1 22 9.3477249145507813e-02</internalNodes>
          <leafValues>
            -6.2438863515853882e-01 7.8313255310058594e-01</leafValues></_>
        <_>
          <internalNodes>
            0 -1 122 5.8843744918704033e-03</internalNodes>
          <leafValues>
            -4.4974622130393982e-01 1.9537441432476044e-01</leafValues></_>
        <_>
          <internalNodes>
            0 -1 219 -1.2546232901513577e-03</internalNodes>
          <leafValues>
            2.8387764096260071e-01 -3.6684632301330566e-01</leafValues></_>
        <_>
          <internalNodes>
            0 -1 118 -1.7714230343699455e-02</internalNodes>
          <leafValues>
            1.8308271467685699e-01 -4.7131732106208801e-01</leafValues></_>
        <_>
          <internalNodes>
            0 -1 20 1.5212919563055038e-02</internalNodes>
          <leafValues>
            -2.4171982705593109e-01 4.0892630815505981e-01</leafValues></_>
        <_>
          <internalNodes>
            0 -1 65 -3.9967238903045654e-02</internalNodes>
          <leafValues>
            3.1208252906799316e-01 -2.6510900259017944e-01</leafValues></_>
        <_>
          <internalNodes>
            0 -1 107 3.5907831043004990e-03</internalNodes>
          <leafValues>
            -2.0550322532653809e-01 4.3811944127082825e-01</leafValues></_>
        <_>
          <internalNodes>
            0 -1 60 -2.7742591919377446e-04</internalNodes>
          <leafValues>
            2.2474244236946106e-01 -3.9368808269500732e-01</leafValues></_>
        <_>
          <internalNodes>
            0 -1 72 -1.3176582753658295e-02</internalNodes>
          <leafValues>
            5.7880002260208130e-01 -1.3092134892940521e-01</leafValues></_>
        <_>
          <internalNodes>
            0 -1 68 -3.8923904299736023e-02</internalNodes>
          <leafValues>
            -7.6897567510604858e-01 9.5474392175674438e-02</leafValues></_>
        <_>
          <internalNodes>
            0 -1 208 -9.2152599245309830e-03</internalNodes>
          <leafValues>
            2.0576086640357971e-01 -3.8115453720092773e-01</leafValues></_>
        <_>
          <internalNodes>
            0 -1 196 1.8703456968069077e-02</internalNodes>
          <leafValues>
            -2.0107105374336243e-01 3.8931539654731750e-01</leafValues></_>
        <_>
          <internalNodes>
            0 -1 203 -2.5592604652047157e-03</internalNodes>
          <leafValues>
            1.5197689831256866e-01 -4.8012700676918030e-01</leafValues></_>
        <_>
          <internalNodes>
            0 -1 224 -3.0099758878350258e-03</internalNodes>
          <leafValues>
            -7.0659315586090088e-01 9.6363730728626251e-02</leafValues></_>
        <_>
          <internalNodes>
            0 -1 99 8.7203242583200336e-04</internalNodes>
          <leafValues>
            -2.1416307985782623e-01 3.2315096259117126e-01</leafValues></_>
        <_>
          <internalNodes>
            0 -1 153 -1.3518580235540867e-03</internalNodes>
          <leafValues>
            -7.8370857238769531e-01 8.0142736434936523e-02</leafValues></_>
        <_>
          <internalNodes>
            0 -1 74 1.5973844565451145e-03</internalNodes>
          <leafValues>
            -2.2915640473365784e-01 2.8516206145286560e-01</leafValues></_>
        <_>
          <internalNodes>
            0 -1 27 -6.8119809031486511e-02</internalNodes>
          <leafValues>
            5.4511874914169312e-01 -1.2575188279151917e-01</leafValues></_>
        <_>
          <internalNodes>
            0 -1 176 -6.2943482771515846e-03</internalNodes>
          <leafValues>
            -8.6689972877502441e-01 7.7698111534118652e-02</leafValues></_>
        <_>
          <internalNodes>
            0 -1 222 6.1265775002539158e-04</internalNodes>
          <leafValues>
            7.5479760766029358e-02 -6.8291354179382324e-01</leafValues></_>
        <_>
          <internalNodes>
            0 -1 202 5.3471396677196026e-04</internalNodes>
          <leafValues>
            -2.8861290216445923e-01 2.4475838243961334e-01</leafValues></_>
        <_>
          <internalNodes>
            0 -1 73 -1.7310430121142417e-04</internalNodes>
          <leafValues>
            2.2474272549152374e-01 -3.2562196254730225e-01</leafValues></_>
        <_>
          <internalNodes>
            0 -1 71 5.9505924582481384e-02</internalNodes>
          <leafValues>
            1.1268672347068787e-01 -6.1270439624786377e-01</leafValues></_>
        <_>
          <internalNodes>
            0 -1 164 -2.1569048985838890e-03</internalNodes>
          <leafValues>
            4.2299294471740723e-01 -1.7011530697345734e-01</leafValues></_>
        <_>
          <internalNodes>
            0 -1 165 -3.3850632607936859e-03</internalNodes>
          <leafValues>
            3.5382512211799622e-01 -2.1790488064289093e-01</leafValues></_>
        <_>
          <internalNodes>
            0 -1 96 2.0016014575958252e-02</internalNodes>
          <leafValues>
            1.1569900810718536e-01 -6.6256260871887207e-01</leafValues></_>
        <_>
          <internalNodes>
            0 -1 142 1.9723426550626755e-02</internalNodes>
          <leafValues>
            1.3403826951980591e-01 -5.0801801681518555e-01</leafValues></_>
        <_>
          <internalNodes>
            0 -1 159 7.9993106191977859e-04</internalNodes>
          <leafValues>
            -1.3168565928936005e-01 5.3547799587249756e-01</leafValues></_>
        <_>
          <internalNodes>
            0 -1 160 2.3000340443104506e-03</internalNodes>
          <leafValues>
            -1.7170387506484985e-01 4.1785573959350586e-01</leafValues></_>
        <_>
          <internalNodes>
            0 -1 127 6.6790413111448288e-03</internalNodes>
          <leafValues>
            -1.5400160849094391e-01 5.2368384599685669e-01</leafValues></_>
        <_>
          <internalNodes>
            0 -1 17 -6.3140178099274635e-03</internalNodes>
          <leafValues>
            -6.5556734800338745e-01 1.2780055403709412e-01</leafValues></_>
        <_>
          <internalNodes>
            0 -1 141 -5.4495437070727348e-03</internalNodes>
          <leafValues>
            -8.9178407192230225e-01 6.0358274728059769e-02</leafValues></_></weakClassifiers></_></stages>
  <features>
    <_>
      <rects>
        <_>
          0 0 2 2 -1.</_>
        <_>
          1 0 1 2 2.</_></rects>
      <tilted>0</tilted></_>
    <_>
      <rects>
        <_>
          0 0 4 1 -1.</_>
        <_>
          2 0 2 1 2.</_></rects>
      <tilted>0</tilted></_>
    <_>
      <rects>
        <_>
          0 0 2 2 -1.</_>
        <_>
          0 1 2 1 2.</_></rects>
      <tilted>0</tilted></_>
    <_>
      <rects>
        <_>
          0 0 4 8 -1.</_>
        <_>
          0 0 2 4 2.</_>
        <_>
          2 4 2 4 2.</_></rects>
      <tilted>0</tilted></_>
    <_>
      <rects>
        <_>
          0 0 4 24 -1.</_>
        <_>
          2 0 2 24 2.</_></rects>
      <tilted>0</tilted></_>
    <_>
      <rects>
        <_>
          0 0 3 4 -1.</_>
        <_>
          0 2 3 2 2.</_></rects>
      <tilted>0</tilted></_>
    <_>
      <rects>
        <_>
          0 0 6 6 -1.</_>
        <_>
          0 0 3 3 2.</_>
        <_>
          3 3 3 3 2.</_></rects>
      <tilted>0</tilted></_>
    <_>
      <rects>
        <_>
          0 0 8 1 -1.</_>
        <_>
          4 0 4 1 2.</_></rects>
      <tilted>0</tilted></_>
    <_>
      <rects>
        <_>
          0 0 10 6 -1.</_>
        <_>
          0 0 5 3 2.</_>
        <_>
          5 3 5 3 2.</_></rects>
      <tilted>0</tilted></_>
    <_>
      <rects>
        <_>
          0 3 6 12 -1.</_>
        <_>
          0 3 3 6 2.</_>
        <_>
          3 9 3 6 2.</_></rects>
      <tilted>0</tilted></_>
    <_>
      <rects>
        <_>
          0 4 6 12 -1.</_>
        <_>
          0 4 3 6 2.</_>
        <_>
          3 10 3 6 2.</_></rects>
      <tilted>0</tilted></_>
    <_>
      <rects>
        <_>
          0 4 12 10 -1.</_>
        <_>
          0 9 12 5 2.</_></rects>
      <tilted>0</tilted></_>
    <_>
      <rects>
        <_>
          0 6 24 18 -1.</_>
        <_>
          12 6 12 18 2.</_></rects>
      <tilted>0</tilted></_>
    <_>
      <rects>
        <_>
          0 7 17 2 -1.</_>
        <_>
          0 8 17 1 2.</_></rects>
      <tilted>0</tilted></_>
    <_>
      <rects>
        <_>
          0 9 6 15 -1.</_>
        <_>
          3 9 3 15 2.</_></rects>
      <tilted>0</tilted></_>
    <_>
      <rects>
        <_>
          0 11 4 5 -1.</_>
        <_>
          2 11 2 5 2.</_></rects>
      <tilted>0</tilted></_>
    <_>
      <rects>
        <_>
          0 12 2 2 -1.</_>
        <_>
          0 13 2 1 2.</_></rects>
      <tilted>0</tilted></_>
    <_>
      <rects>
        <_>
          0 13 8 2 -1.</_>
        <_>
          0 14 8 1 2.</_></rects>
      <tilted>0</tilted></_>
    <_>
      <rects>
        <_>
          0 14 3 2 -1.</_>
        <_>
          0 15 3 1 2.</_></rects>
      <tilted>0</tilted></_>
    <_>
      <rects>
        <_>
          0 17 5 2 -1.</_>
        <_>
          0 18 5 1 2.</_></rects>
      <tilted>0</tilted></_>
    <_>
      <rects>
        <_>
          0 18 10 6 -1.</_>
        <_>
          0 18 5 3 2.</_>
        <_>
          5 21 5 3 2.</_></rects>
      <tilted>0</tilted></_>
    <_>
      <rects>
        <_>
          0 18 22 6 -1.</_>
        <_>
          0 21 22 3 2.</_></rects>
      <tilted>0</tilted></_>
    <_>
      <rects>
        <_>
          0 19 10 5 -1.</_>
        <_>
          5 19 5 5 2.</_></rects>
      <tilted>0</tilted></_>
    <_>
      <rects>
        <_>
          0 23 12 1 -1.</_>
        <_>
          6 23 6 1 2.</_></rects>
      <tilted>0</tilted></_>
    <_>
      <rects>
        <_>
          0 23 20 1 -1.</_>
        <_>
          10 23 10 1 2.</_></rects>
      <tilted>0</tilted></_>
    <_>
      <rects>
        <_>
          1 0 8 1 -1.</_>
        <_>
          5 0 4 1 2.</_></rects>
      <tilted>0</tilted></_>
    <_>
      <rects>
        <_>
          1 0 19 8 -1.</_>
        <_>
          1 4 19 4 2.</_></rects>
      <tilted>0</tilted></_>
    <_>
      <rects>
        <_>
          1 1 20 10 -1.</_>
        <_>
          1 1 10 5 2.</_>
        <_>
          11 6 10 5 2.</_></rects>
      <tilted>0</tilted></_>
    <_>
      <rects>
        <_>
          1 4 6 10 -1.</_>
        <_>
          1 4 3 5 2.</_>
        <_>
          4 9 3 5 2.</_></rects>
      <tilted>0</tilted></_>
    <_>
      <rects>
        <_>
          1 5 22 16 -1.</_>
        <_>
          12 5 11 16 2.</_></rects>
      <tilted>0</tilted></_>
    <_>
      <rects>
        <_>
          1 9 15 6 -1.</_>
        <_>
          1 12 15 3 2.</_></rects>
      <tilted>0</tilted></_>
    <_>
      <rects>
        <_>
          1 9 21 12 -1.</_>
        <_>
          1 15 21 6 2.</_></rects>
      <tilted>0</tilted></_>
    <_>
      <rects>
        <_>
          1 10 6 8 -1.</_>
        <_>
          1 14 6 4 2.</_></rects>
      <tilted>0</tilted></_>
    <_>
      <rects>
        <_>
          1 11 1 2 -1.</_>
        <_>
          1 12 1 1 2.</_></rects>
      <tilted>0</tilted></_>
    <_>
      <rects>
        <_>
          1 11 14 4 -1.</_>
        <_>
          1 11 7 2 2.</_>
        <_>
          8 13 7 2 2.</_></rects>
      <tilted>0</tilted></_>
    <_>
      <rects>
        <_>
          1 12 7 2 -1.</_>
        <_>
          1 13 7 1 2.</_></rects>
      <tilted>0</tilted></_>
    <_>
      <rects>
        <_>
          1 13 2 2 -1.</_>
        <_>
          1 14 2 1 2.</_></rects>
      <tilted>0</tilted></_>
    <_>
      <rects>
        <_>
          1 15 3 2 -1.</_>
        <_>
          1 16 3 1 2.</_></rects>
      <tilted>0</tilted></_>
    <_>
      <rects>
        <_>
          2 0 17 6 -1.</_>
        <_>
          2 3 17 3 2.</_></rects>
      <tilted>0</tilted></_>
    <_>
      <rects>
        <_>
          2 1 21 14 -1.</_>
        <_>
          2 8 21 7 2.</_></rects>
      <tilted>0</tilted></_>
    <_>
      <rects>
        <_>
          2 2 22 14 -1.</_>
        <_>
          2 2 11 7 2.</_>
        <_>
          13 9 11 7 2.</_></rects>
      <tilted>0</tilted></_>
    <_>
      <rects>
        <_>
          2 4 19 8 -1.</_>
        <_>
          2 8 19 4 2.</_></rects>
      <tilted>0</tilted></_>
    <_>
      <rects>
        <_>
          2 5 19 6 -1.</_>
        <_>
          2 8 19 3 2.</_></rects>
      <tilted>0</tilted></_>
    <_>
      <rects>
        <_>
          2 6 22 18 -1.</_>
        <_>
          13 6 11 18 2.</_></rects>
      <tilted>0</tilted></_>
    <_>
      <rects>
        <_>
          2 6 18 4 -1.</_>
        <_>
          2 8 18 2 2.</_></rects>
      <tilted>0</tilted></_>
    <_>
      <rects>
        <_>
          2 8 20 16 -1.</_>
        <_>
          2 16 20 8 2.</_></rects>
      <tilted>0</tilted></_>
    <_>
      <rects>
        <_>
          2 12 1 2 -1.</_>
        <_>
          2 13 1 1 2.</_></rects>
      <tilted>0</tilted></_>
    <_>
      <rects>
        <_>
          2 12 22 8 -1.</_>
        <_>
          2 12 11 4 2.</_>
        <_>
          13 16 11 4 2.</_></rects>
      <tilted>0</tilted></_>
    <_>
      <rects>
        <_>
          2 16 6 8 -1.</_>
        <_>
          2 16 3 4 2.</_>
        <_>
          5 20 3 4 2.</_></rects>
      <tilted>0</tilted></_>
    <_>
      <rects>
        <_>
          2 17 1 2 -1.</_>
        <_>
          2 18 1 1 2.</_></rects>
      <tilted>0</tilted></_>
    <_>
      <rects>
        <_>
          2 18 8 6 -1.</_>
        <_>
          2 18 4 3 2.</_>
        <_>
          6 21 4 3 2.</_></rects>
      <tilted>0</tilted></_>
    <_>
      <rects>
        <_>
          2 18 10 6 -1.</_>
        <_>
          2 18 5 3 2.</_>
        <_>
          7 21 5 3 2.</_></rects>
      <tilted>0</tilted></_>
    <_>
      <rects>
        <_>
          3 0 20 6 -1.</_>
        <_>
          3 3 20 3 2.</_></rects>
      <tilted>0</tilted></_>
    <_>
      <rects>
        <_>
          3 4 10 10 -1.</_>
        <_>
          3 9 10 5 2.</_></rects>
      <tilted>0</tilted></_>
    <_>
      <rects>
        <_>
          3 5 20 4 -1.</_>
        <_>
          3 7 20 2 2.</_></rects>
      <tilted>0</tilted></_>
    <_>
      <rects>
        <_>
          3 7 13 15 -1.</_>
        <_>
          3 12 13 5 2.</_></rects>
      <tilted>0</tilted></_>
    <_>
      <rects>
        <_>
          3 10 3 2 -1.</_>
        <_>
          4 10 1 2 2.</_></rects>
      <tilted>0</tilted></_>
    <_>
      <rects>
        <_>
          3 12 8 2 -1.</_>
        <_>
          7 12 4 2 2.</_></rects>
      <tilted>0</tilted></_>
    <_>
      <rects>
        <_>
          3 13 1 2 -1.</_>
        <_>
          3 14 1 1 2.</_></rects>
      <tilted>0</tilted></_>
    <_>
      <rects>
        <_>
          3 13 2 2 -1.</_>
        <_>
          3 14 2 1 2.</_></rects>
      <tilted>0</tilted></_>
    <_>
      <rects>
        <_>
          3 13 3 2 -1.</_>
        <_>
          3 14 3 1 2.</_></rects>
      <tilted>0</tilted></_>
    <_>
      <rects>
        <_>
          3 18 8 6 -1.</_>
        <_>
          3 18 4 3 2.</_>
        <_>
          7 21 4 3 2.</_></rects>
      <tilted>0</tilted></_>
    <_>
      <rects>
        <_>
          3 18 8 6 -1.</_>
        <_>
          3 21 8 3 2.</_></rects>
      <tilted>0</tilted></_>
    <_>
      <rects>
        <_>
          3 22 10 2 -1.</_>
        <_>
          3 22 5 1 2.</_>
        <_>
          8 23 5 1 2.</_></rects>
      <tilted>0</tilted></_>
    <_>
      <rects>
        <_>
          4 0 10 6 -1.</_>
        <_>
          4 3 10 3 2.</_></rects>
      <tilted>0</tilted></_>
    <_>
      <rects>
        <_>
          4 0 13 4 -1.</_>
        <_>
          4 2 13 2 2.</_></rects>
      <tilted>0</tilted></_>
    <_>
      <rects>
        <_>
          4 2 10 14 -1.</_>
        <_>
          4 2 5 7 2.</_>
        <_>
          9 9 5 7 2.</_></rects>
      <tilted>0</tilted></_>
    <_>
      <rects>
        <_>
          4 3 1 10 -1.</_>
        <_>
          4 8 1 5 2.</_></rects>
      <tilted>0</tilted></_>
    <_>
      <rects>
        <_>
          4 4 16 3 -1.</_>
        <_>
          12 4 8 3 2.</_></rects>
      <tilted>0</tilted></_>
    <_>
      <rects>
        <_>
          4 5 17 2 -1.</_>
        <_>
          4 6 17 1 2.</_></rects>
      <tilted>0</tilted></_>
    <_>
      <rects>
        <_>
          4 7 17 4 -1.</_>
        <_>
          4 9 17 2 2.</_></rects>
      <tilted>0</tilted></_>
    <_>
      <rects>
        <_>
          4 8 14 14 -1.</_>
        <_>
          4 8 7 7 2.</_>
        <_>
          11 15 7 7 2.</_></rects>
      <tilted>0</tilted></_>
    <_>
      <rects>
        <_>
          4 12 10 4 -1.</_>
        <_>
          4 12 5 2 2.</_>
        <_>
          9 14 5 2 2.</_></rects>
      <tilted>0</tilted></_>
    <_>
      <rects>
        <_>
          4 14 2 2 -1.</_>
        <_>
          4 15 2 1 2.</_></rects>
      <tilted>0</tilted></_>
    <_>
      <rects>
        <_>
          4 19 8 2 -1.</_>
        <_>
          4 19 4 1 2.</_>
        <_>
          8 20 4 1 2.</_></rects>
      <tilted>0</tilted></_>
    <_>
      <rects>
        <_>
          5 0 2 1 -1.</_>
        <_>
          6 0 1 1 2.</_></rects>
      <tilted>0</tilted></_>
    <_>
      <rects>
        <_>
          5 0 8 8 -1.</_>
        <_>
          9 0 4 8 2.</_></rects>
      <tilted>0</tilted></_>
    <_>
      <rects>
        <_>
          5 0 15 6 -1.</_>
        <_>
          5 3 15 3 2.</_></rects>
      <tilted>0</tilted></_>
    <_>
      <rects>
        <_>
          5 2 8 14 -1.</_>
        <_>
          5 2 4 7 2.</_>
        <_>
          9 9 4 7 2.</_></rects>
      <tilted>0</tilted></_>
    <_>
      <rects>
        <_>
          5 3 10 16 -1.</_>
        <_>
          5 11 10 8 2.</_></rects>
      <tilted>0</tilted></_>
    <_>
      <rects>
        <_>
          5 4 19 6 -1.</_>
        <_>
          5 7 19 3 2.</_></rects>
      <tilted>0</tilted></_>
    <_>
      <rects>
        <_>
          5 7 19 4 -1.</_>
        <_>
          5 9 19 2 2.</_></rects>
      <tilted>0</tilted></_>
    <_>
      <rects>
        <_>
          5 10 5 10 -1.</_>
        <_>
          5 15 5 5 2.</_></rects>
      <tilted>0</tilted></_>
    <_>
      <rects>
        <_>
          6 0 9 4 -1.</_>
        <_>
          6 2 9 2 2.</_></rects>
      <tilted>0</tilted></_>
    <_>
      <rects>
        <_>
          6 0 12 6 -1.</_>
        <_>
          6 3 12 3 2.</_></rects>
      <tilted>0</tilted></_>
    <_>
      <rects>
        <_>
          6 2 1 18 -1.</_>
        <_>
          6 8 1 6 2.</_></rects>
      <tilted>0</tilted></_>
    <_>
      <rects>
        <_>
          6 2 8 6 -1.</_>
        <_>
          10 2 4 6 2.</_></rects>
      <tilted>0</tilted></_>
    <_>
      <rects>
        <_>
          6 4 8 3 -1.</_>
        <_>
          10 4 4 3 2.</_></rects>
      <tilted>0</tilted></_>
    <_>
      <rects>
        <_>
          6 5 17 4 -1.</_>
        <_>
          6 7 17 2 2.</_></rects>
      <tilted>0</tilted></_>
    <_>
      <rects>
        <_>
          6 6 11 10 -1.</_>
        <_>
          6 11 11 5 2.</_></rects>
      <tilted>0</tilted></_>
    <_>
      <rects>
        <_>
          6 11 4 3 -1.</_>
        <_>
          8 11 2 3 2.</_></rects>
      <tilted>0</tilted></_>
    <_>
      <rects>
        <_>
          6 12 8 12 -1.</_>
        <_>
          6 18 8 6 2.</_></rects>
      <tilted>0</tilted></_>
    <_>
      <rects>
        <_>
          6 17 12 4 -1.</_>
        <_>
          10 17 4 4 2.</_></rects>
      <tilted>0</tilted></_>
    <_>
      <rects>
        <_>
          6 18 11 2 -1.</_>
        <_>
          6 19 11 1 2.</_></rects>
      <tilted>0</tilted></_>
    <_>
      <rects>
        <_>
          7 2 4 4 -1.</_>
        <_>
          9 2 2 4 2.</_></rects>
      <tilted>0</tilted></_>
    <_>
      <rects>
        <_>
          7 3 6 4 -1.</_>
        <_>
          10 3 3 4 2.</_></rects>
      <tilted>0</tilted></_>
    <_>
      <rects>
        <_>
          7 3 9 4 -1.</_>
        <_>
          7 5 9 2 2.</_></rects>
      <tilted>0</tilted></_>
    <_>
      <rects>
        <_>
          7 15 6 4 -1.</_>
        <_>
          7 15 3 2 2.</_>
        <_>
          10 17 3 2 2.</_></rects>
      <tilted>0</tilted></_>
    <_>
      <rects>
        <_>
          7 16 11 2 -1.</_>
        <_>
          7 17 11 1 2.</_></rects>
      <tilted>0</tilted></_>
    <_>
      <rects>
        <_>
          7 22 6 2 -1.</_>
        <_>
          7 22 3 1 2.</_>
        <_>
          10 23 3 1 2.</_></rects>
      <tilted>0</tilted></_>
    <_>
      <rects>
        <_>
          8 0 5 6 -1.</_>
        <_>
          8 3 5 3 2.</_></rects>
      <tilted>0</tilted></_>
    <_>
      <rects>
        <_>
          8 0 12 18 -1.</_>
        <_>
          8 0 6 9 2.</_>
        <_>
          14 9 6 9 2.</_></rects>
      <tilted>0</tilted></_>
    <_>
      <rects>
        <_>
          8 0 9 4 -1.</_>
        <_>
          8 2 9 2 2.</_></rects>
      <tilted>0</tilted></_>
    <_>
      <rects>
        <_>
          8 2 4 6 -1.</_>
        <_>
          10 2 2 6 2.</_></rects>
      <tilted>0</tilted></_>
    <_>
      <rects>
        <_>
          8 2 9 4 -1.</_>
        <_>
          8 4 9 2 2.</_></rects>
      <tilted>0</tilted></_>
    <_>
      <rects>
        <_>
          8 6 11 2 -1.</_>
        <_>
          8 7 11 1 2.</_></rects>
      <tilted>0</tilted></_>
    <_>
      <rects>
        <_>
          8 11 4 1 -1.</_>
        <_>
          10 11 2 1 2.</_></rects>
      <tilted>0</tilted></_>
    <_>
      <rects>
        <_>
          8 14 8 2 -1.</_>
        <_>
          8 15 8 1 2.</_></rects>
      <tilted>0</tilted></_>
    <_>
      <rects>
        <_>
          8 15 4 4 -1.</_>
        <_>
          8 15 2 2 2.</_>
        <_>
          10 17 2 2 2.</_></rects>
      <tilted>0</tilted></_>
    <_>
      <rects>
        <_>
          8 17 5 2 -1.</_>
        <_>
          8 18 5 1 2.</_></rects>
      <tilted>0</tilted></_>
    <_>
      <rects>
        <_>
          8 17 7 2 -1.</_>
        <_>
          8 18 7 1 2.</_></rects>
      <tilted>0</tilted></_>
    <_>
      <rects>
        <_>
          8 18 7 2 -1.</_>
        <_>
          8 19 7 1 2.</_></rects>
      <tilted>0</tilted></_>
    <_>
      <rects>
        <_>
          8 18 9 2 -1.</_>
        <_>
          8 19 9 1 2.</_></rects>
      <tilted>0</tilted></_>
    <_>
      <rects>
        <_>
          8 20 16 4 -1.</_>
        <_>
          8 20 8 2 2.</_>
        <_>
          16 22 8 2 2.</_></rects>
      <tilted>0</tilted></_>
    <_>
      <rects>
        <_>
          9 0 2 1 -1.</_>
        <_>
          10 0 1 1 2.</_></rects>
      <tilted>0</tilted></_>
    <_>
      <rects>
        <_>
          9 0 2 2 -1.</_>
        <_>
          9 0 1 1 2.</_>
        <_>
          10 1 1 1 2.</_></rects>
      <tilted>0</tilted></_>
    <_>
      <rects>
        <_>
          9 1 1 2 -1.</_>
        <_>
          9 2 1 1 2.</_></rects>
      <tilted>0</tilted></_>
    <_>
      <rects>
        <_>
          9 2 4 6 -1.</_>
        <_>
          11 2 2 6 2.</_></rects>
      <tilted>0</tilted></_>
    <_>
      <rects>
        <_>
          9 3 10 5 -1.</_>
        <_>
          14 3 5 5 2.</_></rects>
      <tilted>0</tilted></_>
    <_>
      <rects>
        <_>
          9 4 4 4 -1.</_>
        <_>
          11 4 2 4 2.</_></rects>
      <tilted>0</tilted></_>
    <_>
      <rects>
        <_>
          9 4 6 12 -1.</_>
        <_>
          9 10 6 6 2.</_></rects>
      <tilted>0</tilted></_>
    <_>
      <rects>
        <_>
          9 4 12 14 -1.</_>
        <_>
          9 4 6 7 2.</_>
        <_>
          15 11 6 7 2.</_></rects>
      <tilted>0</tilted></_>
    <_>
      <rects>
        <_>
          9 5 4 2 -1.</_>
        <_>
          11 5 2 2 2.</_></rects>
      <tilted>0</tilted></_>
    <_>
      <rects>
        <_>
          9 8 3 2 -1.</_>
        <_>
          9 9 3 1 2.</_></rects>
      <tilted>0</tilted></_>
    <_>
      <rects>
        <_>
          9 9 6 1 -1.</_>
        <_>
          11 9 2 1 2.</_></rects>
      <tilted>0</tilted></_>
    <_>
      <rects>
        <_>
          9 14 4 2 -1.</_>
        <_>
          9 15 4 1 2.</_></rects>
      <tilted>0</tilted></_>
    <_>
      <rects>
        <_>
          9 18 4 2 -1.</_>
        <_>
          9 19 4 1 2.</_></rects>
      <tilted>0</tilted></_>
    <_>
      <rects>
        <_>
          9 18 8 2 -1.</_>
        <_>
          9 19 8 1 2.</_></rects>
      <tilted>0</tilted></_>
    <_>
      <rects>
        <_>
          9 19 14 2 -1.</_>
        <_>
          9 19 7 1 2.</_>
        <_>
          16 20 7 1 2.</_></rects>
      <tilted>0</tilted></_>
    <_>
      <rects>
        <_>
          10 0 2 1 -1.</_>
        <_>
          11 0 1 1 2.</_></rects>
      <tilted>0</tilted></_>
    <_>
      <rects>
        <_>
          10 1 5 2 -1.</_>
        <_>
          10 2 5 1 2.</_></rects>
      <tilted>0</tilted></_>
    <_>
      <rects>
        <_>
          10 3 10 4 -1.</_>
        <_>
          15 3 5 4 2.</_></rects>
      <tilted>0</tilted></_>
    <_>
      <rects>
        <_>
          10 3 10 5 -1.</_>
        <_>
          15 3 5 5 2.</_></rects>
      <tilted>0</tilted></_>
    <_>
      <rects>
        <_>
          10 5 2 2 -1.</_>
        <_>
          11 5 1 2 2.</_></rects>
      <tilted>0</tilted></_>
    <_>
      <rects>
        <_>
          10 5 4 8 -1.</_>
        <_>
          12 5 2 8 2.</_></rects>
      <tilted>0</tilted></_>
    <_>
      <rects>
        <_>
          10 6 7 2 -1.</_>
        <_>
          10 7 7 1 2.</_></rects>
      <tilted>0</tilted></_>
    <_>
      <rects>
        <_>
          10 7 4 2 -1.</_>
        <_>
          10 8 4 1 2.</_></rects>
      <tilted>0</tilted></_>
    <_>
      <rects>
        <_>
          10 7 6 2 -1.</_>
        <_>
          10 8 6 1 2.</_></rects>
      <tilted>0</tilted></_>
    <_>
      <rects>
        <_>
          10 8 6 2 -1.</_>
        <_>
          10 9 6 1 2.</_></rects>
      <tilted>0</tilted></_>
    <_>
      <rects>
        <_>
          10 12 4 2 -1.</_>
        <_>
          10 13 4 1 2.</_></rects>
      <tilted>0</tilted></_>
    <_>
      <rects>
        <_>
          10 15 4 2 -1.</_>
        <_>
          10 16 4 1 2.</_></rects>
      <tilted>0</tilted></_>
    <_>
      <rects>
        <_>
          10 16 2 8 -1.</_>
        <_>
          10 16 1 4 2.</_>
        <_>
          11 20 1 4 2.</_></rects>
      <tilted>0</tilted></_>
    <_>
      <rects>
        <_>
          10 16 3 8 -1.</_>
        <_>
          10 20 3 4 2.</_></rects>
      <tilted>0</tilted></_>
    <_>
      <rects>
        <_>
          10 16 6 2 -1.</_>
        <_>
          10 17 6 1 2.</_></rects>
      <tilted>0</tilted></_>
    <_>
      <rects>
        <_>
          10 17 4 2 -1.</_>
        <_>
          10 18 4 1 2.</_></rects>
      <tilted>0</tilted></_>
    <_>
      <rects>
        <_>
          10 17 5 2 -1.</_>
        <_>
          10 18 5 1 2.</_></rects>
      <tilted>0</tilted></_>
    <_>
      <rects>
        <_>
          10 17 6 2 -1.</_>
        <_>
          10 18 6 1 2.</_></rects>
      <tilted>0</tilted></_>
    <_>
      <rects>
        <_>
          10 19 6 2 -1.</_>
        <_>
          10 20 6 1 2.</_></rects>
      <tilted>0</tilted></_>
    <_>
      <rects>
        <_>
          10 23 14 1 -1.</_>
        <_>
          17 23 7 1 2.</_></rects>
      <tilted>0</tilted></_>
    <_>
      <rects>
        <_>
          11 0 8 10 -1.</_>
        <_>
          15 0 4 10 2.</_></rects>
      <tilted>0</tilted></_>
    <_>
      <rects>
        <_>
          11 1 8 7 -1.</_>
        <_>
          15 1 4 7 2.</_></rects>
      <tilted>0</tilted></_>
    <_>
      <rects>
        <_>
          11 2 2 7 -1.</_>
        <_>
          12 2 1 7 2.</_></rects>
      <tilted>0</tilted></_>
    <_>
      <rects>
        <_>
          11 2 6 6 -1.</_>
        <_>
          14 2 3 6 2.</_></rects>
      <tilted>0</tilted></_>
    <_>
      <rects>
        <_>
          11 3 2 2 -1.</_>
        <_>
          11 3 1 1 2.</_>
        <_>
          12 4 1 1 2.</_></rects>
      <tilted>0</tilted></_>
    <_>
      <rects>
        <_>
          11 3 2 5 -1.</_>
        <_>
          12 3 1 5 2.</_></rects>
      <tilted>0</tilted></_>
    <_>
      <rects>
        <_>
          11 5 2 4 -1.</_>
        <_>
          12 5 1 4 2.</_></rects>
      <tilted>0</tilted></_>
    <_>
      <rects>
        <_>
          11 7 6 2 -1.</_>
        <_>
          11 8 6 1 2.</_></rects>
      <tilted>0</tilted></_>
    <_>
      <rects>
        <_>
          11 7 13 2 -1.</_>
        <_>
          11 8 13 1 2.</_></rects>
      <tilted>0</tilted></_>
    <_>
      <rects>
        <_>
          11 12 5 2 -1.</_>
        <_>
          11 13 5 1 2.</_></rects>
      <tilted>0</tilted></_>
    <_>
      <rects>
        <_>
          11 13 1 2 -1.</_>
        <_>
          11 14 1 1 2.</_></rects>
      <tilted>0</tilted></_>
    <_>
      <rects>
        <_>
          11 15 2 4 -1.</_>
        <_>
          11 17 2 2 2.</_></rects>
      <tilted>0</tilted></_>
    <_>
      <rects>
        <_>
          11 16 2 8 -1.</_>
        <_>
          11 16 1 4 2.</_>
        <_>
          12 20 1 4 2.</_></rects>
      <tilted>0</tilted></_>
    <_>
      <rects>
        <_>
          11 18 4 2 -1.</_>
        <_>
          11 19 4 1 2.</_></rects>
      <tilted>0</tilted></_>
    <_>
      <rects>
        <_>
          11 19 3 2 -1.</_>
        <_>
          11 20 3 1 2.</_></rects>
      <tilted>0</tilted></_>
    <_>
      <rects>
        <_>
          11 19 5 2 -1.</_>
        <_>
          11 20 5 1 2.</_></rects>
      <tilted>0</tilted></_>
    <_>
      <rects>
        <_>
          11 19 12 2 -1.</_>
        <_>
          11 19 6 1 2.</_>
        <_>
          17 20 6 1 2.</_></rects>
      <tilted>0</tilted></_>
    <_>
      <rects>
        <_>
          12 0 2 1 -1.</_>
        <_>
          13 0 1 1 2.</_></rects>
      <tilted>0</tilted></_>
    <_>
      <rects>
        <_>
          12 0 4 7 -1.</_>
        <_>
          14 0 2 7 2.</_></rects>
      <tilted>0</tilted></_>
    <_>
      <rects>
        <_>
          12 2 2 8 -1.</_>
        <_>
          13 2 1 8 2.</_></rects>
      <tilted>0</tilted></_>
    <_>
      <rects>
        <_>
          12 2 4 5 -1.</_>
        <_>
          14 2 2 5 2.</_></rects>
      <tilted>0</tilted></_>
    <_>
      <rects>
        <_>
          12 3 4 4 -1.</_>
        <_>
          14 3 2 4 2.</_></rects>
      <tilted>0</tilted></_>
    <_>
      <rects>
        <_>
          12 5 2 2 -1.</_>
        <_>
          13 5 1 2 2.</_></rects>
      <tilted>0</tilted></_>
    <_>
      <rects>
        <_>
          12 5 4 1 -1.</_>
        <_>
          14 5 2 1 2.</_></rects>
      <tilted>0</tilted></_>
    <_>
      <rects>
        <_>
          12 6 4 16 -1.</_>
        <_>
          12 6 2 8 2.</_>
        <_>
          14 14 2 8 2.</_></rects>
      <tilted>0</tilted></_>
    <_>
      <rects>
        <_>
          12 14 2 10 -1.</_>
        <_>
          12 14 1 5 2.</_>
        <_>
          13 19 1 5 2.</_></rects>
      <tilted>0</tilted></_>
    <_>
      <rects>
        <_>
          12 14 8 4 -1.</_>
        <_>
          12 14 4 2 2.</_>
        <_>
          16 16 4 2 2.</_></rects>
      <tilted>0</tilted></_>
    <_>
      <rects>
        <_>
          13 0 2 4 -1.</_>
        <_>
          14 0 1 4 2.</_></rects>
      <tilted>0</tilted></_>
    <_>
      <rects>
        <_>
          13 0 7 6 -1.</_>
        <_>
          13 3 7 3 2.</_></rects>
      <tilted>0</tilted></_>
    <_>
      <rects>
        <_>
          13 9 11 8 -1.</_>
        <_>
          13 13 11 4 2.</_></rects>
      <tilted>0</tilted></_>
    <_>
      <rects>
        <_>
          13 14 2 8 -1.</_>
        <_>
          13 14 1 4 2.</_>
        <_>
          14 18 1 4 2.</_></rects>
      <tilted>0</tilted></_>
    <_>
      <rects>
        <_>
          14 0 2 5 -1.</_>
        <_>
          15 0 1 5 2.</_></rects>
      <tilted>0</tilted></_>
    <_>
      <rects>
        <_>
          14 0 10 1 -1.</_>
        <_>
          19 0 5 1 2.</_></rects>
      <tilted>0</tilted></_>
    <_>
      <rects>
        <_>
          14 3 2 2 -1.</_>
        <_>
          15 3 1 2 2.</_></rects>
      <tilted>0</tilted></_>
    <_>
      <rects>
        <_>
          14 5 6 6 -1.</_>
        <_>
          14 8 6 3 2.</_></rects>
      <tilted>0</tilted></_>
    <_>
      <rects>
        <_>
          14 11 6 3 -1.</_>
        <_>
          17 11 3 3 2.</_></rects>
      <tilted>0</tilted></_>
    <_>
      <rects>
        <_>
          14 18 8 6 -1.</_>
        <_>
          14 18 4 3 2.</_>
        <_>
          18 21 4 3 2.</_></rects>
      <tilted>0</tilted></_>
    <_>
      <rects>
        <_>
          14 18 10 6 -1.</_>
        <_>
          14 18 5 3 2.</_>
        <_>
          19 21 5 3 2.</_></rects>
      <tilted>0</tilted></_>
    <_>
      <rects>
        <_>
          14 23 10 1 -1.</_>
        <_>
          19 23 5 1 2.</_></rects>
      <tilted>0</tilted></_>
    <_>
      <rects>
        <_>
          15 0 8 1 -1.</_>
        <_>
          19 0 4 1 2.</_></rects>
      <tilted>0</tilted></_>
    <_>
      <rects>
        <_>
          15 5 8 6 -1.</_>
        <_>
          15 8 8 3 2.</_></rects>
      <tilted>0</tilted></_>
    <_>
      <rects>
        <_>
          15 10 4 3 -1.</_>
        <_>
          17 10 2 3 2.</_></rects>
      <tilted>0</tilted></_>
    <_>
      <rects>
        <_>
          15 10 8 12 -1.</_>
        <_>
          15 16 8 6 2.</_></rects>
      <tilted>0</tilted></_>
    <_>
      <rects>
        <_>
          15 11 9 4 -1.</_>
        <_>
          15 13 9 2 2.</_></rects>
      <tilted>0</tilted></_>
    <_>
      <rects>
        <_>
          15 18 6 2 -1.</_>
        <_>
          18 18 3 2 2.</_></rects>
      <tilted>0</tilted></_>
    <_>
      <rects>
        <_>
          16 0 8 4 -1.</_>
        <_>
          16 0 4 2 2.</_>
        <_>
          20 2 4 2 2.</_></rects>
      <tilted>0</tilted></_>
    <_>
      <rects>
        <_>
          16 0 8 6 -1.</_>
        <_>
          16 0 4 3 2.</_>
        <_>
          20 3 4 3 2.</_></rects>
      <tilted>0</tilted></_>
    <_>
      <rects>
        <_>
          16 4 8 4 -1.</_>
        <_>
          16 6 8 2 2.</_></rects>
      <tilted>0</tilted></_>
    <_>
      <rects>
        <_>
          16 11 7 8 -1.</_>
        <_>
          16 15 7 4 2.</_></rects>
      <tilted>0</tilted></_>
    <_>
      <rects>
        <_>
          16 18 8 6 -1.</_>
        <_>
          16 18 4 3 2.</_>
        <_>
          20 21 4 3 2.</_></rects>
      <tilted>0</tilted></_>
    <_>
      <rects>
        <_>
          16 21 8 3 -1.</_>
        <_>
          20 21 4 3 2.</_></rects>
      <tilted>0</tilted></_>
    <_>
      <rects>
        <_>
          17 4 3 2 -1.</_>
        <_>
          17 5 3 1 2.</_></rects>
      <tilted>0</tilted></_>
    <_>
      <rects>
        <_>
          17 4 4 2 -1.</_>
        <_>
          17 5 4 1 2.</_></rects>
      <tilted>0</tilted></_>
    <_>
      <rects>
        <_>
          17 5 4 1 -1.</_>
        <_>
          19 5 2 1 2.</_></rects>
      <tilted>0</tilted></_>
    <_>
      <rects>
        <_>
          17 11 5 6 -1.</_>
        <_>
          17 14 5 3 2.</_></rects>
      <tilted>0</tilted></_>
    <_>
      <rects>
        <_>
          17 19 6 2 -1.</_>
        <_>
          17 20 6 1 2.</_></rects>
      <tilted>0</tilted></_>
    <_>
      <rects>
        <_>
          18 0 6 1 -1.</_>
        <_>
          21 0 3 1 2.</_></rects>
      <tilted>0</tilted></_>
    <_>
      <rects>
        <_>
          18 3 1 10 -1.</_>
        <_>
          18 8 1 5 2.</_></rects>
      <tilted>0</tilted></_>
    <_>
      <rects>
        <_>
          18 3 6 12 -1.</_>
        <_>
          18 3 3 6 2.</_>
        <_>
          21 9 3 6 2.</_></rects>
      <tilted>0</tilted></_>
    <_>
      <rects>
        <_>
          18 4 6 12 -1.</_>
        <_>
          18 4 3 6 2.</_>
        <_>
          21 10 3 6 2.</_></rects>
      <tilted>0</tilted></_>
    <_>
      <rects>
        <_>
          18 11 4 6 -1.</_>
        <_>
          18 14 4 3 2.</_></rects>
      <tilted>0</tilted></_>
    <_>
      <rects>
        <_>
          18 13 5 2 -1.</_>
        <_>
          18 14 5 1 2.</_></rects>
      <tilted>0</tilted></_>
    <_>
      <rects>
        <_>
          18 16 6 2 -1.</_>
        <_>
          18 17 6 1 2.</_></rects>
      <tilted>0</tilted></_>
    <_>
      <rects>
        <_>
          18 18 6 4 -1.</_>
        <_>
          21 18 3 4 2.</_></rects>
      <tilted>0</tilted></_>
    <_>
      <rects>
        <_>
          18 20 6 4 -1.</_>
        <_>
          18 22 6 2 2.</_></rects>
      <tilted>0</tilted></_>
    <_>
      <rects>
        <_>
          18 22 6 2 -1.</_>
        <_>
          18 23 6 1 2.</_></rects>
      <tilted>0</tilted></_>
    <_>
      <rects>
        <_>
          19 13 5 2 -1.</_>
        <_>
          19 14 5 1 2.</_></rects>
      <tilted>0</tilted></_>
    <_>
      <rects>
        <_>
          19 15 5 2 -1.</_>
        <_>
          19 16 5 1 2.</_></rects>
      <tilted>0</tilted></_>
    <_>
      <rects>
        <_>
          19 18 5 2 -1.</_>
        <_>
          19 19 5 1 2.</_></rects>
      <tilted>0</tilted></_>
    <_>
      <rects>
        <_>
          20 0 4 1 -1.</_>
        <_>
          22 0 2 1 2.</_></rects>
      <tilted>0</tilted></_>
    <_>
      <rects>
        <_>
          20 0 4 2 -1.</_>
        <_>
          22 0 2 2 2.</_></rects>
      <tilted>0</tilted></_>
    <_>
      <rects>
        <_>
          20 9 4 15 -1.</_>
        <_>
          22 9 2 15 2.</_></rects>
      <tilted>0</tilted></_>
    <_>
      <rects>
        <_>
          20 10 4 14 -1.</_>
        <_>
          22 10 2 14 2.</_></rects>
      <tilted>0</tilted></_>
    <_>
      <rects>
        <_>
          20 12 2 2 -1.</_>
        <_>
          20 13 2 1 2.</_></rects>
      <tilted>0</tilted></_>
    <_>
      <rects>
        <_>
          20 13 1 2 -1.</_>
        <_>
          20 14 1 1 2.</_></rects>
      <tilted>0</tilted></_>
    <_>
      <rects>
        <_>
          21 11 3 2 -1.</_>
        <_>
          21 12 3 1 2.</_></rects>
      <tilted>0</tilted></_>
    <_>
      <rects>
        <_>
          22 0 2 1 -1.</_>
        <_>
          23 0 1 1 2.</_></rects>
      <tilted>0</tilted></_>
    <_>
      <rects>
        <_>
          22 10 2 2 -1.</_>
        <_>
          23 10 1 2 2.</_></rects>
      <tilted>0</tilted></_>
    <_>
      <rects>
        <_>
          22 13 2 2 -1.</_>
        <_>
          22 14 2 1 2.</_></rects>
      <tilted>0</tilted></_>
    <_>
      <rects>
        <_>
          22 14 1 2 -1.</_>
        <_>
          22 15 1 1 2.</_></rects>
      <tilted>0</tilted></_>
    <_>
      <rects>
        <_>
          22 18 1 2 -1.</_>
        <_>
          22 19 1 1 2.</_></rects>
      <tilted>0</tilted></_>
    <_>
      <rects>
        <_>
          23 0 1 2 -1.</_>
        <_>
          23 1 1 1 2.</_></rects>
      <tilted>0</tilted></_></features></cascade>
</opencv_storage>
