<?xml version="1.0"?>
<opencv_storage>
<stage6>
  <maxWeakCount>26</maxWeakCount>
  <stageThreshold>-1.7506811618804932e+00</stageThreshold>
  <weakClassifiers>
    <_>
      <internalNodes>
        0 -1 72556 2.3457828909158707e-02</internalNodes>
      <leafValues>
        -8.6564761400222778e-01 -4.0587309002876282e-01</leafValues></_>
    <_>
      <internalNodes>
        0 -1 139235 -4.5717936009168625e-03</internalNodes>
      <leafValues>
        2.2337612509727478e-01 -4.3460786342620850e-01</leafValues></_>
    <_>
      <internalNodes>
        0 -1 26692 -8.5344314575195313e-02</internalNodes>
      <leafValues>
        2.7474001049995422e-01 -4.3615403771400452e-01</leafValues></_>
    <_>
      <internalNodes>
        0 -1 9498 3.3980030566453934e-03</internalNodes>
      <leafValues>
        -3.2260179519653320e-01 2.9348248243331909e-01</leafValues></_>
    <_>
      <internalNodes>
        0 -1 108873 -1.2603853829205036e-02</internalNodes>
      <leafValues>
        1.7746144533157349e-01 -5.8476042747497559e-01</leafValues></_>
    <_>
      <internalNodes>
        0 -1 75062 1.8010277301073074e-02</internalNodes>
      <leafValues>
        -6.6177862882614136e-01 1.3894826173782349e-01</leafValues></_>
    <_>
      <internalNodes>
        0 -1 98014 -6.7694708704948425e-03</internalNodes>
      <leafValues>
        4.7567743062973022e-01 -2.1265350282192230e-01</leafValues></_>
    <_>
      <internalNodes>
        0 -1 22911 -4.2989129724446684e-05</internalNodes>
      <leafValues>
        1.9012705981731415e-01 -5.0495451688766479e-01</leafValues></_>
    <_>
      <internalNodes>
        0 -1 137712 2.5583042297512293e-03</internalNodes>
      <leafValues>
        -3.6043158173561096e-01 2.4363818764686584e-01</leafValues></_>
    <_>
      <internalNodes>
        0 -1 22401 -5.0638914108276367e-03</internalNodes>
      <leafValues>
        2.7996698021888733e-01 -2.8181636333465576e-01</leafValues></_>
    <_>
      <internalNodes>
        0 -1 157680 -5.9330975636839867e-04</internalNodes>
      <leafValues>
        2.3848527669906616e-01 -3.3077543973922729e-01</leafValues></_>
    <_>
      <internalNodes>
        0 -1 17331 1.0724909603595734e-02</internalNodes>
      <leafValues>
        -3.3885008096694946e-01 2.1695400774478912e-01</leafValues></_>
    <_>
      <internalNodes>
        0 -1 161941 4.8305414384230971e-04</internalNodes>
      <leafValues>
        1.0504135489463806e-01 -6.7819106578826904e-01</leafValues></_>
    <_>
      <internalNodes>
        0 -1 106800 8.5662852507084608e-04</internalNodes>
      <leafValues>
        8.4648147225379944e-02 -7.1531653404235840e-01</leafValues></_>
    <_>
      <internalNodes>
        0 -1 113821 4.6628722921013832e-03</internalNodes>
      <leafValues>
        -1.3563357293605804e-01 5.9133166074752808e-01</leafValues></_>
    <_>
      <internalNodes>
        0 -1 114150 4.8771966248750687e-03</internalNodes>
      <leafValues>
        -1.5482600033283234e-01 4.4651675224304199e-01</leafValues></_>
    <_>
      <internalNodes>
        0 -1 24097 1.8612912390381098e-03</internalNodes>
      <leafValues>
        9.6523456275463104e-02 -7.2754472494125366e-01</leafValues></_>
    <_>
      <internalNodes>
        0 -1 123841 -1.5088234795257449e-03</internalNodes>
      <leafValues>
        2.7840301394462585e-01 -2.4238289892673492e-01</leafValues></_>
    <_>
      <internalNodes>
        0 -1 109730 1.9169241189956665e-02</internalNodes>
      <leafValues>
        -1.4607538282871246e-01 5.1949191093444824e-01</leafValues></_>
    <_>
      <internalNodes>
        0 -1 6479 -3.2881587743759155e-01</internalNodes>
      <leafValues>
        6.4707261323928833e-01 -1.1423871666193008e-01</leafValues></_>
    <_>
      <internalNodes>
        0 -1 13632 4.5581655576825142e-03</internalNodes>
      <leafValues>
        -2.6252111792564392e-01 3.3273649215698242e-01</leafValues></_>
    <_>
      <internalNodes>
        0 -1 36675 1.3410681858658791e-02</internalNodes>
      <leafValues>
        -1.7199064791202545e-01 3.9043220877647400e-01</leafValues></_>
    <_>
      <internalNodes>
        0 -1 7304 3.6437259986996651e-03</internalNodes>
      <leafValues>
        -5.7528764009475708e-01 1.2143923342227936e-01</leafValues></_>
    <_>
      <internalNodes>
        0 -1 142816 -1.6907618846744299e-03</internalNodes>
      <leafValues>
        1.3653177022933960e-01 -4.4606351852416992e-01</leafValues></_>
    <_>
      <internalNodes>
        0 -1 118120 9.8940711468458176e-03</internalNodes>
      <leafValues>
        7.4356347322463989e-02 -8.1993800401687622e-01</leafValues></_>
    <_>
      <internalNodes>
        0 -1 106800 -8.5477024549618363e-04</internalNodes>
      <leafValues>
        -8.4290081262588501e-01 6.0990151017904282e-02</leafValues></_></weakClassifiers></stage6>
</opencv_storage>
