<?xml version="1.0"?>
<opencv_storage>
<stage8>
  <maxWeakCount>34</maxWeakCount>
  <stageThreshold>-1.6165602207183838e+00</stageThreshold>
  <weakClassifiers>
    <_>
      <internalNodes>
        0 -1 37268 1.6175504773855209e-02</internalNodes>
      <leafValues>
        -7.2555279731750488e-01 -2.7025613188743591e-01</leafValues></_>
    <_>
      <internalNodes>
        0 -1 109639 1.1356669710949063e-03</internalNodes>
      <leafValues>
        -4.8432931303977966e-01 1.3288176059722900e-01</leafValues></_>
    <_>
      <internalNodes>
        0 -1 71313 -1.9971821457147598e-02</internalNodes>
      <leafValues>
        2.0964667201042175e-01 -4.0456354618072510e-01</leafValues></_>
    <_>
      <internalNodes>
        0 -1 138953 -8.8895950466394424e-03</internalNodes>
      <leafValues>
        3.1503292918205261e-01 -2.6462715864181519e-01</leafValues></_>
    <_>
      <internalNodes>
        0 -1 158 4.4694598764181137e-02</internalNodes>
      <leafValues>
        -1.7900244891643524e-01 4.9244475364685059e-01</leafValues></_>
    <_>
      <internalNodes>
        0 -1 82289 2.8452794067561626e-03</internalNodes>
      <leafValues>
        -3.8534712791442871e-01 1.9613933563232422e-01</leafValues></_>
    <_>
      <internalNodes>
        0 -1 136072 1.9887477159500122e-02</internalNodes>
      <leafValues>
        -5.3238266706466675e-01 1.3912467658519745e-01</leafValues></_>
    <_>
      <internalNodes>
        0 -1 49421 1.2817261740565300e-03</internalNodes>
      <leafValues>
        -2.7668601274490356e-01 2.5928235054016113e-01</leafValues></_>
    <_>
      <internalNodes>
        0 -1 75599 4.8771783709526062e-02</internalNodes>
      <leafValues>
        1.0837618261575699e-01 -7.3946696519851685e-01</leafValues></_>
    <_>
      <internalNodes>
        0 -1 4763 3.7355735898017883e-02</internalNodes>
      <leafValues>
        -5.4484695196151733e-01 1.1497747153043747e-01</leafValues></_>
    <_>
      <internalNodes>
        0 -1 157328 2.8355789836496115e-03</internalNodes>
      <leafValues>
        6.9602593779563904e-02 -7.8496539592742920e-01</leafValues></_>
    <_>
      <internalNodes>
        0 -1 157177 1.5347355511039495e-03</internalNodes>
      <leafValues>
        6.2826357781887054e-02 -7.7995914220809937e-01</leafValues></_>
    <_>
      <internalNodes>
        0 -1 124357 1.3519141823053360e-02</internalNodes>
      <leafValues>
        -2.2197513282299042e-01 2.8902187943458557e-01</leafValues></_>
    <_>
      <internalNodes>
        0 -1 161184 -1.1769580305553973e-04</internalNodes>
      <leafValues>
        2.0686993002891541e-01 -2.9078301787376404e-01</leafValues></_>
    <_>
      <internalNodes>
        0 -1 77845 -1.8633343279361725e-03</internalNodes>
      <leafValues>
        2.2711631655693054e-01 -2.6589608192443848e-01</leafValues></_>
    <_>
      <internalNodes>
        0 -1 121344 -1.1335050221532583e-03</internalNodes>
      <leafValues>
        -7.4102103710174561e-01 8.1664599478244781e-02</leafValues></_>
    <_>
      <internalNodes>
        0 -1 113843 -8.6550060659646988e-03</internalNodes>
      <leafValues>
        5.4055309295654297e-01 -1.2348245829343796e-01</leafValues></_>
    <_>
      <internalNodes>
        0 -1 12321 -3.3274730667471886e-03</internalNodes>
      <leafValues>
        -6.3018018007278442e-01 1.0414978861808777e-01</leafValues></_>
    <_>
      <internalNodes>
        0 -1 99 -2.8180596418678761e-03</internalNodes>
      <leafValues>
        2.0644347369670868e-01 -2.8945177793502808e-01</leafValues></_>
    <_>
      <internalNodes>
        0 -1 155226 1.1894284980371594e-03</internalNodes>
      <leafValues>
        1.2338680028915405e-01 -4.4179946184158325e-01</leafValues></_>
    <_>
      <internalNodes>
        0 -1 36927 7.1135873440653086e-04</internalNodes>
      <leafValues>
        8.2575678825378418e-02 -5.9471279382705688e-01</leafValues></_>
    <_>
      <internalNodes>
        0 -1 98225 -1.0263772681355476e-02</internalNodes>
      <leafValues>
        5.1048314571380615e-01 -1.1246579885482788e-01</leafValues></_>
    <_>
      <internalNodes>
        0 -1 67404 6.9745229557156563e-03</internalNodes>
      <leafValues>
        7.6082192361354828e-02 -7.8964990377426147e-01</leafValues></_>
    <_>
      <internalNodes>
        0 -1 78510 -7.9141467809677124e-02</internalNodes>
      <leafValues>
        -5.9658294916152954e-01 7.8936174511909485e-02</leafValues></_>
    <_>
      <internalNodes>
        0 -1 110753 6.2054055742919445e-03</internalNodes>
      <leafValues>
        5.7885318994522095e-02 -7.9952007532119751e-01</leafValues></_>
    <_>
      <internalNodes>
        0 -1 12793 9.9858403205871582e-02</internalNodes>
      <leafValues>
        4.5824814587831497e-02 -8.3454626798629761e-01</leafValues></_>
    <_>
      <internalNodes>
        0 -1 103267 -1.6254801303148270e-03</internalNodes>
      <leafValues>
        -7.7436274290084839e-01 5.0716206431388855e-02</leafValues></_>
    <_>
      <internalNodes>
        0 -1 110441 -8.2014844520017505e-04</internalNodes>
      <leafValues>
        -6.7205548286437988e-01 6.2341075390577316e-02</leafValues></_>
    <_>
      <internalNodes>
        0 -1 121072 -5.3965849801898003e-03</internalNodes>
      <leafValues>
        6.7479944229125977e-01 -8.4534034132957458e-02</leafValues></_>
    <_>
      <internalNodes>
        0 -1 106531 -7.3636886663734913e-03</internalNodes>
      <leafValues>
        4.2712914943695068e-01 -1.2664707005023956e-01</leafValues></_>
    <_>
      <internalNodes>
        0 -1 151774 -4.7546736896038055e-03</internalNodes>
      <leafValues>
        -6.9784235954284668e-01 8.9102923870086670e-02</leafValues></_>
    <_>
      <internalNodes>
        0 -1 120580 -5.5675236508250237e-03</internalNodes>
      <leafValues>
        -8.8645792007446289e-01 4.4369857758283615e-02</leafValues></_>
    <_>
      <internalNodes>
        0 -1 116054 -3.2006604596972466e-03</internalNodes>
      <leafValues>
        3.8797286152839661e-01 -1.4130778610706329e-01</leafValues></_>
    <_>
      <internalNodes>
        0 -1 115544 3.9167106151580811e-03</internalNodes>
      <leafValues>
        -1.9970528781414032e-01 4.1179120540618896e-01</leafValues></_></weakClassifiers></stage8>
</opencv_storage>
