<?xml version="1.0"?>
<opencv_storage>
<cascade>
  <stageType>BOOST</stageType>
  <featureType>HAAR</featureType>
  <height>24</height>
  <width>24</width>
  <stageParams>
    <boostType>GAB</boostType>
    <minHitRate>9.9500000476837158e-01</minHitRate>
    <maxFalseAlarm>5.0000000000000000e-01</maxFalseAlarm>
    <weightTrimRate>9.4999999999999996e-01</weightTrimRate>
    <maxDepth>1</maxDepth>
    <maxWeakCount>100</maxWeakCount></stageParams>
  <featureParams>
    <maxCatCount>0</maxCatCount>
    <featSize>1</featSize>
    <mode>BASIC</mode></featureParams>
  <stageNum>14</stageNum>
  <stages>
    <!-- stage 0 -->
    <_>
      <maxWeakCount>4</maxWeakCount>
      <stageThreshold>-1.9468603134155273e+00</stageThreshold>
      <weakClassifiers>
        <_>
          <internalNodes>
            0 -1 36 9.8638251423835754e-02</internalNodes>
          <leafValues>
            -9.4141894578933716e-01 3.7788289785385132e-01</leafValues></_>
        <_>
          <internalNodes>
            0 -1 126 -7.9595036804676056e-03</internalNodes>
          <leafValues>
            5.2068662643432617e-01 -8.2095456123352051e-01</leafValues></_>
        <_>
          <internalNodes>
            0 -1 64 -3.3385682851076126e-02</internalNodes>
          <leafValues>
            4.8782888054847717e-01 -7.6698285341262817e-01</leafValues></_>
        <_>
          <internalNodes>
            0 -1 60 -2.3754652589559555e-02</internalNodes>
          <leafValues>
            5.8249598741531372e-01 -5.7460963726043701e-01</leafValues></_></weakClassifiers></_>
    <!-- stage 1 -->
    <_>
      <maxWeakCount>5</maxWeakCount>
      <stageThreshold>-1.7077609300613403e+00</stageThreshold>
      <weakClassifiers>
        <_>
          <internalNodes>
            0 -1 46 7.3065727949142456e-02</internalNodes>
          <leafValues>
            -9.2048794031143188e-01 2.0021356642246246e-01</leafValues></_>
        <_>
          <internalNodes>
            0 -1 80 1.2392958626151085e-02</internalNodes>
          <leafValues>
            -7.8369861841201782e-01 4.0172037482261658e-01</leafValues></_>
        <_>
          <internalNodes>
            0 -1 65 -4.4764861464500427e-02</internalNodes>
          <leafValues>
            5.0790005922317505e-01 -7.4655783176422119e-01</leafValues></_>
        <_>
          <internalNodes>
            0 -1 152 4.5618419535458088e-03</internalNodes>
          <leafValues>
            -7.8229641914367676e-01 4.0857619047164917e-01</leafValues></_>
        <_>
          <internalNodes>
            0 -1 15 -2.5051499251276255e-03</internalNodes>
          <leafValues>
            3.3986085653305054e-01 -8.8202357292175293e-01</leafValues></_></weakClassifiers></_>
    <!-- stage 2 -->
    <_>
      <maxWeakCount>4</maxWeakCount>
      <stageThreshold>-1.8269400596618652e+00</stageThreshold>
      <weakClassifiers>
        <_>
          <internalNodes>
            0 -1 55 3.1626291573047638e-02</internalNodes>
          <leafValues>
            -8.9046096801757813e-01 1.0531803965568542e-01</leafValues></_>
        <_>
          <internalNodes>
            0 -1 122 -1.0304131545126438e-02</internalNodes>
          <leafValues>
            4.6485385298728943e-01 -7.4557459354400635e-01</leafValues></_>
        <_>
          <internalNodes>
            0 -1 46 3.6564372479915619e-02</internalNodes>
          <leafValues>
            -9.1009926795959473e-01 3.0279758572578430e-01</leafValues></_>
        <_>
          <internalNodes>
            0 -1 91 1.0814057663083076e-02</internalNodes>
          <leafValues>
            -4.9123373627662659e-01 5.1341420412063599e-01</leafValues></_></weakClassifiers></_>
    <!-- stage 3 -->
    <_>
      <maxWeakCount>8</maxWeakCount>
      <stageThreshold>-1.9180279970169067e+00</stageThreshold>
      <weakClassifiers>
        <_>
          <internalNodes>
            0 -1 67 2.8920203447341919e-02</internalNodes>
          <leafValues>
            -8.8223892450332642e-01 -2.7151403948664665e-02</leafValues></_>
        <_>
          <internalNodes>
            0 -1 50 -7.4104651808738708e-02</internalNodes>
          <leafValues>
            3.8546183705329895e-01 -6.9266206026077271e-01</leafValues></_>
        <_>
          <internalNodes>
            0 -1 41 1.4458672143518925e-02</internalNodes>
          <leafValues>
            -4.3444988131523132e-01 5.6275743246078491e-01</leafValues></_>
        <_>
          <internalNodes>
            0 -1 47 5.9094708412885666e-02</internalNodes>
          <leafValues>
            -7.2457474470138550e-01 2.7481079101562500e-01</leafValues></_>
        <_>
          <internalNodes>
            0 -1 120 -1.4201221987605095e-02</internalNodes>
          <leafValues>
            3.9463344216346741e-01 -6.7415547370910645e-01</leafValues></_>
        <_>
          <internalNodes>
            0 -1 18 -9.0098269283771515e-03</internalNodes>
          <leafValues>
            2.5291132926940918e-01 -6.6522181034088135e-01</leafValues></_>
        <_>
          <internalNodes>
            0 -1 3 1.2292154133319855e-03</internalNodes>
          <leafValues>
            -4.6991765499114990e-01 3.9091950654983521e-01</leafValues></_>
        <_>
          <internalNodes>
            0 -1 160 -4.0014270693063736e-02</internalNodes>
          <leafValues>
            7.6578122377395630e-01 -2.1681709587574005e-01</leafValues></_></weakClassifiers></_>
    <!-- stage 4 -->
    <_>
      <maxWeakCount>7</maxWeakCount>
      <stageThreshold>-1.6932786703109741e+00</stageThreshold>
      <weakClassifiers>
        <_>
          <internalNodes>
            0 -1 10 1.9643088802695274e-02</internalNodes>
          <leafValues>
            -8.1930094957351685e-01 1.5419759787619114e-02</leafValues></_>
        <_>
          <internalNodes>
            0 -1 79 2.1350197494029999e-02</internalNodes>
          <leafValues>
            -7.1947747468948364e-01 2.4662292003631592e-01</leafValues></_>
        <_>
          <internalNodes>
            0 -1 28 5.4997991770505905e-02</internalNodes>
          <leafValues>
            -7.5659304857254028e-01 2.8937116265296936e-01</leafValues></_>
        <_>
          <internalNodes>
            0 -1 63 -1.4120837673544884e-02</internalNodes>
          <leafValues>
            3.2207933068275452e-01 -6.3926035165786743e-01</leafValues></_>
        <_>
          <internalNodes>
            0 -1 131 -1.7829062417149544e-02</internalNodes>
          <leafValues>
            5.8630025386810303e-01 -3.6565080285072327e-01</leafValues></_>
        <_>
          <internalNodes>
            0 -1 148 -9.6968058496713638e-03</internalNodes>
          <leafValues>
            2.8867858648300171e-01 -6.5077453851699829e-01</leafValues></_>
        <_>
          <internalNodes>
            0 -1 4 2.9649222269654274e-03</internalNodes>
          <leafValues>
            -4.6244350075721741e-01 3.6637434363365173e-01</leafValues></_></weakClassifiers></_>
    <!-- stage 5 -->
    <_>
      <maxWeakCount>10</maxWeakCount>
      <stageThreshold>-2.2947371006011963e+00</stageThreshold>
      <weakClassifiers>
        <_>
          <internalNodes>
            0 -1 93 7.5593087822198868e-03</internalNodes>
          <leafValues>
            -8.2625210285186768e-01 -1.0493531078100204e-01</leafValues></_>
        <_>
          <internalNodes>
            0 -1 145 1.0218126699328423e-02</internalNodes>
          <leafValues>
            -6.1361926794052124e-01 2.3904590308666229e-01</leafValues></_>
        <_>
          <internalNodes>
            0 -1 52 3.0541874468326569e-02</internalNodes>
          <leafValues>
            -6.8200653791427612e-01 2.7950668334960938e-01</leafValues></_>
        <_>
          <internalNodes>
            0 -1 125 -6.4826500602066517e-03</internalNodes>
          <leafValues>
            3.3544272184371948e-01 -5.4937142133712769e-01</leafValues></_>
        <_>
          <internalNodes>
            0 -1 25 5.4242974147200584e-03</internalNodes>
          <leafValues>
            -3.6960494518280029e-01 4.8695310950279236e-01</leafValues></_>
        <_>
          <internalNodes>
            0 -1 130 2.6740610599517822e-02</internalNodes>
          <leafValues>
            -6.8319910764694214e-01 2.6729753613471985e-01</leafValues></_>
        <_>
          <internalNodes>
            0 -1 78 5.3658943623304367e-02</internalNodes>
          <leafValues>
            2.4690228700637817e-01 -6.5060627460479736e-01</leafValues></_>
        <_>
          <internalNodes>
            0 -1 143 -5.2677178755402565e-03</internalNodes>
          <leafValues>
            4.2062503099441528e-01 -3.5487261414527893e-01</leafValues></_>
        <_>
          <internalNodes>
            0 -1 6 -6.7779477685689926e-03</internalNodes>
          <leafValues>
            2.4343244731426239e-01 -4.9812337756156921e-01</leafValues></_>
        <_>
          <internalNodes>
            0 -1 48 9.9791046231985092e-03</internalNodes>
          <leafValues>
            -7.4892926216125488e-01 1.6824334859848022e-01</leafValues></_></weakClassifiers></_>
    <!-- stage 6 -->
    <_>
      <maxWeakCount>11</maxWeakCount>
      <stageThreshold>-1.8060065507888794e+00</stageThreshold>
      <weakClassifiers>
        <_>
          <internalNodes>
            0 -1 123 -1.8669353798031807e-02</internalNodes>
          <leafValues>
            -1.5109890699386597e-01 -8.1875610351562500e-01</leafValues></_>
        <_>
          <internalNodes>
            0 -1 16 1.9990621134638786e-02</internalNodes>
          <leafValues>
            -4.6588075160980225e-01 4.0494361519813538e-01</leafValues></_>
        <_>
          <internalNodes>
            0 -1 54 -3.2060187309980392e-02</internalNodes>
          <leafValues>
            3.1441253423690796e-01 -4.8918217420578003e-01</leafValues></_>
        <_>
          <internalNodes>
            0 -1 66 -2.9339961707592010e-02</internalNodes>
          <leafValues>
            3.1903713941574097e-01 -5.3059935569763184e-01</leafValues></_>
        <_>
          <internalNodes>
            0 -1 71 1.9421117380261421e-02</internalNodes>
          <leafValues>
            -6.6318726539611816e-01 2.3690648376941681e-01</leafValues></_>
        <_>
          <internalNodes>
            0 -1 154 -1.1012046597898006e-02</internalNodes>
          <leafValues>
            4.4169318675994873e-01 -3.1620585918426514e-01</leafValues></_>
        <_>
          <internalNodes>
            0 -1 39 -7.4378000572323799e-03</internalNodes>
          <leafValues>
            2.2069048881530762e-01 -6.7731988430023193e-01</leafValues></_>
        <_>
          <internalNodes>
            0 -1 98 1.2134686112403870e-03</internalNodes>
          <leafValues>
            -3.1869283318519592e-01 3.9832779765129089e-01</leafValues></_>
        <_>
          <internalNodes>
            0 -1 53 1.2505542486906052e-02</internalNodes>
          <leafValues>
            -5.0754618644714355e-01 2.4495026469230652e-01</leafValues></_>
        <_>
          <internalNodes>
            0 -1 83 -1.1525209248065948e-01</internalNodes>
          <leafValues>
            -8.7904840707778931e-01 1.1245628446340561e-01</leafValues></_>
        <_>
          <internalNodes>
            0 -1 116 -6.1989128589630127e-03</internalNodes>
          <leafValues>
            5.8157145977020264e-01 -2.1288460493087769e-01</leafValues></_></weakClassifiers></_>
    <!-- stage 7 -->
    <_>
      <maxWeakCount>14</maxWeakCount>
      <stageThreshold>-2.0783739089965820e+00</stageThreshold>
      <weakClassifiers>
        <_>
          <internalNodes>
            0 -1 159 -9.9862366914749146e-04</internalNodes>
          <leafValues>
            -2.6407283544540405e-01 -7.8836250305175781e-01</leafValues></_>
        <_>
          <internalNodes>
            0 -1 121 -3.2101962715387344e-02</internalNodes>
          <leafValues>
            1.6212020814418793e-01 -5.9873193502426147e-01</leafValues></_>
        <_>
          <internalNodes>
            0 -1 84 -1.1658601462841034e-02</internalNodes>
          <leafValues>
            2.1340391039848328e-01 -6.8353378772735596e-01</leafValues></_>
        <_>
          <internalNodes>
            0 -1 41 1.3622704893350601e-02</internalNodes>
          <leafValues>
            -3.4778794646263123e-01 4.2281222343444824e-01</leafValues></_>
        <_>
          <internalNodes>
            0 -1 29 5.2460983395576477e-02</internalNodes>
          <leafValues>
            -7.3001158237457275e-01 2.0286931097507477e-01</leafValues></_>
        <_>
          <internalNodes>
            0 -1 85 9.1680642217397690e-03</internalNodes>
          <leafValues>
            -4.5330297946929932e-01 2.7337893843650818e-01</leafValues></_>
        <_>
          <internalNodes>
            0 -1 146 -1.0263179428875446e-02</internalNodes>
          <leafValues>
            2.0030936598777771e-01 -6.6083681583404541e-01</leafValues></_>
        <_>
          <internalNodes>
            0 -1 1 7.2282360633835196e-04</internalNodes>
          <leafValues>
            -3.9634919166564941e-01 3.0499115586280823e-01</leafValues></_>
        <_>
          <internalNodes>
            0 -1 20 -7.9487683251500130e-05</internalNodes>
          <leafValues>
            2.0940254628658295e-01 -5.1872777938842773e-01</leafValues></_>
        <_>
          <internalNodes>
            0 -1 128 1.8634859472513199e-02</internalNodes>
          <leafValues>
            -2.7133032679557800e-01 3.6192119121551514e-01</leafValues></_>
        <_>
          <internalNodes>
            0 -1 161 -1.7667628824710846e-02</internalNodes>
          <leafValues>
            4.1745716333389282e-01 -2.5939783453941345e-01</leafValues></_>
        <_>
          <internalNodes>
            0 -1 40 -5.1747113466262817e-03</internalNodes>
          <leafValues>
            4.5588093996047974e-01 -2.0814602077007294e-01</leafValues></_>
        <_>
          <internalNodes>
            0 -1 157 1.6027151141315699e-03</internalNodes>
          <leafValues>
            1.1631248891353607e-01 -7.9699343442916870e-01</leafValues></_>
        <_>
          <internalNodes>
            0 -1 5 -1.6036128625273705e-02</internalNodes>
          <leafValues>
            2.8241115808486938e-01 -3.2106092572212219e-01</leafValues></_></weakClassifiers></_>
    <!-- stage 8 -->
    <_>
      <maxWeakCount>16</maxWeakCount>
      <stageThreshold>-1.9525759220123291e+00</stageThreshold>
      <weakClassifiers>
        <_>
          <internalNodes>
            0 -1 142 -1.1854615993797779e-02</internalNodes>
          <leafValues>
            -2.0222446322441101e-01 -7.6353538036346436e-01</leafValues></_>
        <_>
          <internalNodes>
            0 -1 134 -2.7791842818260193e-02</internalNodes>
          <leafValues>
            1.3896016776561737e-01 -6.1859357357025146e-01</leafValues></_>
        <_>
          <internalNodes>
            0 -1 56 -2.5151753798127174e-03</internalNodes>
          <leafValues>
            2.8801271319389343e-01 -4.1343170404434204e-01</leafValues></_>
        <_>
          <internalNodes>
            0 -1 59 2.4387918412685394e-02</internalNodes>
          <leafValues>
            -5.0267058610916138e-01 2.7347937226295471e-01</leafValues></_>
        <_>
          <internalNodes>
            0 -1 69 9.0842589735984802e-02</internalNodes>
          <leafValues>
            -6.4858084917068481e-01 1.6510550677776337e-01</leafValues></_>
        <_>
          <internalNodes>
            0 -1 24 1.1883653700351715e-02</internalNodes>
          <leafValues>
            -3.0716174840927124e-01 3.7672108411788940e-01</leafValues></_>
        <_>
          <internalNodes>
            0 -1 110 1.1331036221235991e-03</internalNodes>
          <leafValues>
            -3.4581848978996277e-01 2.8793528676033020e-01</leafValues></_>
        <_>
          <internalNodes>
            0 -1 137 -4.5833270996809006e-03</internalNodes>
          <leafValues>
            2.7818575501441956e-01 -3.2508432865142822e-01</leafValues></_>
        <_>
          <internalNodes>
            0 -1 72 4.0331352502107620e-02</internalNodes>
          <leafValues>
            1.3400183618068695e-01 -6.7274266481399536e-01</leafValues></_>
        <_>
          <internalNodes>
            0 -1 87 -1.3373143738135695e-03</internalNodes>
          <leafValues>
            -7.2685968875885010e-01 1.1212344467639923e-01</leafValues></_>
        <_>
          <internalNodes>
            0 -1 62 6.7160292528569698e-03</internalNodes>
          <leafValues>
            -2.7940341830253601e-01 3.4430640935897827e-01</leafValues></_>
        <_>
          <internalNodes>
            0 -1 105 8.6836656555533409e-04</internalNodes>
          <leafValues>
            1.1128555238246918e-01 -7.4876135587692261e-01</leafValues></_>
        <_>
          <internalNodes>
            0 -1 153 -1.2305371463298798e-02</internalNodes>
          <leafValues>
            2.4999202787876129e-01 -3.2182943820953369e-01</leafValues></_>
        <_>
          <internalNodes>
            0 -1 11 -3.3200633525848389e-01</internalNodes>
          <leafValues>
            6.4817577600479126e-01 -1.2494979053735733e-01</leafValues></_>
        <_>
          <internalNodes>
            0 -1 111 -1.2532810866832733e-01</internalNodes>
          <leafValues>
            1.5286296606063843e-01 -5.9905511140823364e-01</leafValues></_>
        <_>
          <internalNodes>
            0 -1 163 1.6708077164366841e-03</internalNodes>
          <leafValues>
            8.7370269000530243e-02 -8.0691879987716675e-01</leafValues></_></weakClassifiers></_>
    <!-- stage 9 -->
    <_>
      <maxWeakCount>17</maxWeakCount>
      <stageThreshold>-1.9034090042114258e+00</stageThreshold>
      <weakClassifiers>
        <_>
          <internalNodes>
            0 -1 10 1.9069366157054901e-02</internalNodes>
          <leafValues>
            -7.9072338342666626e-01 -3.1217327713966370e-01</leafValues></_>
        <_>
          <internalNodes>
            0 -1 126 -8.1662070006132126e-03</internalNodes>
          <leafValues>
            1.0838278383016586e-01 -6.1175256967544556e-01</leafValues></_>
        <_>
          <internalNodes>
            0 -1 90 -4.8859710805118084e-03</internalNodes>
          <leafValues>
            1.8660038709640503e-01 -6.0430073738098145e-01</leafValues></_>
        <_>
          <internalNodes>
            0 -1 147 -6.3673043623566628e-03</internalNodes>
          <leafValues>
            3.5573610663414001e-01 -3.0729648470878601e-01</leafValues></_>
        <_>
          <internalNodes>
            0 -1 38 3.7178829312324524e-02</internalNodes>
          <leafValues>
            -5.0116008520126343e-01 2.1046888828277588e-01</leafValues></_>
        <_>
          <internalNodes>
            0 -1 3 9.9854520522058010e-04</internalNodes>
          <leafValues>
            -4.1632175445556641e-01 2.2144398093223572e-01</leafValues></_>
        <_>
          <internalNodes>
            0 -1 99 3.0550123192369938e-03</internalNodes>
          <leafValues>
            -2.3086795210838318e-01 3.9372611045837402e-01</leafValues></_>
        <_>
          <internalNodes>
            0 -1 19 -6.0360800474882126e-02</internalNodes>
          <leafValues>
            1.8966498970985413e-01 -4.9201121926307678e-01</leafValues></_>
        <_>
          <internalNodes>
            0 -1 70 1.0316375643014908e-02</internalNodes>
          <leafValues>
            -4.1966700553894043e-01 2.2981129586696625e-01</leafValues></_>
        <_>
          <internalNodes>
            0 -1 165 -2.3451891320291907e-04</internalNodes>
          <leafValues>
            2.2325073182582855e-01 -3.4799891710281372e-01</leafValues></_>
        <_>
          <internalNodes>
            0 -1 89 8.0626970157027245e-03</internalNodes>
          <leafValues>
            -1.5337301790714264e-01 5.3812992572784424e-01</leafValues></_>
        <_>
          <internalNodes>
            0 -1 9 -2.5128901004791260e-01</internalNodes>
          <leafValues>
            -6.8514776229858398e-01 1.2568354606628418e-01</leafValues></_>
        <_>
          <internalNodes>
            0 -1 96 -1.7265423666685820e-03</internalNodes>
          <leafValues>
            -7.5784683227539063e-01 8.5531041026115417e-02</leafValues></_>
        <_>
          <internalNodes>
            0 -1 82 5.4795066826045513e-03</internalNodes>
          <leafValues>
            -2.2026163339614868e-01 3.8853210210800171e-01</leafValues></_>
        <_>
          <internalNodes>
            0 -1 32 2.7435980737209320e-03</internalNodes>
          <leafValues>
            1.1547660827636719e-01 -6.8430572748184204e-01</leafValues></_>
        <_>
          <internalNodes>
            0 -1 49 -1.4306704979389906e-03</internalNodes>
          <leafValues>
            -8.3662509918212891e-01 7.0100858807563782e-02</leafValues></_>
        <_>
          <internalNodes>
            0 -1 151 5.6470599956810474e-03</internalNodes>
          <leafValues>
            -3.5303714871406555e-01 1.9163775444030762e-01</leafValues></_></weakClassifiers></_>
    <!-- stage 10 -->
    <_>
      <maxWeakCount>21</maxWeakCount>
      <stageThreshold>-1.9569379091262817e+00</stageThreshold>
      <weakClassifiers>
        <_>
          <internalNodes>
            0 -1 57 9.7979027777910233e-03</internalNodes>
          <leafValues>
            -7.4104046821594238e-01 -2.5063291192054749e-01</leafValues></_>
        <_>
          <internalNodes>
            0 -1 127 -2.4240505881607533e-03</internalNodes>
          <leafValues>
            2.3364944756031036e-01 -4.1751131415367126e-01</leafValues></_>
        <_>
          <internalNodes>
            0 -1 10 1.3664655387401581e-02</internalNodes>
          <leafValues>
            -4.2197585105895996e-01 2.3239144682884216e-01</leafValues></_>
        <_>
          <internalNodes>
            0 -1 129 3.1391505151987076e-02</internalNodes>
          <leafValues>
            -3.1789526343345642e-01 3.0561396479606628e-01</leafValues></_>
        <_>
          <internalNodes>
            0 -1 27 -8.4122098982334137e-02</internalNodes>
          <leafValues>
            3.2814341783523560e-01 -3.5319921374320984e-01</leafValues></_>
        <_>
          <internalNodes>
            0 -1 143 -4.6039978042244911e-03</internalNodes>
          <leafValues>
            2.8483885526657104e-01 -2.9864040017127991e-01</leafValues></_>
        <_>
          <internalNodes>
            0 -1 114 -6.0013365000486374e-03</internalNodes>
          <leafValues>
            4.8435845971107483e-01 -1.7470706999301910e-01</leafValues></_>
        <_>
          <internalNodes>
            0 -1 21 1.7462627729400992e-03</internalNodes>
          <leafValues>
            1.1202614009380341e-01 -8.3228528499603271e-01</leafValues></_>
        <_>
          <internalNodes>
            0 -1 7 -2.0339313894510269e-02</internalNodes>
          <leafValues>
            -7.3392868041992188e-01 8.5224755108356476e-02</leafValues></_>
        <_>
          <internalNodes>
            0 -1 159 -3.4071848494932055e-04</internalNodes>
          <leafValues>
            2.0067673921585083e-01 -3.9497435092926025e-01</leafValues></_>
        <_>
          <internalNodes>
            0 -1 12 3.2995590567588806e-01</internalNodes>
          <leafValues>
            -1.3663156330585480e-01 6.6302520036697388e-01</leafValues></_>
        <_>
          <internalNodes>
            0 -1 133 -4.5338580384850502e-03</internalNodes>
          <leafValues>
            2.1853150427341461e-01 -3.9617303013801575e-01</leafValues></_>
        <_>
          <internalNodes>
            0 -1 140 -1.3207988813519478e-03</internalNodes>
          <leafValues>
            1.7350234091281891e-01 -4.1145297884941101e-01</leafValues></_>
        <_>
          <internalNodes>
            0 -1 102 -8.4863658994436264e-03</internalNodes>
          <leafValues>
            5.5151718854904175e-01 -1.3078606128692627e-01</leafValues></_>
        <_>
          <internalNodes>
            0 -1 166 -1.2859833659604192e-03</internalNodes>
          <leafValues>
            -7.6219129562377930e-01 9.4021618366241455e-02</leafValues></_>
        <_>
          <internalNodes>
            0 -1 118 -4.7459602355957031e-03</internalNodes>
          <leafValues>
            5.2904617786407471e-01 -1.3877707719802856e-01</leafValues></_>
        <_>
          <internalNodes>
            0 -1 149 2.3929583840072155e-03</internalNodes>
          <leafValues>
            9.1491155326366425e-02 -8.4978121519088745e-01</leafValues></_>
        <_>
          <internalNodes>
            0 -1 2 -1.1464406270533800e-03</internalNodes>
          <leafValues>
            -5.7335603237152100e-01 9.4460569322109222e-02</leafValues></_>
        <_>
          <internalNodes>
            0 -1 13 4.8798453062772751e-03</internalNodes>
          <leafValues>
            -4.1775491833686829e-01 1.4669379591941833e-01</leafValues></_>
        <_>
          <internalNodes>
            0 -1 22 2.9896816704422235e-03</internalNodes>
          <leafValues>
            7.9567030072212219e-02 -7.6522397994995117e-01</leafValues></_>
        <_>
          <internalNodes>
            0 -1 117 -5.3959740325808525e-03</internalNodes>
          <leafValues>
            4.7070792317390442e-01 -1.4625366032123566e-01</leafValues></_></weakClassifiers></_>
    <!-- stage 11 -->
    <_>
      <maxWeakCount>20</maxWeakCount>
      <stageThreshold>-1.8670067787170410e+00</stageThreshold>
      <weakClassifiers>
        <_>
          <internalNodes>
            0 -1 139 4.5323814265429974e-03</internalNodes>
          <leafValues>
            -7.6981955766677856e-01 -3.3459499478340149e-01</leafValues></_>
        <_>
          <internalNodes>
            0 -1 92 1.2053636834025383e-02</internalNodes>
          <leafValues>
            -4.7232884168624878e-01 1.6499829292297363e-01</leafValues></_>
        <_>
          <internalNodes>
            0 -1 107 -1.2055682018399239e-03</internalNodes>
          <leafValues>
            2.0351675152778625e-01 -4.8346945643424988e-01</leafValues></_>
        <_>
          <internalNodes>
            0 -1 23 2.4974070489406586e-02</internalNodes>
          <leafValues>
            -2.4613364040851593e-01 3.8590282201766968e-01</leafValues></_>
        <_>
          <internalNodes>
            0 -1 4 2.9071259777992964e-03</internalNodes>
          <leafValues>
            -3.3540070056915283e-01 2.6504006981849670e-01</leafValues></_>
        <_>
          <internalNodes>
            0 -1 109 -1.9310958683490753e-02</internalNodes>
          <leafValues>
            1.9616347551345825e-01 -4.8949772119522095e-01</leafValues></_>
        <_>
          <internalNodes>
            0 -1 45 3.5285063087940216e-02</internalNodes>
          <leafValues>
            -6.3098675012588501e-01 1.3658222556114197e-01</leafValues></_>
        <_>
          <internalNodes>
            0 -1 100 1.4161751605570316e-03</internalNodes>
          <leafValues>
            -2.3746362328529358e-01 3.2195395231246948e-01</leafValues></_>
        <_>
          <internalNodes>
            0 -1 161 -3.4617826342582703e-02</internalNodes>
          <leafValues>
            5.0641739368438721e-01 -1.5093198418617249e-01</leafValues></_>
        <_>
          <internalNodes>
            0 -1 135 -1.9321404397487640e-02</internalNodes>
          <leafValues>
            1.3011831045150757e-01 -5.7253271341323853e-01</leafValues></_>
        <_>
          <internalNodes>
            0 -1 155 1.7325836233794689e-03</internalNodes>
          <leafValues>
            1.0912653058767319e-01 -5.6149029731750488e-01</leafValues></_>
        <_>
          <internalNodes>
            0 -1 108 3.8993076886981726e-03</internalNodes>
          <leafValues>
            6.5407052636146545e-02 -8.5419988632202148e-01</leafValues></_>
        <_>
          <internalNodes>
            0 -1 30 5.0032918807119131e-04</internalNodes>
          <leafValues>
            8.0696046352386475e-02 -6.5308731794357300e-01</leafValues></_>
        <_>
          <internalNodes>
            0 -1 104 6.3514695502817631e-03</internalNodes>
          <leafValues>
            -1.6626492142677307e-01 4.2201015353202820e-01</leafValues></_>
        <_>
          <internalNodes>
            0 -1 77 3.9052711799740791e-03</internalNodes>
          <leafValues>
            -4.3109205365180969e-01 1.7083081603050232e-01</leafValues></_>
        <_>
          <internalNodes>
            0 -1 164 -1.2167930981377140e-04</internalNodes>
          <leafValues>
            2.2178085148334503e-01 -3.2533973455429077e-01</leafValues></_>
        <_>
          <internalNodes>
            0 -1 115 4.1265627369284630e-03</internalNodes>
          <leafValues>
            -1.2181910127401352e-01 5.5089133977890015e-01</leafValues></_>
        <_>
          <internalNodes>
            0 -1 97 9.3045842368155718e-04</internalNodes>
          <leafValues>
            -2.1769724786281586e-01 2.9480248689651489e-01</leafValues></_>
        <_>
          <internalNodes>
            0 -1 138 1.2078546918928623e-02</internalNodes>
          <leafValues>
            -3.3430144190788269e-01 1.9758191704750061e-01</leafValues></_>
        <_>
          <internalNodes>
            0 -1 156 1.9709458574652672e-03</internalNodes>
          <leafValues>
            8.3558335900306702e-02 -7.1939641237258911e-01</leafValues></_></weakClassifiers></_>
    <!-- stage 12 -->
    <_>
      <maxWeakCount>21</maxWeakCount>
      <stageThreshold>-1.8393435478210449e+00</stageThreshold>
      <weakClassifiers>
        <_>
          <internalNodes>
            0 -1 95 2.1658804267644882e-02</internalNodes>
          <leafValues>
            -7.0104384422302246e-01 -2.2649006545543671e-01</leafValues></_>
        <_>
          <internalNodes>
            0 -1 144 3.3142864704132080e-03</internalNodes>
          <leafValues>
            -3.9574107527732849e-01 1.8981622159481049e-01</leafValues></_>
        <_>
          <internalNodes>
            0 -1 58 -3.0159080401062965e-02</internalNodes>
          <leafValues>
            2.2091262042522430e-01 -3.7562203407287598e-01</leafValues></_>
        <_>
          <internalNodes>
            0 -1 35 1.0967830196022987e-02</internalNodes>
          <leafValues>
            -2.4887922406196594e-01 3.3520823717117310e-01</leafValues></_>
        <_>
          <internalNodes>
            0 -1 88 -4.1337683796882629e-02</internalNodes>
          <leafValues>
            1.6206738352775574e-01 -6.5631270408630371e-01</leafValues></_>
        <_>
          <internalNodes>
            0 -1 109 -9.2256711795926094e-03</internalNodes>
          <leafValues>
            9.4095297157764435e-02 -5.9423536062240601e-01</leafValues></_>
        <_>
          <internalNodes>
            0 -1 112 -1.8552191322669387e-03</internalNodes>
          <leafValues>
            -8.9837658405303955e-01 9.0451613068580627e-02</leafValues></_>
        <_>
          <internalNodes>
            0 -1 31 1.1377716436982155e-03</internalNodes>
          <leafValues>
            -3.4350585937500000e-01 2.0040892064571381e-01</leafValues></_>
        <_>
          <internalNodes>
            0 -1 33 3.2407062826678157e-04</internalNodes>
          <leafValues>
            1.1921603232622147e-01 -6.5051692724227905e-01</leafValues></_>
        <_>
          <internalNodes>
            0 -1 34 3.8891955045983195e-04</internalNodes>
          <leafValues>
            1.0526721924543381e-01 -5.8958548307418823e-01</leafValues></_>
        <_>
          <internalNodes>
            0 -1 61 -5.7807262986898422e-02</internalNodes>
          <leafValues>
            3.5015082359313965e-01 -2.1548517048358917e-01</leafValues></_>
        <_>
          <internalNodes>
            0 -1 113 -2.6820860803127289e-03</internalNodes>
          <leafValues>
            -6.2691569328308105e-01 1.1853072792291641e-01</leafValues></_>
        <_>
          <internalNodes>
            0 -1 86 9.0139303356409073e-03</internalNodes>
          <leafValues>
            -3.3787623047828674e-01 2.0793798565864563e-01</leafValues></_>
        <_>
          <internalNodes>
            0 -1 94 4.7989562153816223e-02</internalNodes>
          <leafValues>
            1.1161952465772629e-01 -5.8735293149948120e-01</leafValues></_>
        <_>
          <internalNodes>
            0 -1 150 -4.1407980461372063e-05</internalNodes>
          <leafValues>
            1.9051523506641388e-01 -3.3984437584877014e-01</leafValues></_>
        <_>
          <internalNodes>
            0 -1 101 -6.1384737491607666e-03</internalNodes>
          <leafValues>
            4.9006968736648560e-01 -1.4550672471523285e-01</leafValues></_>
        <_>
          <internalNodes>
            0 -1 0 5.6477880571037531e-04</internalNodes>
          <leafValues>
            -2.4133424460887909e-01 2.6051428914070129e-01</leafValues></_>
        <_>
          <internalNodes>
            0 -1 105 -6.8821717286482453e-04</internalNodes>
          <leafValues>
            -7.3388236761093140e-01 9.1359615325927734e-02</leafValues></_>
        <_>
          <internalNodes>
            0 -1 37 -3.2954484224319458e-01</internalNodes>
          <leafValues>
            5.6750470399856567e-01 -1.2080525606870651e-01</leafValues></_>
        <_>
          <internalNodes>
            0 -1 124 3.2188356854021549e-03</internalNodes>
          <leafValues>
            -1.7129318416118622e-01 3.9253160357475281e-01</leafValues></_>
        <_>
          <internalNodes>
            0 -1 8 -1.5607005357742310e-01</internalNodes>
          <leafValues>
            -8.4588748216629028e-01 8.2046858966350555e-02</leafValues></_></weakClassifiers></_>
    <!-- stage 13 -->
    <_>
      <maxWeakCount>23</maxWeakCount>
      <stageThreshold>-1.8766258955001831e+00</stageThreshold>
      <weakClassifiers>
        <_>
          <internalNodes>
            0 -1 43 -1.1498096585273743e-01</internalNodes>
          <leafValues>
            -3.4214743971824646e-01 -7.4815982580184937e-01</leafValues></_>
        <_>
          <internalNodes>
            0 -1 142 -5.5241025984287262e-03</internalNodes>
          <leafValues>
            1.2312097102403641e-01 -4.4904059171676636e-01</leafValues></_>
        <_>
          <internalNodes>
            0 -1 17 5.1447248551994562e-04</internalNodes>
          <leafValues>
            -3.5205277800559998e-01 2.4134515225887299e-01</leafValues></_>
        <_>
          <internalNodes>
            0 -1 68 1.8819622695446014e-02</internalNodes>
          <leafValues>
            -4.8578244447708130e-01 2.1280336380004883e-01</leafValues></_>
        <_>
          <internalNodes>
            0 -1 132 -3.0093907844275236e-04</internalNodes>
          <leafValues>
            1.4576818048954010e-01 -4.8324349522590637e-01</leafValues></_>
        <_>
          <internalNodes>
            0 -1 73 -1.5750401653349400e-03</internalNodes>
          <leafValues>
            2.6056894659996033e-01 -2.6974093914031982e-01</leafValues></_>
        <_>
          <internalNodes>
            0 -1 106 2.8031165711581707e-03</internalNodes>
          <leafValues>
            8.3093546330928802e-02 -8.8126814365386963e-01</leafValues></_>
        <_>
          <internalNodes>
            0 -1 136 7.7561358921229839e-04</internalNodes>
          <leafValues>
            -2.4231053888797760e-01 2.8118860721588135e-01</leafValues></_>
        <_>
          <internalNodes>
            0 -1 141 5.6487680412828922e-03</internalNodes>
          <leafValues>
            1.1116898059844971e-01 -7.2494596242904663e-01</leafValues></_>
        <_>
          <internalNodes>
            0 -1 167 5.1384139806032181e-04</internalNodes>
          <leafValues>
            8.7842099368572235e-02 -6.4969855546951294e-01</leafValues></_>
        <_>
          <internalNodes>
            0 -1 75 9.5805954188108444e-03</internalNodes>
          <leafValues>
            -1.3972437381744385e-01 4.5381790399551392e-01</leafValues></_>
        <_>
          <internalNodes>
            0 -1 103 -8.1046288833022118e-03</internalNodes>
          <leafValues>
            5.8516138792037964e-01 -1.0997473448514938e-01</leafValues></_>
        <_>
          <internalNodes>
            0 -1 26 -3.4145668614655733e-03</internalNodes>
          <leafValues>
            -6.3768887519836426e-01 1.0893546044826508e-01</leafValues></_>
        <_>
          <internalNodes>
            0 -1 158 -3.5145781002938747e-03</internalNodes>
          <leafValues>
            -6.5176886320114136e-01 7.9467646777629852e-02</leafValues></_>
        <_>
          <internalNodes>
            0 -1 74 8.7218303233385086e-03</internalNodes>
          <leafValues>
            1.0552352666854858e-01 -5.1666915416717529e-01</leafValues></_>
        <_>
          <internalNodes>
            0 -1 162 -7.6173874549567699e-04</internalNodes>
          <leafValues>
            1.8850438296794891e-01 -2.9813343286514282e-01</leafValues></_>
        <_>
          <internalNodes>
            0 -1 14 2.5342497974634171e-03</internalNodes>
          <leafValues>
            -5.4184108972549438e-01 1.0154859721660614e-01</leafValues></_>
        <_>
          <internalNodes>
            0 -1 44 5.1297694444656372e-03</internalNodes>
          <leafValues>
            -1.4424307644367218e-01 4.5887067914009094e-01</leafValues></_>
        <_>
          <internalNodes>
            0 -1 81 -1.9223700463771820e-01</internalNodes>
          <leafValues>
            -9.6425670385360718e-01 6.3188061118125916e-02</leafValues></_>
        <_>
          <internalNodes>
            0 -1 42 1.9893203862011433e-03</internalNodes>
          <leafValues>
            -2.3998217284679413e-01 2.4150466918945313e-01</leafValues></_>
        <_>
          <internalNodes>
            0 -1 51 -5.1245838403701782e-02</internalNodes>
          <leafValues>
            1.3543157279491425e-01 -4.0887290239334106e-01</leafValues></_>
        <_>
          <internalNodes>
            0 -1 119 -1.9018329679965973e-02</internalNodes>
          <leafValues>
            -5.6899154186248779e-01 1.0518410801887512e-01</leafValues></_>
        <_>
          <internalNodes>
            0 -1 76 -1.3195684878155589e-03</internalNodes>
          <leafValues>
            -6.4313340187072754e-01 8.7422959506511688e-02</leafValues></_></weakClassifiers></_></stages>
  <features>
    <_>
      <rects>
        <_>
          0 0 2 2 -1.</_>
        <_>
          1 0 1 2 2.</_></rects>
      <tilted>0</tilted></_>
    <_>
      <rects>
        <_>
          0 0 4 1 -1.</_>
        <_>
          2 0 2 1 2.</_></rects>
      <tilted>0</tilted></_>
    <_>
      <rects>
        <_>
          0 0 2 2 -1.</_>
        <_>
          0 1 2 1 2.</_></rects>
      <tilted>0</tilted></_>
    <_>
      <rects>
        <_>
          0 0 6 1 -1.</_>
        <_>
          3 0 3 1 2.</_></rects>
      <tilted>0</tilted></_>
    <_>
      <rects>
        <_>
          0 0 8 1 -1.</_>
        <_>
          4 0 4 1 2.</_></rects>
      <tilted>0</tilted></_>
    <_>
      <rects>
        <_>
          0 0 8 6 -1.</_>
        <_>
          0 0 4 3 2.</_>
        <_>
          4 3 4 3 2.</_></rects>
      <tilted>0</tilted></_>
    <_>
      <rects>
        <_>
          0 0 10 6 -1.</_>
        <_>
          0 0 5 3 2.</_>
        <_>
          5 3 5 3 2.</_></rects>
      <tilted>0</tilted></_>
    <_>
      <rects>
        <_>
          0 0 20 16 -1.</_>
        <_>
          0 8 20 8 2.</_></rects>
      <tilted>0</tilted></_>
    <_>
      <rects>
        <_>
          0 2 24 16 -1.</_>
        <_>
          0 2 12 8 2.</_>
        <_>
          12 10 12 8 2.</_></rects>
      <tilted>0</tilted></_>
    <_>
      <rects>
        <_>
          0 3 24 3 -1.</_>
        <_>
          8 3 8 3 2.</_></rects>
      <tilted>0</tilted></_>
    <_>
      <rects>
        <_>
          0 4 6 10 -1.</_>
        <_>
          0 4 3 5 2.</_>
        <_>
          3 9 3 5 2.</_></rects>
      <tilted>0</tilted></_>
    <_>
      <rects>
        <_>
          0 4 24 20 -1.</_>
        <_>
          12 4 12 20 2.</_></rects>
      <tilted>0</tilted></_>
    <_>
      <rects>
        <_>
          0 5 24 19 -1.</_>
        <_>
          12 5 12 19 2.</_></rects>
      <tilted>0</tilted></_>
    <_>
      <rects>
        <_>
          0 6 16 2 -1.</_>
        <_>
          0 7 16 1 2.</_></rects>
      <tilted>0</tilted></_>
    <_>
      <rects>
        <_>
          0 7 16 2 -1.</_>
        <_>
          0 8 16 1 2.</_></rects>
      <tilted>0</tilted></_>
    <_>
      <rects>
        <_>
          0 7 21 14 -1.</_>
        <_>
          0 14 21 7 2.</_></rects>
      <tilted>0</tilted></_>
    <_>
      <rects>
        <_>
          0 8 4 16 -1.</_>
        <_>
          2 8 2 16 2.</_></rects>
      <tilted>0</tilted></_>
    <_>
      <rects>
        <_>
          0 9 2 3 -1.</_>
        <_>
          1 9 1 3 2.</_></rects>
      <tilted>0</tilted></_>
    <_>
      <rects>
        <_>
          0 9 24 6 -1.</_>
        <_>
          0 12 24 3 2.</_></rects>
      <tilted>0</tilted></_>
    <_>
      <rects>
        <_>
          0 10 21 12 -1.</_>
        <_>
          0 16 21 6 2.</_></rects>
      <tilted>0</tilted></_>
    <_>
      <rects>
        <_>
          0 12 7 2 -1.</_>
        <_>
          0 13 7 1 2.</_></rects>
      <tilted>0</tilted></_>
    <_>
      <rects>
        <_>
          0 13 5 2 -1.</_>
        <_>
          0 14 5 1 2.</_></rects>
      <tilted>0</tilted></_>
    <_>
      <rects>
        <_>
          0 15 6 2 -1.</_>
        <_>
          0 16 6 1 2.</_></rects>
      <tilted>0</tilted></_>
    <_>
      <rects>
        <_>
          0 18 14 6 -1.</_>
        <_>
          0 18 7 3 2.</_>
        <_>
          7 21 7 3 2.</_></rects>
      <tilted>0</tilted></_>
    <_>
      <rects>
        <_>
          0 20 8 4 -1.</_>
        <_>
          4 20 4 4 2.</_></rects>
      <tilted>0</tilted></_>
    <_>
      <rects>
        <_>
          0 23 10 1 -1.</_>
        <_>
          5 23 5 1 2.</_></rects>
      <tilted>0</tilted></_>
    <_>
      <rects>
        <_>
          1 0 1 4 -1.</_>
        <_>
          1 2 1 2 2.</_></rects>
      <tilted>0</tilted></_>
    <_>
      <rects>
        <_>
          1 0 18 6 -1.</_>
        <_>
          1 3 18 3 2.</_></rects>
      <tilted>0</tilted></_>
    <_>
      <rects>
        <_>
          1 4 22 6 -1.</_>
        <_>
          1 7 22 3 2.</_></rects>
      <tilted>0</tilted></_>
    <_>
      <rects>
        <_>
          1 5 19 6 -1.</_>
        <_>
          1 8 19 3 2.</_></rects>
      <tilted>0</tilted></_>
    <_>
      <rects>
        <_>
          1 11 1 2 -1.</_>
        <_>
          1 12 1 1 2.</_></rects>
      <tilted>0</tilted></_>
    <_>
      <rects>
        <_>
          1 11 4 2 -1.</_>
        <_>
          3 11 2 2 2.</_></rects>
      <tilted>0</tilted></_>
    <_>
      <rects>
        <_>
          1 11 7 4 -1.</_>
        <_>
          1 13 7 2 2.</_></rects>
      <tilted>0</tilted></_>
    <_>
      <rects>
        <_>
          1 12 1 2 -1.</_>
        <_>
          1 13 1 1 2.</_></rects>
      <tilted>0</tilted></_>
    <_>
      <rects>
        <_>
          1 14 1 2 -1.</_>
        <_>
          1 15 1 1 2.</_></rects>
      <tilted>0</tilted></_>
    <_>
      <rects>
        <_>
          1 17 8 6 -1.</_>
        <_>
          1 17 4 3 2.</_>
        <_>
          5 20 4 3 2.</_></rects>
      <tilted>0</tilted></_>
    <_>
      <rects>
        <_>
          2 4 19 8 -1.</_>
        <_>
          2 8 19 4 2.</_></rects>
      <tilted>0</tilted></_>
    <_>
      <rects>
        <_>
          2 6 22 18 -1.</_>
        <_>
          13 6 11 18 2.</_></rects>
      <tilted>0</tilted></_>
    <_>
      <rects>
        <_>
          2 6 22 4 -1.</_>
        <_>
          2 8 22 2 2.</_></rects>
      <tilted>0</tilted></_>
    <_>
      <rects>
        <_>
          2 10 10 10 -1.</_>
        <_>
          2 15 10 5 2.</_></rects>
      <tilted>0</tilted></_>
    <_>
      <rects>
        <_>
          2 12 14 2 -1.</_>
        <_>
          2 12 7 1 2.</_>
        <_>
          9 13 7 1 2.</_></rects>
      <tilted>0</tilted></_>
    <_>
      <rects>
        <_>
          2 18 10 6 -1.</_>
        <_>
          2 18 5 3 2.</_>
        <_>
          7 21 5 3 2.</_></rects>
      <tilted>0</tilted></_>
    <_>
      <rects>
        <_>
          2 22 14 2 -1.</_>
        <_>
          2 22 7 1 2.</_>
        <_>
          9 23 7 1 2.</_></rects>
      <tilted>0</tilted></_>
    <_>
      <rects>
        <_>
          3 0 19 6 -1.</_>
        <_>
          3 3 19 3 2.</_></rects>
      <tilted>0</tilted></_>
    <_>
      <rects>
        <_>
          3 5 4 2 -1.</_>
        <_>
          3 6 4 1 2.</_></rects>
      <tilted>0</tilted></_>
    <_>
      <rects>
        <_>
          3 5 13 8 -1.</_>
        <_>
          3 9 13 4 2.</_></rects>
      <tilted>0</tilted></_>
    <_>
      <rects>
        <_>
          3 5 19 6 -1.</_>
        <_>
          3 8 19 3 2.</_></rects>
      <tilted>0</tilted></_>
    <_>
      <rects>
        <_>
          3 5 19 8 -1.</_>
        <_>
          3 9 19 4 2.</_></rects>
      <tilted>0</tilted></_>
    <_>
      <rects>
        <_>
          3 7 19 4 -1.</_>
        <_>
          3 9 19 2 2.</_></rects>
      <tilted>0</tilted></_>
    <_>
      <rects>
        <_>
          3 13 1 2 -1.</_>
        <_>
          3 14 1 1 2.</_></rects>
      <tilted>0</tilted></_>
    <_>
      <rects>
        <_>
          4 0 15 6 -1.</_>
        <_>
          4 3 15 3 2.</_></rects>
      <tilted>0</tilted></_>
    <_>
      <rects>
        <_>
          4 0 17 8 -1.</_>
        <_>
          4 4 17 4 2.</_></rects>
      <tilted>0</tilted></_>
    <_>
      <rects>
        <_>
          4 3 4 10 -1.</_>
        <_>
          4 8 4 5 2.</_></rects>
      <tilted>0</tilted></_>
    <_>
      <rects>
        <_>
          4 3 10 4 -1.</_>
        <_>
          9 3 5 4 2.</_></rects>
      <tilted>0</tilted></_>
    <_>
      <rects>
        <_>
          4 3 10 14 -1.</_>
        <_>
          4 3 5 7 2.</_>
        <_>
          9 10 5 7 2.</_></rects>
      <tilted>0</tilted></_>
    <_>
      <rects>
        <_>
          4 4 4 8 -1.</_>
        <_>
          4 8 4 4 2.</_></rects>
      <tilted>0</tilted></_>
    <_>
      <rects>
        <_>
          4 11 6 3 -1.</_>
        <_>
          7 11 3 3 2.</_></rects>
      <tilted>0</tilted></_>
    <_>
      <rects>
        <_>
          4 18 6 6 -1.</_>
        <_>
          4 18 3 3 2.</_>
        <_>
          7 21 3 3 2.</_></rects>
      <tilted>0</tilted></_>
    <_>
      <rects>
        <_>
          5 0 12 4 -1.</_>
        <_>
          5 2 12 2 2.</_></rects>
      <tilted>0</tilted></_>
    <_>
      <rects>
        <_>
          5 1 8 8 -1.</_>
        <_>
          9 1 4 8 2.</_></rects>
      <tilted>0</tilted></_>
    <_>
      <rects>
        <_>
          5 2 8 14 -1.</_>
        <_>
          5 2 4 7 2.</_>
        <_>
          9 9 4 7 2.</_></rects>
      <tilted>0</tilted></_>
    <_>
      <rects>
        <_>
          5 4 8 18 -1.</_>
        <_>
          5 4 4 9 2.</_>
        <_>
          9 13 4 9 2.</_></rects>
      <tilted>0</tilted></_>
    <_>
      <rects>
        <_>
          5 14 10 4 -1.</_>
        <_>
          5 14 5 2 2.</_>
        <_>
          10 16 5 2 2.</_></rects>
      <tilted>0</tilted></_>
    <_>
      <rects>
        <_>
          6 0 12 4 -1.</_>
        <_>
          6 2 12 2 2.</_></rects>
      <tilted>0</tilted></_>
    <_>
      <rects>
        <_>
          6 0 12 6 -1.</_>
        <_>
          6 3 12 3 2.</_></rects>
      <tilted>0</tilted></_>
    <_>
      <rects>
        <_>
          6 0 14 6 -1.</_>
        <_>
          6 3 14 3 2.</_></rects>
      <tilted>0</tilted></_>
    <_>
      <rects>
        <_>
          6 0 15 4 -1.</_>
        <_>
          6 2 15 2 2.</_></rects>
      <tilted>0</tilted></_>
    <_>
      <rects>
        <_>
          6 2 8 6 -1.</_>
        <_>
          10 2 4 6 2.</_></rects>
      <tilted>0</tilted></_>
    <_>
      <rects>
        <_>
          6 3 8 5 -1.</_>
        <_>
          10 3 4 5 2.</_></rects>
      <tilted>0</tilted></_>
    <_>
      <rects>
        <_>
          6 3 18 10 -1.</_>
        <_>
          6 8 18 5 2.</_></rects>
      <tilted>0</tilted></_>
    <_>
      <rects>
        <_>
          6 4 8 2 -1.</_>
        <_>
          10 4 4 2 2.</_></rects>
      <tilted>0</tilted></_>
    <_>
      <rects>
        <_>
          6 5 18 4 -1.</_>
        <_>
          6 7 18 2 2.</_></rects>
      <tilted>0</tilted></_>
    <_>
      <rects>
        <_>
          6 6 11 10 -1.</_>
        <_>
          6 11 11 5 2.</_></rects>
      <tilted>0</tilted></_>
    <_>
      <rects>
        <_>
          6 10 4 3 -1.</_>
        <_>
          8 10 2 3 2.</_></rects>
      <tilted>0</tilted></_>
    <_>
      <rects>
        <_>
          6 10 6 14 -1.</_>
        <_>
          6 17 6 7 2.</_></rects>
      <tilted>0</tilted></_>
    <_>
      <rects>
        <_>
          6 18 11 2 -1.</_>
        <_>
          6 19 11 1 2.</_></rects>
      <tilted>0</tilted></_>
    <_>
      <rects>
        <_>
          7 0 2 4 -1.</_>
        <_>
          8 0 1 4 2.</_></rects>
      <tilted>0</tilted></_>
    <_>
      <rects>
        <_>
          7 0 4 7 -1.</_>
        <_>
          9 0 2 7 2.</_></rects>
      <tilted>0</tilted></_>
    <_>
      <rects>
        <_>
          7 0 10 20 -1.</_>
        <_>
          7 10 10 10 2.</_></rects>
      <tilted>0</tilted></_>
    <_>
      <rects>
        <_>
          7 1 6 8 -1.</_>
        <_>
          10 1 3 8 2.</_></rects>
      <tilted>0</tilted></_>
    <_>
      <rects>
        <_>
          7 3 6 4 -1.</_>
        <_>
          10 3 3 4 2.</_></rects>
      <tilted>0</tilted></_>
    <_>
      <rects>
        <_>
          7 12 9 4 -1.</_>
        <_>
          10 12 3 4 2.</_></rects>
      <tilted>0</tilted></_>
    <_>
      <rects>
        <_>
          7 15 6 4 -1.</_>
        <_>
          7 15 3 2 2.</_>
        <_>
          10 17 3 2 2.</_></rects>
      <tilted>0</tilted></_>
    <_>
      <rects>
        <_>
          7 17 9 3 -1.</_>
        <_>
          10 17 3 3 2.</_></rects>
      <tilted>0</tilted></_>
    <_>
      <rects>
        <_>
          8 0 6 6 -1.</_>
        <_>
          8 3 6 3 2.</_></rects>
      <tilted>0</tilted></_>
    <_>
      <rects>
        <_>
          8 3 4 5 -1.</_>
        <_>
          10 3 2 5 2.</_></rects>
      <tilted>0</tilted></_>
    <_>
      <rects>
        <_>
          8 6 16 2 -1.</_>
        <_>
          8 7 16 1 2.</_></rects>
      <tilted>0</tilted></_>
    <_>
      <rects>
        <_>
          8 8 5 2 -1.</_>
        <_>
          8 9 5 1 2.</_></rects>
      <tilted>0</tilted></_>
    <_>
      <rects>
        <_>
          8 14 9 3 -1.</_>
        <_>
          11 14 3 3 2.</_></rects>
      <tilted>0</tilted></_>
    <_>
      <rects>
        <_>
          8 18 9 2 -1.</_>
        <_>
          8 19 9 1 2.</_></rects>
      <tilted>0</tilted></_>
    <_>
      <rects>
        <_>
          9 1 5 4 -1.</_>
        <_>
          9 3 5 2 2.</_></rects>
      <tilted>0</tilted></_>
    <_>
      <rects>
        <_>
          9 2 4 6 -1.</_>
        <_>
          11 2 2 6 2.</_></rects>
      <tilted>0</tilted></_>
    <_>
      <rects>
        <_>
          9 3 4 5 -1.</_>
        <_>
          11 3 2 5 2.</_></rects>
      <tilted>0</tilted></_>
    <_>
      <rects>
        <_>
          9 4 4 3 -1.</_>
        <_>
          11 4 2 3 2.</_></rects>
      <tilted>0</tilted></_>
    <_>
      <rects>
        <_>
          9 4 7 12 -1.</_>
        <_>
          9 10 7 6 2.</_></rects>
      <tilted>0</tilted></_>
    <_>
      <rects>
        <_>
          9 5 4 9 -1.</_>
        <_>
          11 5 2 9 2.</_></rects>
      <tilted>0</tilted></_>
    <_>
      <rects>
        <_>
          9 6 5 2 -1.</_>
        <_>
          9 7 5 1 2.</_></rects>
      <tilted>0</tilted></_>
    <_>
      <rects>
        <_>
          9 14 4 2 -1.</_>
        <_>
          9 15 4 1 2.</_></rects>
      <tilted>0</tilted></_>
    <_>
      <rects>
        <_>
          9 14 5 2 -1.</_>
        <_>
          9 15 5 1 2.</_></rects>
      <tilted>0</tilted></_>
    <_>
      <rects>
        <_>
          9 14 7 2 -1.</_>
        <_>
          9 15 7 1 2.</_></rects>
      <tilted>0</tilted></_>
    <_>
      <rects>
        <_>
          9 15 5 2 -1.</_>
        <_>
          9 16 5 1 2.</_></rects>
      <tilted>0</tilted></_>
    <_>
      <rects>
        <_>
          9 17 5 2 -1.</_>
        <_>
          9 18 5 1 2.</_></rects>
      <tilted>0</tilted></_>
    <_>
      <rects>
        <_>
          9 17 6 2 -1.</_>
        <_>
          9 18 6 1 2.</_></rects>
      <tilted>0</tilted></_>
    <_>
      <rects>
        <_>
          9 18 6 2 -1.</_>
        <_>
          9 19 6 1 2.</_></rects>
      <tilted>0</tilted></_>
    <_>
      <rects>
        <_>
          9 19 7 2 -1.</_>
        <_>
          9 20 7 1 2.</_></rects>
      <tilted>0</tilted></_>
    <_>
      <rects>
        <_>
          10 0 2 1 -1.</_>
        <_>
          11 0 1 1 2.</_></rects>
      <tilted>0</tilted></_>
    <_>
      <rects>
        <_>
          10 0 4 1 -1.</_>
        <_>
          12 0 2 1 2.</_></rects>
      <tilted>0</tilted></_>
    <_>
      <rects>
        <_>
          10 1 5 2 -1.</_>
        <_>
          10 2 5 1 2.</_></rects>
      <tilted>0</tilted></_>
    <_>
      <rects>
        <_>
          10 3 5 2 -1.</_>
        <_>
          10 4 5 1 2.</_></rects>
      <tilted>0</tilted></_>
    <_>
      <rects>
        <_>
          10 3 10 4 -1.</_>
        <_>
          15 3 5 4 2.</_></rects>
      <tilted>0</tilted></_>
    <_>
      <rects>
        <_>
          10 5 2 2 -1.</_>
        <_>
          11 5 1 2 2.</_></rects>
      <tilted>0</tilted></_>
    <_>
      <rects>
        <_>
          10 7 12 5 -1.</_>
        <_>
          14 7 4 5 2.</_></rects>
      <tilted>0</tilted></_>
    <_>
      <rects>
        <_>
          10 7 6 2 -1.</_>
        <_>
          10 8 6 1 2.</_></rects>
      <tilted>0</tilted></_>
    <_>
      <rects>
        <_>
          10 9 6 2 -1.</_>
        <_>
          10 10 6 1 2.</_></rects>
      <tilted>0</tilted></_>
    <_>
      <rects>
        <_>
          10 12 4 2 -1.</_>
        <_>
          10 13 4 1 2.</_></rects>
      <tilted>0</tilted></_>
    <_>
      <rects>
        <_>
          10 17 4 2 -1.</_>
        <_>
          10 18 4 1 2.</_></rects>
      <tilted>0</tilted></_>
    <_>
      <rects>
        <_>
          10 17 6 2 -1.</_>
        <_>
          10 18 6 1 2.</_></rects>
      <tilted>0</tilted></_>
    <_>
      <rects>
        <_>
          10 18 6 2 -1.</_>
        <_>
          10 19 6 1 2.</_></rects>
      <tilted>0</tilted></_>
    <_>
      <rects>
        <_>
          10 19 5 2 -1.</_>
        <_>
          10 20 5 1 2.</_></rects>
      <tilted>0</tilted></_>
    <_>
      <rects>
        <_>
          11 0 2 8 -1.</_>
        <_>
          11 4 2 4 2.</_></rects>
      <tilted>0</tilted></_>
    <_>
      <rects>
        <_>
          11 0 8 7 -1.</_>
        <_>
          15 0 4 7 2.</_></rects>
      <tilted>0</tilted></_>
    <_>
      <rects>
        <_>
          11 1 8 7 -1.</_>
        <_>
          15 1 4 7 2.</_></rects>
      <tilted>0</tilted></_>
    <_>
      <rects>
        <_>
          11 4 6 3 -1.</_>
        <_>
          14 4 3 3 2.</_></rects>
      <tilted>0</tilted></_>
    <_>
      <rects>
        <_>
          11 4 6 4 -1.</_>
        <_>
          14 4 3 4 2.</_></rects>
      <tilted>0</tilted></_>
    <_>
      <rects>
        <_>
          11 5 2 6 -1.</_>
        <_>
          12 5 1 6 2.</_></rects>
      <tilted>0</tilted></_>
    <_>
      <rects>
        <_>
          12 1 4 6 -1.</_>
        <_>
          14 1 2 6 2.</_></rects>
      <tilted>0</tilted></_>
    <_>
      <rects>
        <_>
          12 2 4 5 -1.</_>
        <_>
          14 2 2 5 2.</_></rects>
      <tilted>0</tilted></_>
    <_>
      <rects>
        <_>
          12 4 2 3 -1.</_>
        <_>
          13 4 1 3 2.</_></rects>
      <tilted>0</tilted></_>
    <_>
      <rects>
        <_>
          12 4 4 18 -1.</_>
        <_>
          12 4 2 9 2.</_>
        <_>
          14 13 2 9 2.</_></rects>
      <tilted>0</tilted></_>
    <_>
      <rects>
        <_>
          12 4 8 12 -1.</_>
        <_>
          12 4 4 6 2.</_>
        <_>
          16 10 4 6 2.</_></rects>
      <tilted>0</tilted></_>
    <_>
      <rects>
        <_>
          12 5 10 6 -1.</_>
        <_>
          12 8 10 3 2.</_></rects>
      <tilted>0</tilted></_>
    <_>
      <rects>
        <_>
          12 18 12 6 -1.</_>
        <_>
          12 18 6 3 2.</_>
        <_>
          18 21 6 3 2.</_></rects>
      <tilted>0</tilted></_>
    <_>
      <rects>
        <_>
          13 0 1 4 -1.</_>
        <_>
          13 2 1 2 2.</_></rects>
      <tilted>0</tilted></_>
    <_>
      <rects>
        <_>
          13 0 4 6 -1.</_>
        <_>
          15 0 2 6 2.</_></rects>
      <tilted>0</tilted></_>
    <_>
      <rects>
        <_>
          13 0 7 6 -1.</_>
        <_>
          13 3 7 3 2.</_></rects>
      <tilted>0</tilted></_>
    <_>
      <rects>
        <_>
          13 8 10 12 -1.</_>
        <_>
          13 14 10 6 2.</_></rects>
      <tilted>0</tilted></_>
    <_>
      <rects>
        <_>
          13 14 2 2 -1.</_>
        <_>
          13 15 2 1 2.</_></rects>
      <tilted>0</tilted></_>
    <_>
      <rects>
        <_>
          14 0 10 1 -1.</_>
        <_>
          19 0 5 1 2.</_></rects>
      <tilted>0</tilted></_>
    <_>
      <rects>
        <_>
          14 0 10 6 -1.</_>
        <_>
          14 0 5 3 2.</_>
        <_>
          19 3 5 3 2.</_></rects>
      <tilted>0</tilted></_>
    <_>
      <rects>
        <_>
          14 10 6 4 -1.</_>
        <_>
          17 10 3 4 2.</_></rects>
      <tilted>0</tilted></_>
    <_>
      <rects>
        <_>
          14 10 10 4 -1.</_>
        <_>
          14 12 10 2 2.</_></rects>
      <tilted>0</tilted></_>
    <_>
      <rects>
        <_>
          14 11 6 8 -1.</_>
        <_>
          14 15 6 4 2.</_></rects>
      <tilted>0</tilted></_>
    <_>
      <rects>
        <_>
          14 18 8 6 -1.</_>
        <_>
          14 18 4 3 2.</_>
        <_>
          18 21 4 3 2.</_></rects>
      <tilted>0</tilted></_>
    <_>
      <rects>
        <_>
          14 23 10 1 -1.</_>
        <_>
          19 23 5 1 2.</_></rects>
      <tilted>0</tilted></_>
    <_>
      <rects>
        <_>
          15 10 4 4 -1.</_>
        <_>
          17 10 2 4 2.</_></rects>
      <tilted>0</tilted></_>
    <_>
      <rects>
        <_>
          16 0 8 6 -1.</_>
        <_>
          16 0 4 3 2.</_>
        <_>
          20 3 4 3 2.</_></rects>
      <tilted>0</tilted></_>
    <_>
      <rects>
        <_>
          16 10 7 12 -1.</_>
        <_>
          16 16 7 6 2.</_></rects>
      <tilted>0</tilted></_>
    <_>
      <rects>
        <_>
          16 18 6 6 -1.</_>
        <_>
          16 18 3 3 2.</_>
        <_>
          19 21 3 3 2.</_></rects>
      <tilted>0</tilted></_>
    <_>
      <rects>
        <_>
          17 10 6 10 -1.</_>
        <_>
          17 15 6 5 2.</_></rects>
      <tilted>0</tilted></_>
    <_>
      <rects>
        <_>
          17 12 6 2 -1.</_>
        <_>
          17 13 6 1 2.</_></rects>
      <tilted>0</tilted></_>
    <_>
      <rects>
        <_>
          17 22 7 2 -1.</_>
        <_>
          17 23 7 1 2.</_></rects>
      <tilted>0</tilted></_>
    <_>
      <rects>
        <_>
          18 0 6 6 -1.</_>
        <_>
          18 0 3 3 2.</_>
        <_>
          21 3 3 3 2.</_></rects>
      <tilted>0</tilted></_>
    <_>
      <rects>
        <_>
          18 3 1 10 -1.</_>
        <_>
          18 8 1 5 2.</_></rects>
      <tilted>0</tilted></_>
    <_>
      <rects>
        <_>
          18 4 6 10 -1.</_>
        <_>
          18 4 3 5 2.</_>
        <_>
          21 9 3 5 2.</_></rects>
      <tilted>0</tilted></_>
    <_>
      <rects>
        <_>
          18 19 6 5 -1.</_>
        <_>
          21 19 3 5 2.</_></rects>
      <tilted>0</tilted></_>
    <_>
      <rects>
        <_>
          18 21 5 2 -1.</_>
        <_>
          18 22 5 1 2.</_></rects>
      <tilted>0</tilted></_>
    <_>
      <rects>
        <_>
          19 12 4 2 -1.</_>
        <_>
          19 12 2 1 2.</_>
        <_>
          21 13 2 1 2.</_></rects>
      <tilted>0</tilted></_>
    <_>
      <rects>
        <_>
          19 13 5 2 -1.</_>
        <_>
          19 14 5 1 2.</_></rects>
      <tilted>0</tilted></_>
    <_>
      <rects>
        <_>
          19 18 5 2 -1.</_>
        <_>
          19 19 5 1 2.</_></rects>
      <tilted>0</tilted></_>
    <_>
      <rects>
        <_>
          20 0 4 1 -1.</_>
        <_>
          22 0 2 1 2.</_></rects>
      <tilted>0</tilted></_>
    <_>
      <rects>
        <_>
          20 0 4 23 -1.</_>
        <_>
          22 0 2 23 2.</_></rects>
      <tilted>0</tilted></_>
    <_>
      <rects>
        <_>
          20 9 4 15 -1.</_>
        <_>
          22 9 2 15 2.</_></rects>
      <tilted>0</tilted></_>
    <_>
      <rects>
        <_>
          20 11 4 1 -1.</_>
        <_>
          22 11 2 1 2.</_></rects>
      <tilted>0</tilted></_>
    <_>
      <rects>
        <_>
          20 14 4 2 -1.</_>
        <_>
          20 15 4 1 2.</_></rects>
      <tilted>0</tilted></_>
    <_>
      <rects>
        <_>
          22 0 2 1 -1.</_>
        <_>
          23 0 1 1 2.</_></rects>
      <tilted>0</tilted></_>
    <_>
      <rects>
        <_>
          22 11 2 2 -1.</_>
        <_>
          23 11 1 2 2.</_></rects>
      <tilted>0</tilted></_>
    <_>
      <rects>
        <_>
          22 12 1 2 -1.</_>
        <_>
          22 13 1 1 2.</_></rects>
      <tilted>0</tilted></_>
    <_>
      <rects>
        <_>
          22 18 1 2 -1.</_>
        <_>
          22 19 1 1 2.</_></rects>
      <tilted>0</tilted></_></features></cascade>
</opencv_storage>
