<?xml version="1.0"?>
<opencv_storage>
<stage5>
  <maxWeakCount>10</maxWeakCount>
  <stageThreshold>-2.2947371006011963e+00</stageThreshold>
  <weakClassifiers>
    <_>
      <internalNodes>
        0 -1 101211 7.5593087822198868e-03</internalNodes>
      <leafValues>
        -8.2625210285186768e-01 -1.0493531078100204e-01</leafValues></_>
    <_>
      <internalNodes>
        0 -1 144263 1.0218126699328423e-02</internalNodes>
      <leafValues>
        -6.1361926794052124e-01 2.3904590308666229e-01</leafValues></_>
    <_>
      <internalNodes>
        0 -1 52268 3.0541874468326569e-02</internalNodes>
      <leafValues>
        -6.8200653791427612e-01 2.7950668334960938e-01</leafValues></_>
    <_>
      <internalNodes>
        0 -1 121996 -6.4826500602066517e-03</internalNodes>
      <leafValues>
        3.3544272184371948e-01 -5.4937142133712769e-01</leafValues></_>
    <_>
      <internalNodes>
        0 -1 13380 5.4242974147200584e-03</internalNodes>
      <leafValues>
        -3.6960494518280029e-01 4.8695310950279236e-01</leafValues></_>
    <_>
      <internalNodes>
        0 -1 124219 2.6740610599517822e-02</internalNodes>
      <leafValues>
        -6.8319910764694214e-01 2.6729753613471985e-01</leafValues></_>
    <_>
      <internalNodes>
        0 -1 81365 5.3658943623304367e-02</internalNodes>
      <leafValues>
        2.4690228700637817e-01 -6.5060627460479736e-01</leafValues></_>
    <_>
      <internalNodes>
        0 -1 139235 -5.2677178755402565e-03</internalNodes>
      <leafValues>
        4.2062503099441528e-01 -3.5487261414527893e-01</leafValues></_>
    <_>
      <internalNodes>
        0 -1 334 -6.7779477685689926e-03</internalNodes>
      <leafValues>
        2.4343244731426239e-01 -4.9812337756156921e-01</leafValues></_>
    <_>
      <internalNodes>
        0 -1 44303 9.9791046231985092e-03</internalNodes>
      <leafValues>
        -7.4892926216125488e-01 1.6824334859848022e-01</leafValues></_></weakClassifiers></stage5>
</opencv_storage>
