<?xml version="1.0"?>
<opencv_storage>
<stage10>
  <maxWeakCount>21</maxWeakCount>
  <stageThreshold>-1.9569379091262817e+00</stageThreshold>
  <weakClassifiers>
    <_>
      <internalNodes>
        0 -1 59783 9.7979027777910233e-03</internalNodes>
      <leafValues>
        -7.4104046821594238e-01 -2.5063291192054749e-01</leafValues></_>
    <_>
      <internalNodes>
        0 -1 123394 -2.4240505881607533e-03</internalNodes>
      <leafValues>
        2.3364944756031036e-01 -4.1751131415367126e-01</leafValues></_>
    <_>
      <internalNodes>
        0 -1 4236 1.3664655387401581e-02</internalNodes>
      <leafValues>
        -4.2197585105895996e-01 2.3239144682884216e-01</leafValues></_>
    <_>
      <internalNodes>
        0 -1 123611 3.1391505151987076e-02</internalNodes>
      <leafValues>
        -3.1789526343345642e-01 3.0561396479606628e-01</leafValues></_>
    <_>
      <internalNodes>
        0 -1 14300 -8.4122098982334137e-02</internalNodes>
      <leafValues>
        3.2814341783523560e-01 -3.5319921374320984e-01</leafValues></_>
    <_>
      <internalNodes>
        0 -1 139235 -4.6039978042244911e-03</internalNodes>
      <leafValues>
        2.8483885526657104e-01 -2.9864040017127991e-01</leafValues></_>
    <_>
      <internalNodes>
        0 -1 112611 -6.0013365000486374e-03</internalNodes>
      <leafValues>
        4.8435845971107483e-01 -1.7470706999301910e-01</leafValues></_>
    <_>
      <internalNodes>
        0 -1 10701 1.7462627729400992e-03</internalNodes>
      <leafValues>
        1.1202614009380341e-01 -8.3228528499603271e-01</leafValues></_>
    <_>
      <internalNodes>
        0 -1 1018 -2.0339313894510269e-02</internalNodes>
      <leafValues>
        -7.3392868041992188e-01 8.5224755108356476e-02</leafValues></_>
    <_>
      <internalNodes>
        0 -1 157680 -3.4071848494932055e-04</internalNodes>
      <leafValues>
        2.0067673921585083e-01 -3.9497435092926025e-01</leafValues></_>
    <_>
      <internalNodes>
        0 -1 5651 3.2995590567588806e-01</internalNodes>
      <leafValues>
        -1.3663156330585480e-01 6.6302520036697388e-01</leafValues></_>
    <_>
      <internalNodes>
        0 -1 128145 -4.5338580384850502e-03</internalNodes>
      <leafValues>
        2.1853150427341461e-01 -3.9617303013801575e-01</leafValues></_>
    <_>
      <internalNodes>
        0 -1 137609 -1.3207988813519478e-03</internalNodes>
      <leafValues>
        1.7350234091281891e-01 -4.1145297884941101e-01</leafValues></_>
    <_>
      <internalNodes>
        0 -1 106206 -8.4863658994436264e-03</internalNodes>
      <leafValues>
        5.5151718854904175e-01 -1.3078606128692627e-01</leafValues></_>
    <_>
      <internalNodes>
        0 -1 161871 -1.2859833659604192e-03</internalNodes>
      <leafValues>
        -7.6219129562377930e-01 9.4021618366241455e-02</leafValues></_>
    <_>
      <internalNodes>
        0 -1 114140 -4.7459602355957031e-03</internalNodes>
      <leafValues>
        5.2904617786407471e-01 -1.3877707719802856e-01</leafValues></_>
    <_>
      <internalNodes>
        0 -1 151108 2.3929583840072155e-03</internalNodes>
      <leafValues>
        9.1491155326366425e-02 -8.4978121519088745e-01</leafValues></_>
    <_>
      <internalNodes>
        0 -1 81 -1.1464406270533800e-03</internalNodes>
      <leafValues>
        -5.7335603237152100e-01 9.4460569322109222e-02</leafValues></_>
    <_>
      <internalNodes>
        0 -1 6525 4.8798453062772751e-03</internalNodes>
      <leafValues>
        -4.1775491833686829e-01 1.4669379591941833e-01</leafValues></_>
    <_>
      <internalNodes>
        0 -1 11630 2.9896816704422235e-03</internalNodes>
      <leafValues>
        7.9567030072212219e-02 -7.6522397994995117e-01</leafValues></_>
    <_>
      <internalNodes>
        0 -1 114017 -5.3959740325808525e-03</internalNodes>
      <leafValues>
        4.7070792317390442e-01 -1.4625366032123566e-01</leafValues></_></weakClassifiers></stage10>
</opencv_storage>
