<?xml version="1.0"?>
<opencv_storage>
<stage3>
  <maxWeakCount>10</maxWeakCount>
  <stageThreshold>-2.2654597759246826e+00</stageThreshold>
  <weakClassifiers>
    <_>
      <internalNodes>
        0 -1 100647 1.2056144885718822e-02</internalNodes>
      <leafValues>
        -8.3135646581649780e-01 9.3205049633979797e-02</leafValues></_>
    <_>
      <internalNodes>
        0 -1 160 1.4768228866159916e-03</internalNodes>
      <leafValues>
        -6.4478576183319092e-01 2.8871819376945496e-01</leafValues></_>
    <_>
      <internalNodes>
        0 -1 116667 -1.0312101803719997e-02</internalNodes>
      <leafValues>
        3.9636379480361938e-01 -5.3524738550186157e-01</leafValues></_>
    <_>
      <internalNodes>
        0 -1 42948 5.9266634285449982e-02</internalNodes>
      <leafValues>
        -7.7538698911666870e-01 3.0278742313385010e-01</leafValues></_>
    <_>
      <internalNodes>
        0 -1 139235 -5.1437700167298317e-03</internalNodes>
      <leafValues>
        5.4080665111541748e-01 -3.7653958797454834e-01</leafValues></_>
    <_>
      <internalNodes>
        0 -1 81370 -1.3623487204313278e-02</internalNodes>
      <leafValues>
        3.5038483142852783e-01 -5.4380357265472412e-01</leafValues></_>
    <_>
      <internalNodes>
        0 -1 34381 -4.1206132620573044e-02</internalNodes>
      <leafValues>
        2.4865885078907013e-01 -7.0458453893661499e-01</leafValues></_>
    <_>
      <internalNodes>
        0 -1 49763 -4.0856063365936279e-02</internalNodes>
      <leafValues>
        4.3132311105728149e-01 -3.9978104829788208e-01</leafValues></_>
    <_>
      <internalNodes>
        0 -1 19477 6.8147480487823486e-03</internalNodes>
      <leafValues>
        -5.3680729866027832e-01 3.2715556025505066e-01</leafValues></_>
    <_>
      <internalNodes>
        0 -1 144252 -4.2915409430861473e-03</internalNodes>
      <leafValues>
        4.0733540058135986e-01 -3.3293005824089050e-01</leafValues></_></weakClassifiers></stage3>
</opencv_storage>
