<?xml version="1.0"?>
<opencv_storage>
<stage10>
  <maxWeakCount>29</maxWeakCount>
  <stageThreshold>-1.8037259578704834e+00</stageThreshold>
  <weakClassifiers>
    <_>
      <internalNodes>
        0 -1 145792 4.5540221035480499e-03</internalNodes>
      <leafValues>
        -6.9932502508163452e-01 -1.9914953410625458e-01</leafValues></_>
    <_>
      <internalNodes>
        0 -1 71406 -3.9249211549758911e-02</internalNodes>
      <leafValues>
        1.8680374324321747e-01 -3.9796346426010132e-01</leafValues></_>
    <_>
      <internalNodes>
        0 -1 137511 1.2494847178459167e-03</internalNodes>
      <leafValues>
        -3.5841611027717590e-01 2.4650804698467255e-01</leafValues></_>
    <_>
      <internalNodes>
        0 -1 49421 1.3501879293471575e-03</internalNodes>
      <leafValues>
        -2.8473466634750366e-01 2.9909673333168030e-01</leafValues></_>
    <_>
      <internalNodes>
        0 -1 63843 9.0350490063428879e-03</internalNodes>
      <leafValues>
        -4.9159935116767883e-01 1.8955257534980774e-01</leafValues></_>
    <_>
      <internalNodes>
        0 -1 98029 -8.6784251034259796e-03</internalNodes>
      <leafValues>
        4.5629182457923889e-01 -1.8102689087390900e-01</leafValues></_>
    <_>
      <internalNodes>
        0 -1 8136 2.0892772590741515e-04</internalNodes>
      <leafValues>
        -2.8495147824287415e-01 2.4941805005073547e-01</leafValues></_>
    <_>
      <internalNodes>
        0 -1 137611 -5.5827843025326729e-03</internalNodes>
      <leafValues>
        1.6110761463642120e-01 -4.8921194672584534e-01</leafValues></_>
    <_>
      <internalNodes>
        0 -1 148299 -3.4337281249463558e-03</internalNodes>
      <leafValues>
        2.4514773488044739e-01 -2.6264286041259766e-01</leafValues></_>
    <_>
      <internalNodes>
        0 -1 78434 -2.7096819877624512e-01</internalNodes>
      <leafValues>
        -8.4140950441360474e-01 8.2179427146911621e-02</leafValues></_>
    <_>
      <internalNodes>
        0 -1 110572 7.0686452090740204e-03</internalNodes>
      <leafValues>
        -3.4066224098205566e-01 1.8358461558818817e-01</leafValues></_>
    <_>
      <internalNodes>
        0 -1 23785 1.4134127413854003e-03</internalNodes>
      <leafValues>
        1.0298222303390503e-01 -5.9070789813995361e-01</leafValues></_>
    <_>
      <internalNodes>
        0 -1 108265 4.5915795490145683e-03</internalNodes>
      <leafValues>
        1.4864180982112885e-01 -3.8358560204505920e-01</leafValues></_>
    <_>
      <internalNodes>
        0 -1 76168 1.6030953265726566e-03</internalNodes>
      <leafValues>
        -5.8417874574661255e-01 1.0348265618085861e-01</leafValues></_>
    <_>
      <internalNodes>
        0 -1 30941 -3.4537172317504883e-01</internalNodes>
      <leafValues>
        5.2761554718017578e-01 -1.2647365033626556e-01</leafValues></_>
    <_>
      <internalNodes>
        0 -1 121197 -3.9192102849483490e-03</internalNodes>
      <leafValues>
        3.8672542572021484e-01 -1.5268003940582275e-01</leafValues></_>
    <_>
      <internalNodes>
        0 -1 37279 5.9597492218017578e-03</internalNodes>
      <leafValues>
        -1.2583118677139282e-01 4.8075115680694580e-01</leafValues></_>
    <_>
      <internalNodes>
        0 -1 113983 -5.4733590222895145e-03</internalNodes>
      <leafValues>
        5.4977953433990479e-01 -1.0926407575607300e-01</leafValues></_>
    <_>
      <internalNodes>
        0 -1 36971 -3.0981870368123055e-03</internalNodes>
      <leafValues>
        -7.8411394357681274e-01 8.8118717074394226e-02</leafValues></_>
    <_>
      <internalNodes>
        0 -1 149571 6.1891814693808556e-03</internalNodes>
      <leafValues>
        -1.1248639971017838e-01 6.3200974464416504e-01</leafValues></_>
    <_>
      <internalNodes>
        0 -1 153197 1.2507807696238160e-03</internalNodes>
      <leafValues>
        -2.5832813978195190e-01 2.2529649734497070e-01</leafValues></_>
    <_>
      <internalNodes>
        0 -1 157444 -4.7142468392848969e-03</internalNodes>
      <leafValues>
        -7.8940641880035400e-01 6.7216508090496063e-02</leafValues></_>
    <_>
      <internalNodes>
        0 -1 106030 -7.8190751373767853e-03</internalNodes>
      <leafValues>
        4.8684689402580261e-01 -1.3049599528312683e-01</leafValues></_>
    <_>
      <internalNodes>
        0 -1 159571 1.4946721494197845e-03</internalNodes>
      <leafValues>
        1.0839390009641647e-01 -6.1918306350708008e-01</leafValues></_>
    <_>
      <internalNodes>
        0 -1 113659 4.9200570210814476e-03</internalNodes>
      <leafValues>
        -1.3237416744232178e-01 4.8137080669403076e-01</leafValues></_>
    <_>
      <internalNodes>
        0 -1 48391 5.9272322803735733e-02</internalNodes>
      <leafValues>
        8.9930199086666107e-02 -6.9175046682357788e-01</leafValues></_>
    <_>
      <internalNodes>
        0 -1 106880 2.6035858318209648e-03</internalNodes>
      <leafValues>
        5.7187389582395554e-02 -8.0005437135696411e-01</leafValues></_>
    <_>
      <internalNodes>
        0 -1 161240 -1.5552346594631672e-03</internalNodes>
      <leafValues>
        -5.8552145957946777e-01 7.8337371349334717e-02</leafValues></_>
    <_>
      <internalNodes>
        0 -1 128055 -6.0677938163280487e-03</internalNodes>
      <leafValues>
        -8.1221228837966919e-01 5.5311884731054306e-02</leafValues></_></weakClassifiers></stage10>
</opencv_storage>
