<?xml version="1.0"?>
<opencv_storage>
<stage1>
  <maxWeakCount>6</maxWeakCount>
  <stageThreshold>-2.2125105857849121e+00</stageThreshold>
  <weakClassifiers>
    <_>
      <internalNodes>
        0 -1 42931 7.3917433619499207e-02</internalNodes>
      <leafValues>
        -9.0765053033828735e-01 2.7956002950668335e-01</leafValues></_>
    <_>
      <internalNodes>
        0 -1 51544 -4.0881834924221039e-02</internalNodes>
      <leafValues>
        5.3960555791854858e-01 -7.5344765186309814e-01</leafValues></_>
    <_>
      <internalNodes>
        0 -1 90416 -2.8940135613083839e-02</internalNodes>
      <leafValues>
        4.5805546641349792e-01 -7.6624065637588501e-01</leafValues></_>
    <_>
      <internalNodes>
        0 -1 140656 2.7935456484556198e-02</internalNodes>
      <leafValues>
        -8.2968276739120483e-01 3.7622717022895813e-01</leafValues></_>
    <_>
      <internalNodes>
        0 -1 121459 -1.3361380435526371e-02</internalNodes>
      <leafValues>
        6.9981819391250610e-01 -5.0888317823410034e-01</leafValues></_>
    <_>
      <internalNodes>
        0 -1 21506 -1.0737499222159386e-02</internalNodes>
      <leafValues>
        3.4748432040214539e-01 -8.8948339223861694e-01</leafValues></_></weakClassifiers></stage1>
</opencv_storage>
