<?xml version="1.0"?>
<opencv_storage>
<stage8>
  <maxWeakCount>23</maxWeakCount>
  <stageThreshold>-2.2552804946899414e+00</stageThreshold>
  <weakClassifiers>
    <_>
      <internalNodes>
        0 -1 152055 1.0455425828695297e-02</internalNodes>
      <leafValues>
        -7.7244895696640015e-01 -2.8235295414924622e-01</leafValues></_>
    <_>
      <internalNodes>
        0 -1 73292 1.8479585647583008e-02</internalNodes>
      <leafValues>
        -6.4327192306518555e-01 1.1928033083677292e-01</leafValues></_>
    <_>
      <internalNodes>
        0 -1 99061 -1.0625200346112251e-02</internalNodes>
      <leafValues>
        1.6688868403434753e-01 -6.3581287860870361e-01</leafValues></_>
    <_>
      <internalNodes>
        0 -1 36675 1.1306006461381912e-02</internalNodes>
      <leafValues>
        -2.5718721747398376e-01 4.3011659383773804e-01</leafValues></_>
    <_>
      <internalNodes>
        0 -1 22911 -4.2587867937982082e-05</internalNodes>
      <leafValues>
        1.7925275862216949e-01 -5.1824253797531128e-01</leafValues></_>
    <_>
      <internalNodes>
        0 -1 57377 -1.0675335302948952e-02</internalNodes>
      <leafValues>
        4.9037450551986694e-01 -1.8139818310737610e-01</leafValues></_>
    <_>
      <internalNodes>
        0 -1 158975 -8.2741975784301758e-03</internalNodes>
      <leafValues>
        3.0784136056900024e-01 -3.3624318242073059e-01</leafValues></_>
    <_>
      <internalNodes>
        0 -1 106800 8.6856912821531296e-04</internalNodes>
      <leafValues>
        1.1444655805826187e-01 -7.8546774387359619e-01</leafValues></_>
    <_>
      <internalNodes>
        0 -1 98014 -7.0954849943518639e-03</internalNodes>
      <leafValues>
        4.9194484949111938e-01 -1.8831397593021393e-01</leafValues></_>
    <_>
      <internalNodes>
        0 -1 122920 -1.7970805056393147e-03</internalNodes>
      <leafValues>
        3.2127267122268677e-01 -2.7070018649101257e-01</leafValues></_>
    <_>
      <internalNodes>
        0 -1 34152 -9.2410150682553649e-04</internalNodes>
      <leafValues>
        1.2639570236206055e-01 -6.4684224128723145e-01</leafValues></_>
    <_>
      <internalNodes>
        0 -1 106162 4.8810285516083241e-03</internalNodes>
      <leafValues>
        -1.2966698408126831e-01 6.1663758754730225e-01</leafValues></_>
    <_>
      <internalNodes>
        0 -1 47050 6.6315499134361744e-04</internalNodes>
      <leafValues>
        1.1530983448028564e-01 -7.0669394731521606e-01</leafValues></_>
    <_>
      <internalNodes>
        0 -1 113417 1.5647484688088298e-03</internalNodes>
      <leafValues>
        -2.0740075409412384e-01 3.4368181228637695e-01</leafValues></_>
    <_>
      <internalNodes>
        0 -1 14390 -4.7968115657567978e-02</internalNodes>
      <leafValues>
        -8.1292980909347534e-01 8.9310981333255768e-02</leafValues></_>
    <_>
      <internalNodes>
        0 -1 159667 1.9651879556477070e-03</internalNodes>
      <leafValues>
        8.3376742899417877e-02 -6.9299107789993286e-01</leafValues></_>
    <_>
      <internalNodes>
        0 -1 116550 4.4509675353765488e-03</internalNodes>
      <leafValues>
        -1.8920075893402100e-01 4.0171578526496887e-01</leafValues></_>
    <_>
      <internalNodes>
        0 -1 93925 3.0249197036027908e-02</internalNodes>
      <leafValues>
        1.1879563331604004e-01 -6.5038132667541504e-01</leafValues></_>
    <_>
      <internalNodes>
        0 -1 160 1.2678997591137886e-03</internalNodes>
      <leafValues>
        -3.4528011083602905e-01 1.9847962260246277e-01</leafValues></_>
    <_>
      <internalNodes>
        0 -1 161941 4.7543007531203330e-04</internalNodes>
      <leafValues>
        9.8294056951999664e-02 -6.7002665996551514e-01</leafValues></_>
    <_>
      <internalNodes>
        0 -1 1288 8.0390311777591705e-03</internalNodes>
      <leafValues>
        -3.6355894804000854e-01 1.7316626012325287e-01</leafValues></_>
    <_>
      <internalNodes>
        0 -1 103499 5.6740747822914273e-05</internalNodes>
      <leafValues>
        -4.3661123514175415e-01 1.4237529039382935e-01</leafValues></_>
    <_>
      <internalNodes>
        0 -1 13271 -7.7115163207054138e-02</internalNodes>
      <leafValues>
        5.0588750839233398e-01 -1.3563869893550873e-01</leafValues></_></weakClassifiers></stage8>
</opencv_storage>
