<?xml version="1.0"?>
<opencv_storage>
<stage2>
  <maxWeakCount>9</maxWeakCount>
  <stageThreshold>-2.2260184288024902e+00</stageThreshold>
  <weakClassifiers>
    <_>
      <internalNodes>
        0 -1 115685 -1.9964985549449921e-02</internalNodes>
      <leafValues>
        3.2608695328235626e-02 -8.8072967529296875e-01</leafValues></_>
    <_>
      <internalNodes>
        0 -1 50133 -2.7798017486929893e-02</internalNodes>
      <leafValues>
        2.0419384539127350e-01 -7.9866319894790649e-01</leafValues></_>
    <_>
      <internalNodes>
        0 -1 37288 1.4404349029064178e-02</internalNodes>
      <leafValues>
        -4.5774707198143005e-01 5.2335369586944580e-01</leafValues></_>
    <_>
      <internalNodes>
        0 -1 100045 1.0320117697119713e-02</internalNodes>
      <leafValues>
        -4.3193629384040833e-01 4.9493366479873657e-01</leafValues></_>
    <_>
      <internalNodes>
        0 -1 31051 4.4757474213838577e-02</internalNodes>
      <leafValues>
        -8.2486259937286377e-01 3.5791444778442383e-01</leafValues></_>
    <_>
      <internalNodes>
        0 -1 158978 -1.6961175948381424e-02</internalNodes>
      <leafValues>
        5.3341150283813477e-01 -4.2992836236953735e-01</leafValues></_>
    <_>
      <internalNodes>
        0 -1 240 2.8855649288743734e-03</internalNodes>
      <leafValues>
        -4.4431090354919434e-01 4.2462372779846191e-01</leafValues></_>
    <_>
      <internalNodes>
        0 -1 21454 -6.0574747622013092e-03</internalNodes>
      <leafValues>
        3.0525824427604675e-01 -6.4137196540832520e-01</leafValues></_>
    <_>
      <internalNodes>
        0 -1 144263 1.0210148990154266e-02</internalNodes>
      <leafValues>
        -4.4873261451721191e-01 3.7707483768463135e-01</leafValues></_></weakClassifiers></stage2>
</opencv_storage>
