<?xml version="1.0"?>
<opencv_storage>
<stage6>
  <maxWeakCount>23</maxWeakCount>
  <stageThreshold>-1.8502365350723267e+00</stageThreshold>
  <weakClassifiers>
    <_>
      <internalNodes>
        0 -1 100647 1.2098572216928005e-02</internalNodes>
      <leafValues>
        -7.9340422153472900e-01 -2.9988598823547363e-01</leafValues></_>
    <_>
      <internalNodes>
        0 -1 4236 1.4530684798955917e-02</internalNodes>
      <leafValues>
        -5.3587812185287476e-01 1.7365343868732452e-01</leafValues></_>
    <_>
      <internalNodes>
        0 -1 81282 -1.7969334125518799e-01</internalNodes>
      <leafValues>
        1.6657094657421112e-01 -6.3047403097152710e-01</leafValues></_>
    <_>
      <internalNodes>
        0 -1 104903 -4.5504113659262657e-03</internalNodes>
      <leafValues>
        4.2826652526855469e-01 -2.3243175446987152e-01</leafValues></_>
    <_>
      <internalNodes>
        0 -1 10736 1.6031268751248717e-03</internalNodes>
      <leafValues>
        1.2544547021389008e-01 -7.9145634174346924e-01</leafValues></_>
    <_>
      <internalNodes>
        0 -1 155971 5.4681235924363136e-03</internalNodes>
      <leafValues>
        -4.8324143886566162e-01 1.8078610301017761e-01</leafValues></_>
    <_>
      <internalNodes>
        0 -1 240 3.2610753551125526e-03</internalNodes>
      <leafValues>
        -3.8835445046424866e-01 2.4216562509536743e-01</leafValues></_>
    <_>
      <internalNodes>
        0 -1 81701 1.4561031013727188e-02</internalNodes>
      <leafValues>
        -4.7263285517692566e-01 1.7853258550167084e-01</leafValues></_>
    <_>
      <internalNodes>
        0 -1 12661 2.1380985155701637e-02</internalNodes>
      <leafValues>
        -2.8364068269729614e-01 3.3413407206535339e-01</leafValues></_>
    <_>
      <internalNodes>
        0 -1 107729 -1.0778724681586027e-03</internalNodes>
      <leafValues>
        2.1344156563282013e-01 -4.3584963679313660e-01</leafValues></_>
    <_>
      <internalNodes>
        0 -1 5651 -3.2508826255798340e-01</internalNodes>
      <leafValues>
        6.1332643032073975e-01 -1.4910627901554108e-01</leafValues></_>
    <_>
      <internalNodes>
        0 -1 8944 5.4216705262660980e-02</internalNodes>
      <leafValues>
        -1.6148684918880463e-01 4.7336015105247498e-01</leafValues></_>
    <_>
      <internalNodes>
        0 -1 6540 3.4678166266530752e-03</internalNodes>
      <leafValues>
        -5.3494817018508911e-01 1.4839428663253784e-01</leafValues></_>
    <_>
      <internalNodes>
        0 -1 90966 2.5900315493345261e-02</internalNodes>
      <leafValues>
        -3.6027893424034119e-01 2.1142004430294037e-01</leafValues></_>
    <_>
      <internalNodes>
        0 -1 79425 5.0259297713637352e-03</internalNodes>
      <leafValues>
        -2.2839918732643127e-01 3.5133439302444458e-01</leafValues></_>
    <_>
      <internalNodes>
        0 -1 106221 -1.1050906963646412e-02</internalNodes>
      <leafValues>
        6.3397264480590820e-01 -1.1678803712129593e-01</leafValues></_>
    <_>
      <internalNodes>
        0 -1 157580 1.7253633122891188e-03</internalNodes>
      <leafValues>
        1.3246743381023407e-01 -6.3826268911361694e-01</leafValues></_>
    <_>
      <internalNodes>
        0 -1 151118 -5.2096169383730739e-05</internalNodes>
      <leafValues>
        1.4956942200660706e-01 -4.5980527997016907e-01</leafValues></_>
    <_>
      <internalNodes>
        0 -1 161898 -2.0568296313285828e-03</internalNodes>
      <leafValues>
        -7.7238988876342773e-01 9.3256153166294098e-02</leafValues></_>
    <_>
      <internalNodes>
        0 -1 114492 -2.4859954137355089e-03</internalNodes>
      <leafValues>
        -6.4527356624603271e-01 9.5747098326683044e-02</leafValues></_>
    <_>
      <internalNodes>
        0 -1 96147 -1.7694902420043945e-01</internalNodes>
      <leafValues>
        -8.5596865415573120e-01 7.1916081011295319e-02</leafValues></_>
    <_>
      <internalNodes>
        0 -1 138304 9.4113487284630537e-04</internalNodes>
      <leafValues>
        -2.6775053143501282e-01 2.6954382658004761e-01</leafValues></_>
    <_>
      <internalNodes>
        0 -1 7409 -6.8774120882153511e-04</internalNodes>
      <leafValues>
        -6.8944078683853149e-01 1.0162256658077240e-01</leafValues></_></weakClassifiers></stage6>
</opencv_storage>
