<?xml version="1.0"?>
<opencv_storage>
<cascade>
  <stageType>BOOST</stageType>
  <featureType>HAAR</featureType>
  <height>24</height>
  <width>24</width>
  <stageParams>
    <boostType>GAB</boostType>
    <minHitRate>9.9500000476837158e-01</minHitRate>
    <maxFalseAlarm>5.0000000000000000e-01</maxFalseAlarm>
    <weightTrimRate>9.4999999999999996e-01</weightTrimRate>
    <maxDepth>1</maxDepth>
    <maxWeakCount>100</maxWeakCount></stageParams>
  <featureParams>
    <maxCatCount>0</maxCatCount>
    <featSize>1</featSize>
    <mode>BASIC</mode></featureParams>
  <stageNum>12</stageNum>
  <stages>
    <!-- stage 0 -->
    <_>
      <maxWeakCount>3</maxWeakCount>
      <stageThreshold>-1.5764590501785278e+00</stageThreshold>
      <weakClassifiers>
        <_>
          <internalNodes>
            0 -1 18 9.6003219485282898e-02</internalNodes>
          <leafValues>
            -9.8547041416168213e-01 2.3765996098518372e-02</leafValues></_>
        <_>
          <internalNodes>
            0 -1 56 -2.0056527107954025e-02</internalNodes>
          <leafValues>
            3.7439829111099243e-01 -8.8949030637741089e-01</leafValues></_>
        <_>
          <internalNodes>
            0 -1 19 6.0385704040527344e-02</internalNodes>
          <leafValues>
            -9.6538692712783813e-01 3.0510148406028748e-01</leafValues></_></weakClassifiers></_>
    <!-- stage 1 -->
    <_>
      <maxWeakCount>3</maxWeakCount>
      <stageThreshold>-1.9395225048065186e+00</stageThreshold>
      <weakClassifiers>
        <_>
          <internalNodes>
            0 -1 37 -4.4156834483146667e-02</internalNodes>
          <leafValues>
            -2.1856287121772766e-01 -9.7036474943161011e-01</leafValues></_>
        <_>
          <internalNodes>
            0 -1 40 2.5618774816393852e-02</internalNodes>
          <leafValues>
            -8.6180698871612549e-01 3.9107087254524231e-01</leafValues></_>
        <_>
          <internalNodes>
            0 -1 24 -1.6929142177104950e-02</internalNodes>
          <leafValues>
            2.7566772699356079e-01 -8.5915273427963257e-01</leafValues></_></weakClassifiers></_>
    <!-- stage 2 -->
    <_>
      <maxWeakCount>5</maxWeakCount>
      <stageThreshold>-1.8907757997512817e+00</stageThreshold>
      <weakClassifiers>
        <_>
          <internalNodes>
            0 -1 46 1.4467563480138779e-02</internalNodes>
          <leafValues>
            -9.3316745758056641e-01 -1.5400411188602448e-01</leafValues></_>
        <_>
          <internalNodes>
            0 -1 32 -3.7948854267597198e-02</internalNodes>
          <leafValues>
            2.4103878438472748e-01 -7.9768460988998413e-01</leafValues></_>
        <_>
          <internalNodes>
            0 -1 30 2.2381510585546494e-02</internalNodes>
          <leafValues>
            -7.8797054290771484e-01 3.4775513410568237e-01</leafValues></_>
        <_>
          <internalNodes>
            0 -1 27 7.7894188463687897e-02</internalNodes>
          <leafValues>
            -9.2699784040451050e-01 2.8832602500915527e-01</leafValues></_>
        <_>
          <internalNodes>
            0 -1 70 -3.9269523695111275e-03</internalNodes>
          <leafValues>
            4.1931888461112976e-01 -6.3246029615402222e-01</leafValues></_></weakClassifiers></_>
    <!-- stage 3 -->
    <_>
      <maxWeakCount>6</maxWeakCount>
      <stageThreshold>-2.1534776687622070e+00</stageThreshold>
      <weakClassifiers>
        <_>
          <internalNodes>
            0 -1 63 -1.3595072552561760e-02</internalNodes>
          <leafValues>
            -3.5930734872817993e-01 -9.4016110897064209e-01</leafValues></_>
        <_>
          <internalNodes>
            0 -1 28 1.0396911762654781e-02</internalNodes>
          <leafValues>
            -6.6945725679397583e-01 3.6612272262573242e-01</leafValues></_>
        <_>
          <internalNodes>
            0 -1 3 -1.6339669004082680e-02</internalNodes>
          <leafValues>
            4.5278331637382507e-01 -6.1337810754776001e-01</leafValues></_>
        <_>
          <internalNodes>
            0 -1 67 -2.0862873643636703e-02</internalNodes>
          <leafValues>
            3.1348460912704468e-01 -7.9644995927810669e-01</leafValues></_>
        <_>
          <internalNodes>
            0 -1 52 3.2319079618901014e-03</internalNodes>
          <leafValues>
            -5.6738346815109253e-01 4.5198059082031250e-01</leafValues></_>
        <_>
          <internalNodes>
            0 -1 71 2.5537282228469849e-02</internalNodes>
          <leafValues>
            -7.4274379014968872e-01 3.6652371287345886e-01</leafValues></_></weakClassifiers></_>
    <!-- stage 4 -->
    <_>
      <maxWeakCount>7</maxWeakCount>
      <stageThreshold>-2.5919563770294189e+00</stageThreshold>
      <weakClassifiers>
        <_>
          <internalNodes>
            0 -1 57 5.4669417440891266e-02</internalNodes>
          <leafValues>
            -9.0439367294311523e-01 -2.7912089228630066e-01</leafValues></_>
        <_>
          <internalNodes>
            0 -1 55 -2.7621047571301460e-02</internalNodes>
          <leafValues>
            2.7269652113318443e-02 -8.3921033143997192e-01</leafValues></_>
        <_>
          <internalNodes>
            0 -1 26 2.4057921022176743e-02</internalNodes>
          <leafValues>
            -7.3682445287704468e-01 2.9830190539360046e-01</leafValues></_>
        <_>
          <internalNodes>
            0 -1 69 -1.5215123072266579e-02</internalNodes>
          <leafValues>
            6.1089974641799927e-01 -4.1655966639518738e-01</leafValues></_>
        <_>
          <internalNodes>
            0 -1 31 -4.2053483426570892e-02</internalNodes>
          <leafValues>
            3.9465951919555664e-01 -6.8303948640823364e-01</leafValues></_>
        <_>
          <internalNodes>
            0 -1 8 1.8742411630228162e-03</internalNodes>
          <leafValues>
            -5.2060920000076294e-01 4.2800113558769226e-01</leafValues></_>
        <_>
          <internalNodes>
            0 -1 42 2.6216600090265274e-03</internalNodes>
          <leafValues>
            -6.0414493083953857e-01 3.0192792415618896e-01</leafValues></_></weakClassifiers></_>
    <!-- stage 5 -->
    <_>
      <maxWeakCount>8</maxWeakCount>
      <stageThreshold>-2.4499316215515137e+00</stageThreshold>
      <weakClassifiers>
        <_>
          <internalNodes>
            0 -1 65 -5.8145038783550262e-03</internalNodes>
          <leafValues>
            -3.5353535413742065e-01 -9.0017825365066528e-01</leafValues></_>
        <_>
          <internalNodes>
            0 -1 6 1.3493830338120461e-02</internalNodes>
          <leafValues>
            -7.6528257131576538e-01 4.5979358255863190e-02</leafValues></_>
        <_>
          <internalNodes>
            0 -1 78 -2.6667499914765358e-03</internalNodes>
          <leafValues>
            3.4510126709938049e-01 -5.3362095355987549e-01</leafValues></_>
        <_>
          <internalNodes>
            0 -1 62 -1.1334706097841263e-02</internalNodes>
          <leafValues>
            3.0861255526542664e-01 -5.6369858980178833e-01</leafValues></_>
        <_>
          <internalNodes>
            0 -1 21 2.7799308300018311e-02</internalNodes>
          <leafValues>
            -7.3611962795257568e-01 3.7553280591964722e-01</leafValues></_>
        <_>
          <internalNodes>
            0 -1 82 -1.0350067168474197e-02</internalNodes>
          <leafValues>
            5.2226340770721436e-01 -3.7555524706840515e-01</leafValues></_>
        <_>
          <internalNodes>
            0 -1 68 3.3249603584408760e-03</internalNodes>
          <leafValues>
            -3.3027121424674988e-01 5.9139132499694824e-01</leafValues></_>
        <_>
          <internalNodes>
            0 -1 11 6.9540673866868019e-03</internalNodes>
          <leafValues>
            -2.5467619299888611e-01 6.3083279132843018e-01</leafValues></_></weakClassifiers></_>
    <!-- stage 6 -->
    <_>
      <maxWeakCount>8</maxWeakCount>
      <stageThreshold>-2.1788036823272705e+00</stageThreshold>
      <weakClassifiers>
        <_>
          <internalNodes>
            0 -1 60 -1.6532709822058678e-02</internalNodes>
          <leafValues>
            -3.5227271914482117e-01 -8.7381273508071899e-01</leafValues></_>
        <_>
          <internalNodes>
            0 -1 80 -1.0943303816020489e-02</internalNodes>
          <leafValues>
            7.6501913368701935e-02 -6.8388009071350098e-01</leafValues></_>
        <_>
          <internalNodes>
            0 -1 29 -7.6597137376666069e-03</internalNodes>
          <leafValues>
            4.1583031415939331e-01 -4.2579337954521179e-01</leafValues></_>
        <_>
          <internalNodes>
            0 -1 1 5.4688093950971961e-04</internalNodes>
          <leafValues>
            -4.8627629876136780e-01 3.2708275318145752e-01</leafValues></_>
        <_>
          <internalNodes>
            0 -1 53 -8.5751451551914215e-03</internalNodes>
          <leafValues>
            2.4827814102172852e-01 -6.3502842187881470e-01</leafValues></_>
        <_>
          <internalNodes>
            0 -1 17 4.3359875679016113e-02</internalNodes>
          <leafValues>
            -8.2340627908706665e-01 2.3630821704864502e-01</leafValues></_>
        <_>
          <internalNodes>
            0 -1 12 1.2965146452188492e-02</internalNodes>
          <leafValues>
            -3.2846444845199585e-01 5.5947679281234741e-01</leafValues></_>
        <_>
          <internalNodes>
            0 -1 79 -4.7290009260177612e-01</internalNodes>
          <leafValues>
            -9.0531444549560547e-01 2.0478434860706329e-01</leafValues></_></weakClassifiers></_>
    <!-- stage 7 -->
    <_>
      <maxWeakCount>9</maxWeakCount>
      <stageThreshold>-1.9633896350860596e+00</stageThreshold>
      <weakClassifiers>
        <_>
          <internalNodes>
            0 -1 47 2.1995931863784790e-02</internalNodes>
          <leafValues>
            -9.0916532278060913e-01 -5.5841124057769775e-01</leafValues></_>
        <_>
          <internalNodes>
            0 -1 2 6.4651384018361568e-03</internalNodes>
          <leafValues>
            -6.8130934238433838e-01 5.3223069757223129e-02</leafValues></_>
        <_>
          <internalNodes>
            0 -1 54 -2.8292179107666016e-02</internalNodes>
          <leafValues>
            2.8966644406318665e-01 -5.4238891601562500e-01</leafValues></_>
        <_>
          <internalNodes>
            0 -1 74 4.0763318538665771e-03</internalNodes>
          <leafValues>
            -3.8115471601486206e-01 4.4570937752723694e-01</leafValues></_>
        <_>
          <internalNodes>
            0 -1 15 5.3420136682689190e-03</internalNodes>
          <leafValues>
            -7.4932157993316650e-01 2.1489778161048889e-01</leafValues></_>
        <_>
          <internalNodes>
            0 -1 86 -9.3275438994169235e-03</internalNodes>
          <leafValues>
            5.0645267963409424e-01 -2.7776792645454407e-01</leafValues></_>
        <_>
          <internalNodes>
            0 -1 39 -2.3027703166007996e-02</internalNodes>
          <leafValues>
            2.8047591447830200e-01 -5.0651252269744873e-01</leafValues></_>
        <_>
          <internalNodes>
            0 -1 35 2.1694190800189972e-02</internalNodes>
          <leafValues>
            -6.0842382907867432e-01 2.9525148868560791e-01</leafValues></_>
        <_>
          <internalNodes>
            0 -1 59 2.7611691504716873e-02</internalNodes>
          <leafValues>
            -7.8692913055419922e-01 2.0691432058811188e-01</leafValues></_></weakClassifiers></_>
    <!-- stage 8 -->
    <_>
      <maxWeakCount>8</maxWeakCount>
      <stageThreshold>-2.0158951282501221e+00</stageThreshold>
      <weakClassifiers>
        <_>
          <internalNodes>
            0 -1 10 2.2510424256324768e-02</internalNodes>
          <leafValues>
            -8.8293719291687012e-01 -4.3866944313049316e-01</leafValues></_>
        <_>
          <internalNodes>
            0 -1 64 -1.5461767092347145e-02</internalNodes>
          <leafValues>
            1.7283408669754863e-03 -7.1153807640075684e-01</leafValues></_>
        <_>
          <internalNodes>
            0 -1 83 -1.2495517730712891e-03</internalNodes>
          <leafValues>
            3.4838473796844482e-01 -4.7192203998565674e-01</leafValues></_>
        <_>
          <internalNodes>
            0 -1 9 -1.4841215685009956e-02</internalNodes>
          <leafValues>
            2.5171601772308350e-01 -5.6171441078186035e-01</leafValues></_>
        <_>
          <internalNodes>
            0 -1 36 -8.9009832590818405e-03</internalNodes>
          <leafValues>
            4.3511864542961121e-01 -3.4211906790733337e-01</leafValues></_>
        <_>
          <internalNodes>
            0 -1 61 5.7550927158445120e-04</internalNodes>
          <leafValues>
            1.7013297975063324e-01 -8.4829151630401611e-01</leafValues></_>
        <_>
          <internalNodes>
            0 -1 45 -1.1670531705021858e-02</internalNodes>
          <leafValues>
            1.7478573322296143e-01 -6.3303345441818237e-01</leafValues></_>
        <_>
          <internalNodes>
            0 -1 34 2.3359708487987518e-02</internalNodes>
          <leafValues>
            -4.5016342401504517e-01 3.2711842656135559e-01</leafValues></_></weakClassifiers></_>
    <!-- stage 9 -->
    <_>
      <maxWeakCount>11</maxWeakCount>
      <stageThreshold>-1.7916643619537354e+00</stageThreshold>
      <weakClassifiers>
        <_>
          <internalNodes>
            0 -1 44 -1.1653539724647999e-02</internalNodes>
          <leafValues>
            -1.2994350492954254e-01 -8.5718858242034912e-01</leafValues></_>
        <_>
          <internalNodes>
            0 -1 75 -8.9854691177606583e-03</internalNodes>
          <leafValues>
            1.5978837013244629e-01 -5.9492594003677368e-01</leafValues></_>
        <_>
          <internalNodes>
            0 -1 55 -3.0532423406839371e-02</internalNodes>
          <leafValues>
            1.6442172229290009e-01 -6.1254322528839111e-01</leafValues></_>
        <_>
          <internalNodes>
            0 -1 16 1.3335796538740396e-03</internalNodes>
          <leafValues>
            -5.0037324428558350e-01 2.2879236936569214e-01</leafValues></_>
        <_>
          <internalNodes>
            0 -1 4 -4.1621318086981773e-03</internalNodes>
          <leafValues>
            1.9174334406852722e-01 -6.4578205347061157e-01</leafValues></_>
        <_>
          <internalNodes>
            0 -1 49 -2.9258255381137133e-04</internalNodes>
          <leafValues>
            -8.2609570026397705e-01 1.3787358999252319e-01</leafValues></_>
        <_>
          <internalNodes>
            0 -1 20 3.8769684731960297e-02</internalNodes>
          <leafValues>
            -5.2814203500747681e-01 2.0776499807834625e-01</leafValues></_>
        <_>
          <internalNodes>
            0 -1 84 -3.6182351410388947e-02</internalNodes>
          <leafValues>
            5.8059972524642944e-01 -2.2457301616668701e-01</leafValues></_>
        <_>
          <internalNodes>
            0 -1 76 9.5507446676492691e-03</internalNodes>
          <leafValues>
            -3.4455069899559021e-01 3.7136197090148926e-01</leafValues></_>
        <_>
          <internalNodes>
            0 -1 25 6.7510553635656834e-03</internalNodes>
          <leafValues>
            -2.8150391578674316e-01 4.1764810681343079e-01</leafValues></_>
        <_>
          <internalNodes>
            0 -1 7 3.2960486412048340e-01</internalNodes>
          <leafValues>
            -1.5470086038112640e-01 7.7605366706848145e-01</leafValues></_></weakClassifiers></_>
    <!-- stage 10 -->
    <_>
      <maxWeakCount>10</maxWeakCount>
      <stageThreshold>-1.9810380935668945e+00</stageThreshold>
      <weakClassifiers>
        <_>
          <internalNodes>
            0 -1 41 -1.5301301144063473e-02</internalNodes>
          <leafValues>
            -1.1764705926179886e-01 -8.4829330444335938e-01</leafValues></_>
        <_>
          <internalNodes>
            0 -1 58 -2.3682981729507446e-02</internalNodes>
          <leafValues>
            2.3449541628360748e-01 -5.3046840429306030e-01</leafValues></_>
        <_>
          <internalNodes>
            0 -1 77 -1.0475531220436096e-02</internalNodes>
          <leafValues>
            4.5427906513214111e-01 -3.1704691052436829e-01</leafValues></_>
        <_>
          <internalNodes>
            0 -1 22 -9.3963250517845154e-02</internalNodes>
          <leafValues>
            2.1702311933040619e-01 -5.8781921863555908e-01</leafValues></_>
        <_>
          <internalNodes>
            0 -1 66 -5.4671112447977066e-03</internalNodes>
          <leafValues>
            4.5245337486267090e-01 -2.7992317080497742e-01</leafValues></_>
        <_>
          <internalNodes>
            0 -1 87 -6.5218302188441157e-04</internalNodes>
          <leafValues>
            -7.3590642213821411e-01 2.3084580898284912e-01</leafValues></_>
        <_>
          <internalNodes>
            0 -1 0 2.8294330695644021e-04</internalNodes>
          <leafValues>
            -4.9120745062828064e-01 2.6787632703781128e-01</leafValues></_>
        <_>
          <internalNodes>
            0 -1 72 4.7741286834934726e-05</internalNodes>
          <leafValues>
            2.2698806226253510e-01 -5.5797863006591797e-01</leafValues></_>
        <_>
          <internalNodes>
            0 -1 43 3.2576422672718763e-03</internalNodes>
          <leafValues>
            -2.4723625183105469e-01 5.3033447265625000e-01</leafValues></_>
        <_>
          <internalNodes>
            0 -1 51 7.2923570405691862e-04</internalNodes>
          <leafValues>
            1.5662913024425507e-01 -8.1429302692413330e-01</leafValues></_></weakClassifiers></_>
    <!-- stage 11 -->
    <_>
      <maxWeakCount>11</maxWeakCount>
      <stageThreshold>-2.0033705234527588e+00</stageThreshold>
      <weakClassifiers>
        <_>
          <internalNodes>
            0 -1 50 1.3635061681270599e-02</internalNodes>
          <leafValues>
            -8.4447222948074341e-01 4.0816325694322586e-02</leafValues></_>
        <_>
          <internalNodes>
            0 -1 48 2.2383566945791245e-02</internalNodes>
          <leafValues>
            -5.2668660879135132e-01 2.2825247049331665e-01</leafValues></_>
        <_>
          <internalNodes>
            0 -1 33 -5.9848763048648834e-02</internalNodes>
          <leafValues>
            3.1966355443000793e-01 -3.7208336591720581e-01</leafValues></_>
        <_>
          <internalNodes>
            0 -1 5 1.3410779647529125e-03</internalNodes>
          <leafValues>
            -3.1202739477157593e-01 3.5978373885154724e-01</leafValues></_>
        <_>
          <internalNodes>
            0 -1 23 -8.8474377989768982e-03</internalNodes>
          <leafValues>
            1.4783880114555359e-01 -7.7196395397186279e-01</leafValues></_>
        <_>
          <internalNodes>
            0 -1 85 4.1586463339626789e-04</internalNodes>
          <leafValues>
            1.5858072042465210e-01 -8.0605489015579224e-01</leafValues></_>
        <_>
          <internalNodes>
            0 -1 81 -1.0843728668987751e-02</internalNodes>
          <leafValues>
            3.7972369790077209e-01 -2.8670960664749146e-01</leafValues></_>
        <_>
          <internalNodes>
            0 -1 38 -3.0631637200713158e-02</internalNodes>
          <leafValues>
            2.5523799657821655e-01 -4.6416866779327393e-01</leafValues></_>
        <_>
          <internalNodes>
            0 -1 73 2.1307887509465218e-03</internalNodes>
          <leafValues>
            -3.9506211876869202e-01 2.8117156028747559e-01</leafValues></_>
        <_>
          <internalNodes>
            0 -1 14 3.6010637879371643e-02</internalNodes>
          <leafValues>
            -8.8709640502929688e-01 1.0946694016456604e-01</leafValues></_>
        <_>
          <internalNodes>
            0 -1 13 -6.7885767202824354e-04</internalNodes>
          <leafValues>
            -7.4627631902694702e-01 1.1551965773105621e-01</leafValues></_></weakClassifiers></_></stages>
  <features>
    <_>
      <rects>
        <_>
          0 0 2 2 -1.</_>
        <_>
          1 0 1 2 2.</_></rects>
      <tilted>0</tilted></_>
    <_>
      <rects>
        <_>
          0 0 4 1 -1.</_>
        <_>
          2 0 2 1 2.</_></rects>
      <tilted>0</tilted></_>
    <_>
      <rects>
        <_>
          0 0 10 1 -1.</_>
        <_>
          5 0 5 1 2.</_></rects>
      <tilted>0</tilted></_>
    <_>
      <rects>
        <_>
          0 0 10 6 -1.</_>
        <_>
          0 0 5 3 2.</_>
        <_>
          5 3 5 3 2.</_></rects>
      <tilted>0</tilted></_>
    <_>
      <rects>
        <_>
          0 0 12 6 -1.</_>
        <_>
          0 0 6 3 2.</_>
        <_>
          6 3 6 3 2.</_></rects>
      <tilted>0</tilted></_>
    <_>
      <rects>
        <_>
          0 1 4 1 -1.</_>
        <_>
          2 1 2 1 2.</_></rects>
      <tilted>0</tilted></_>
    <_>
      <rects>
        <_>
          0 4 6 10 -1.</_>
        <_>
          0 4 3 5 2.</_>
        <_>
          3 9 3 5 2.</_></rects>
      <tilted>0</tilted></_>
    <_>
      <rects>
        <_>
          0 7 24 17 -1.</_>
        <_>
          12 7 12 17 2.</_></rects>
      <tilted>0</tilted></_>
    <_>
      <rects>
        <_>
          0 10 4 2 -1.</_>
        <_>
          2 10 2 2 2.</_></rects>
      <tilted>0</tilted></_>
    <_>
      <rects>
        <_>
          0 11 24 4 -1.</_>
        <_>
          0 13 24 2 2.</_></rects>
      <tilted>0</tilted></_>
    <_>
      <rects>
        <_>
          0 18 6 6 -1.</_>
        <_>
          3 18 3 6 2.</_></rects>
      <tilted>0</tilted></_>
    <_>
      <rects>
        <_>
          0 23 10 1 -1.</_>
        <_>
          5 23 5 1 2.</_></rects>
      <tilted>0</tilted></_>
    <_>
      <rects>
        <_>
          0 23 16 1 -1.</_>
        <_>
          8 23 8 1 2.</_></rects>
      <tilted>0</tilted></_>
    <_>
      <rects>
        <_>
          1 0 1 2 -1.</_>
        <_>
          1 1 1 1 2.</_></rects>
      <tilted>0</tilted></_>
    <_>
      <rects>
        <_>
          1 2 15 12 -1.</_>
        <_>
          1 8 15 6 2.</_></rects>
      <tilted>0</tilted></_>
    <_>
      <rects>
        <_>
          1 6 21 2 -1.</_>
        <_>
          1 7 21 1 2.</_></rects>
      <tilted>0</tilted></_>
    <_>
      <rects>
        <_>
          2 4 2 10 -1.</_>
        <_>
          2 4 1 5 2.</_>
        <_>
          3 9 1 5 2.</_></rects>
      <tilted>0</tilted></_>
    <_>
      <rects>
        <_>
          2 4 12 8 -1.</_>
        <_>
          2 8 12 4 2.</_></rects>
      <tilted>0</tilted></_>
    <_>
      <rects>
        <_>
          2 4 19 8 -1.</_>
        <_>
          2 8 19 4 2.</_></rects>
      <tilted>0</tilted></_>
    <_>
      <rects>
        <_>
          2 4 22 8 -1.</_>
        <_>
          2 8 22 4 2.</_></rects>
      <tilted>0</tilted></_>
    <_>
      <rects>
        <_>
          2 5 22 4 -1.</_>
        <_>
          2 7 22 2 2.</_></rects>
      <tilted>0</tilted></_>
    <_>
      <rects>
        <_>
          2 6 17 4 -1.</_>
        <_>
          2 8 17 2 2.</_></rects>
      <tilted>0</tilted></_>
    <_>
      <rects>
        <_>
          2 7 22 16 -1.</_>
        <_>
          2 15 22 8 2.</_></rects>
      <tilted>0</tilted></_>
    <_>
      <rects>
        <_>
          2 9 9 10 -1.</_>
        <_>
          2 14 9 5 2.</_></rects>
      <tilted>0</tilted></_>
    <_>
      <rects>
        <_>
          2 10 21 6 -1.</_>
        <_>
          2 13 21 3 2.</_></rects>
      <tilted>0</tilted></_>
    <_>
      <rects>
        <_>
          2 17 6 6 -1.</_>
        <_>
          2 17 3 3 2.</_>
        <_>
          5 20 3 3 2.</_></rects>
      <tilted>0</tilted></_>
    <_>
      <rects>
        <_>
          3 4 4 8 -1.</_>
        <_>
          3 8 4 4 2.</_></rects>
      <tilted>0</tilted></_>
    <_>
      <rects>
        <_>
          3 4 19 10 -1.</_>
        <_>
          3 9 19 5 2.</_></rects>
      <tilted>0</tilted></_>
    <_>
      <rects>
        <_>
          3 18 6 6 -1.</_>
        <_>
          3 18 3 3 2.</_>
        <_>
          6 21 3 3 2.</_></rects>
      <tilted>0</tilted></_>
    <_>
      <rects>
        <_>
          4 10 6 5 -1.</_>
        <_>
          7 10 3 5 2.</_></rects>
      <tilted>0</tilted></_>
    <_>
      <rects>
        <_>
          5 0 8 8 -1.</_>
        <_>
          9 0 4 8 2.</_></rects>
      <tilted>0</tilted></_>
    <_>
      <rects>
        <_>
          5 0 13 6 -1.</_>
        <_>
          5 3 13 3 2.</_></rects>
      <tilted>0</tilted></_>
    <_>
      <rects>
        <_>
          5 0 15 4 -1.</_>
        <_>
          5 2 15 2 2.</_></rects>
      <tilted>0</tilted></_>
    <_>
      <rects>
        <_>
          5 2 10 14 -1.</_>
        <_>
          5 2 5 7 2.</_>
        <_>
          10 9 5 7 2.</_></rects>
      <tilted>0</tilted></_>
    <_>
      <rects>
        <_>
          5 3 8 4 -1.</_>
        <_>
          9 3 4 4 2.</_></rects>
      <tilted>0</tilted></_>
    <_>
      <rects>
        <_>
          5 3 10 5 -1.</_>
        <_>
          10 3 5 5 2.</_></rects>
      <tilted>0</tilted></_>
    <_>
      <rects>
        <_>
          5 9 6 6 -1.</_>
        <_>
          8 9 3 6 2.</_></rects>
      <tilted>0</tilted></_>
    <_>
      <rects>
        <_>
          6 0 12 6 -1.</_>
        <_>
          6 3 12 3 2.</_></rects>
      <tilted>0</tilted></_>
    <_>
      <rects>
        <_>
          6 0 14 4 -1.</_>
        <_>
          6 2 14 2 2.</_></rects>
      <tilted>0</tilted></_>
    <_>
      <rects>
        <_>
          7 0 11 4 -1.</_>
        <_>
          7 2 11 2 2.</_></rects>
      <tilted>0</tilted></_>
    <_>
      <rects>
        <_>
          7 1 6 7 -1.</_>
        <_>
          10 1 3 7 2.</_></rects>
      <tilted>0</tilted></_>
    <_>
      <rects>
        <_>
          7 16 12 2 -1.</_>
        <_>
          7 17 12 1 2.</_></rects>
      <tilted>0</tilted></_>
    <_>
      <rects>
        <_>
          8 2 4 4 -1.</_>
        <_>
          10 2 2 4 2.</_></rects>
      <tilted>0</tilted></_>
    <_>
      <rects>
        <_>
          8 14 6 2 -1.</_>
        <_>
          8 15 6 1 2.</_></rects>
      <tilted>0</tilted></_>
    <_>
      <rects>
        <_>
          8 17 9 2 -1.</_>
        <_>
          8 18 9 1 2.</_></rects>
      <tilted>0</tilted></_>
    <_>
      <rects>
        <_>
          9 0 5 6 -1.</_>
        <_>
          9 3 5 3 2.</_></rects>
      <tilted>0</tilted></_>
    <_>
      <rects>
        <_>
          9 3 4 5 -1.</_>
        <_>
          11 3 2 5 2.</_></rects>
      <tilted>0</tilted></_>
    <_>
      <rects>
        <_>
          9 3 4 9 -1.</_>
        <_>
          11 3 2 9 2.</_></rects>
      <tilted>0</tilted></_>
    <_>
      <rects>
        <_>
          9 6 4 7 -1.</_>
        <_>
          11 6 2 7 2.</_></rects>
      <tilted>0</tilted></_>
    <_>
      <rects>
        <_>
          9 8 13 2 -1.</_>
        <_>
          9 9 13 1 2.</_></rects>
      <tilted>0</tilted></_>
    <_>
      <rects>
        <_>
          9 18 7 2 -1.</_>
        <_>
          9 19 7 1 2.</_></rects>
      <tilted>0</tilted></_>
    <_>
      <rects>
        <_>
          10 0 2 1 -1.</_>
        <_>
          11 0 1 1 2.</_></rects>
      <tilted>0</tilted></_>
    <_>
      <rects>
        <_>
          10 2 2 8 -1.</_>
        <_>
          11 2 1 8 2.</_></rects>
      <tilted>0</tilted></_>
    <_>
      <rects>
        <_>
          10 4 8 3 -1.</_>
        <_>
          14 4 4 3 2.</_></rects>
      <tilted>0</tilted></_>
    <_>
      <rects>
        <_>
          11 0 3 22 -1.</_>
        <_>
          11 11 3 11 2.</_></rects>
      <tilted>0</tilted></_>
    <_>
      <rects>
        <_>
          11 0 8 8 -1.</_>
        <_>
          15 0 4 8 2.</_></rects>
      <tilted>0</tilted></_>
    <_>
      <rects>
        <_>
          11 2 6 6 -1.</_>
        <_>
          14 2 3 6 2.</_></rects>
      <tilted>0</tilted></_>
    <_>
      <rects>
        <_>
          11 3 8 14 -1.</_>
        <_>
          11 3 4 7 2.</_>
        <_>
          15 10 4 7 2.</_></rects>
      <tilted>0</tilted></_>
    <_>
      <rects>
        <_>
          11 5 4 8 -1.</_>
        <_>
          13 5 2 8 2.</_></rects>
      <tilted>0</tilted></_>
    <_>
      <rects>
        <_>
          11 5 11 8 -1.</_>
        <_>
          11 9 11 4 2.</_></rects>
      <tilted>0</tilted></_>
    <_>
      <rects>
        <_>
          11 11 3 4 -1.</_>
        <_>
          11 13 3 2 2.</_></rects>
      <tilted>0</tilted></_>
    <_>
      <rects>
        <_>
          12 0 2 2 -1.</_>
        <_>
          12 0 1 1 2.</_>
        <_>
          13 1 1 1 2.</_></rects>
      <tilted>0</tilted></_>
    <_>
      <rects>
        <_>
          12 0 4 12 -1.</_>
        <_>
          14 0 2 12 2.</_></rects>
      <tilted>0</tilted></_>
    <_>
      <rects>
        <_>
          12 3 4 5 -1.</_>
        <_>
          14 3 2 5 2.</_></rects>
      <tilted>0</tilted></_>
    <_>
      <rects>
        <_>
          12 3 4 6 -1.</_>
        <_>
          14 3 2 6 2.</_></rects>
      <tilted>0</tilted></_>
    <_>
      <rects>
        <_>
          12 5 2 7 -1.</_>
        <_>
          13 5 1 7 2.</_></rects>
      <tilted>0</tilted></_>
    <_>
      <rects>
        <_>
          12 15 6 4 -1.</_>
        <_>
          12 15 3 2 2.</_>
        <_>
          15 17 3 2 2.</_></rects>
      <tilted>0</tilted></_>
    <_>
      <rects>
        <_>
          13 8 9 14 -1.</_>
        <_>
          13 15 9 7 2.</_></rects>
      <tilted>0</tilted></_>
    <_>
      <rects>
        <_>
          13 14 6 1 -1.</_>
        <_>
          16 14 3 1 2.</_></rects>
      <tilted>0</tilted></_>
    <_>
      <rects>
        <_>
          13 18 10 6 -1.</_>
        <_>
          13 18 5 3 2.</_>
        <_>
          18 21 5 3 2.</_></rects>
      <tilted>0</tilted></_>
    <_>
      <rects>
        <_>
          14 0 10 1 -1.</_>
        <_>
          19 0 5 1 2.</_></rects>
      <tilted>0</tilted></_>
    <_>
      <rects>
        <_>
          14 4 10 6 -1.</_>
        <_>
          14 7 10 3 2.</_></rects>
      <tilted>0</tilted></_>
    <_>
      <rects>
        <_>
          15 0 2 7 -1.</_>
        <_>
          16 0 1 7 2.</_></rects>
      <tilted>0</tilted></_>
    <_>
      <rects>
        <_>
          15 8 6 6 -1.</_>
        <_>
          18 8 3 6 2.</_></rects>
      <tilted>0</tilted></_>
    <_>
      <rects>
        <_>
          15 10 4 4 -1.</_>
        <_>
          17 10 2 4 2.</_></rects>
      <tilted>0</tilted></_>
    <_>
      <rects>
        <_>
          15 18 6 6 -1.</_>
        <_>
          15 18 3 3 2.</_>
        <_>
          18 21 3 3 2.</_></rects>
      <tilted>0</tilted></_>
    <_>
      <rects>
        <_>
          16 0 8 4 -1.</_>
        <_>
          16 0 4 2 2.</_>
        <_>
          20 2 4 2 2.</_></rects>
      <tilted>0</tilted></_>
    <_>
      <rects>
        <_>
          16 22 8 2 -1.</_>
        <_>
          20 22 4 2 2.</_></rects>
      <tilted>0</tilted></_>
    <_>
      <rects>
        <_>
          18 0 6 1 -1.</_>
        <_>
          21 0 3 1 2.</_></rects>
      <tilted>0</tilted></_>
    <_>
      <rects>
        <_>
          18 0 6 24 -1.</_>
        <_>
          18 8 6 8 2.</_></rects>
      <tilted>0</tilted></_>
    <_>
      <rects>
        <_>
          18 5 6 8 -1.</_>
        <_>
          18 5 3 4 2.</_>
        <_>
          21 9 3 4 2.</_></rects>
      <tilted>0</tilted></_>
    <_>
      <rects>
        <_>
          18 19 6 4 -1.</_>
        <_>
          21 19 3 4 2.</_></rects>
      <tilted>0</tilted></_>
    <_>
      <rects>
        <_>
          18 20 6 4 -1.</_>
        <_>
          21 20 3 4 2.</_></rects>
      <tilted>0</tilted></_>
    <_>
      <rects>
        <_>
          20 1 4 1 -1.</_>
        <_>
          22 1 2 1 2.</_></rects>
      <tilted>0</tilted></_>
    <_>
      <rects>
        <_>
          20 4 4 20 -1.</_>
        <_>
          22 4 2 20 2.</_></rects>
      <tilted>0</tilted></_>
    <_>
      <rects>
        <_>
          21 14 1 2 -1.</_>
        <_>
          21 15 1 1 2.</_></rects>
      <tilted>0</tilted></_>
    <_>
      <rects>
        <_>
          22 0 2 22 -1.</_>
        <_>
          23 0 1 22 2.</_></rects>
      <tilted>0</tilted></_>
    <_>
      <rects>
        <_>
          23 0 1 2 -1.</_>
        <_>
          23 1 1 1 2.</_></rects>
      <tilted>0</tilted></_></features></cascade>
</opencv_storage>
