<?xml version="1.0"?>
<opencv_storage>
<stage2>
  <maxWeakCount>5</maxWeakCount>
  <stageThreshold>-1.8907757997512817e+00</stageThreshold>
  <weakClassifiers>
    <_>
      <internalNodes>
        0 -1 100647 1.4467563480138779e-02</internalNodes>
      <leafValues>
        -9.3316745758056641e-01 -1.5400411188602448e-01</leafValues></_>
    <_>
      <internalNodes>
        0 -1 61186 -3.7948854267597198e-02</internalNodes>
      <leafValues>
        2.4103878438472748e-01 -7.9768460988998413e-01</leafValues></_>
    <_>
      <internalNodes>
        0 -1 60711 2.2381510585546494e-02</internalNodes>
      <leafValues>
        -7.8797054290771484e-01 3.4775513410568237e-01</leafValues></_>
    <_>
      <internalNodes>
        0 -1 42219 7.7894188463687897e-02</internalNodes>
      <leafValues>
        -9.2699784040451050e-01 2.8832602500915527e-01</leafValues></_>
    <_>
      <internalNodes>
        0 -1 134052 -3.9269523695111275e-03</internalNodes>
      <leafValues>
        4.1931888461112976e-01 -6.3246029615402222e-01</leafValues></_></weakClassifiers></stage2>
</opencv_storage>
